3
102 64
-0.100604428375888 -0.0246731124822342 -0.15869593330421 -0.0158985942901783 0.0606119507661023 0.278351070805558 0.110904654832051 -0.0770273162838697 0.0737377000160166 -0.0234030149758706 -0.268682504772335 0.133307099219859 0.242973321662523 0.0783476299436741 0.238953775371276 0.107389623554762 -0.140329496778281 0.147402403300545 -0.0577669051830078 0.00544846747062328 0.231681771820163 -0.173267877825051 0.186612860034396 -0.0786534349103811 -0.262267908427154 0.0489211458294778 0.307700248281022 0.0365960477355779 0.150375405100952 0.177673810239867 -0.0272107677680294 0.172967011680166 0.064105534223346 0.0044205401074635 0.177686769826824 -0.0667088864548782 0.122443637775476 0.21349050336362 0.0353220312783795 -0.0825573453056382 0.0254958827861131 -0.0641853289625071 0.106227384503874 -0.0667953471620703 -0.0256689566913672 0.0346092033469351 -0.0652818530635489 -0.0743768902720881 0.131834858387461 -0.0319874201767016 0.0320478250271204 0.0392553821687292 0.147894803486013 0.150241499654882 0.0696055737915593 0.200343610452162 0.201673753869983 0.11797235465768 0.176533907672461 -0.0821945320596471 0.0382810381102918 -0.332564419499405 -0.0901242639156419 -0.119631295899822 0.0181833478254225 0.299643693149797 -0.259528774717805 0.0658725671431812 -0.127369662720661 -0.00377056017520553 0.0694461690115745 -0.0563237330359144 0.209266713385879 -0.0610278983966674 0.371703564287467 -0.395834461133246 -0.0381854814557789 0.249520369397563 0.39147925603636 -0.24849866065817 0.143562874923172 0.217680732256517 -0.0311426625913611 0.0454558077409003 -0.325252307807525 0.19169126965208 -0.0708920105406626 -0.183332038005479 0.377841630214954 0.32142087735273 0.00239071028187376 -0.0695529939861168 0.106837466002006 0.0494449956925816 -0.0466443471485386 -0.198010894875317 0.00478214743884668 -0.0771389662781219 -0.0685775036666317 -0.042365737545283 -0.0624903481742405 0.0781914952890476 
0.137914189658061 -0.0966260018271132 0.0399409747070095 -0.0309534615943911 0.0208219342043673 -0.288220477095296 0.0183817699540142 0.00700547393127863 -0.20914023027919 0.141426149813015 -0.00228478544390121 -0.175715090426406 -0.186985529712571 -0.26246186016418 -0.0641318632902988 0.0189266045214292 0.0179938463914089 -0.150408445012073 -0.00285065844423878 -0.096761169433735 -0.0878371879581029 -0.00857944258252383 -0.191899121624453 0.119758090529228 0.293935760071863 0.0388605107474702 -0.149601731627755 -0.0873131529835796 -0.185741918642287 -0.0155837613113309 0.0322954013594241 0.0161505329175701 -0.0594266691050319 0.0227240470364115 -0.0263732621202952 0.235093693307113 0.0987284524732008 -0.22358123579777 0.0177140027083545 0.208617062957356 0.217479363331004 -0.0868496232917354 0.119459269694631 -0.150258240193394 -0.181564333782839 -0.182156600049941 -0.130180860121296 0.0573027055787581 -0.127415911699089 0.293764197239352 0.283799527984872 -0.0349597986209178 0.0664489363797454 -0.0412253444931119 -0.143606698628485 -0.0164866435222334 0.0122862525399354 -0.127039753924939 -0.167267071888904 -0.20592762340155 -0.14856408022218 -0.104631797361668 0.14703158628491 0.0451255241542594 -0.0884530317308493 -0.0924856013019967 0.17742649760097 0.159163737423622 0.00139281281200563 0.0395855858605858 -0.201717032721645 0.140875815669364 -0.162236130076967 0.19550310322527 -0.119930589211355 0.238327312932064 0.0178686539214358 -0.145529982506354 -0.531898435837181 -0.031165706501696 -0.234376612076446 -0.333356912113955 0.12280208312843 -0.0648026195379634 -0.146938725504192 -0.286274850518939 -0.00441422105739878 0.100387072174968 -0.286935183388004 -0.206198622173351 0.166763191706047 0.136193546729418 -0.0315031960156507 -0.249846754454586 -0.0710589785675877 -0.0807452112266314 0.00769568245379263 0.00128358473634345 0.189940609156867 -0.0131245699051574 0.0163227915406129 -0.00110991814568924 
0.106740907635506 -0.0605833449044808 0.0873654426862658 0.118301517548391 -0.00529183289732411 -0.20747709302055 -0.155810333027026 0.0650225727579267 -0.0982189668819194 0.149428381606304 0.159041705775367 -0.0374455782866727 -0.279148428797313 -0.0946785643334291 -0.331045248890575 -0.120842891650724 0.13987791383078 -0.232837084273684 0.049290799112899 -0.0996519984773011 -0.198934230514872 0.175214784344985 -0.296875315219498 -0.0324507649514565 0.251374722930472 -0.055687158857863 -0.25811511933266 -0.0277508769370929 -0.151104034614241 -0.102591005101366 0.0346107395862806 -0.0701313812731423 -0.077721971331575 0.0308751280156494 -0.247582153370152 0.124786099848985 -0.119592373489221 -0.167661475757191 -0.0262097720878894 0.151788612905844 -0.00731276677424645 0.0215377735337169 -0.0125332917133116 0.106238523813104 -0.0114513712491601 -0.148772286328063 0.0371233494830928 -0.0115392788906829 -0.0215373874528471 0.0537417412743607 0.105650015936752 0.0490841422544257 -0.0512494817445461 -0.147917007314598 -0.0488525077037013 -0.162317305202507 -0.109242583185941 -0.14017267792448 -0.106773741181993 -0.104647928892857 -0.06365278185482 0.288675267093555 0.139891207206684 0.0640693033274385 -0.190604505866117 -0.216980659971646 0.186622653365696 0.00142037839371149 0.151027476328337 0.0544416925728502 -0.0934362630899591 0.102374014108992 -0.280370766727326 -0.0531692292105038 -0.290679607734581 0.434624816342527 0.00238759388954687 -0.204791156363378 -0.451541861284058 0.164513231210244 -0.131427835776154 -0.268514321794835 -0.0202010142004041 -0.0453242257386051 0.294000149982638 -0.252323171494354 0.0573203785376603 0.211068915566318 -0.308278380641428 -0.229184375337184 0.000278669372731825 0.211366608513113 -0.122134107706948 -0.165266647306021 0.030007884074184 0.135815454563901 0.0352670093557437 0.0973243341658557 0.064730870489322 0.101754891217804 0.0314319548584284 -0.0352561865637395 
-0.0714116177955596 0.0748011723256803 0.0355472286704139 0.0511726808755717 -0.01574471967824 -0.196843164691268 -0.111884084035858 0.0836200665663226 0.00757469363201328 0.0042417440630791 0.243987624697569 0.0163296139908711 -0.156838229705288 -0.0205703917327091 -0.157002178856819 -0.201034243128347 0.0842863757969056 -0.145278474870868 -0.0624110225579517 -0.0214808150636588 -0.179605731887479 0.20340742273692 -0.083961380846342 -0.0711177795835065 0.18818672874916 -0.104843105899124 -0.291306192600302 0.0536262349952647 -0.0527743211786901 -0.212589449697435 0.0677732242168321 -0.129934022300052 -0.177289631579104 -0.0524963236629139 -0.324494622030454 0.0553546312201653 -0.082431371452843 -0.110773880450623 -0.144941929039782 -0.0528495086953128 -0.0809813904924373 0.161114222756409 -0.153004611944587 0.28633625368833 0.146545539771107 0.028142865695225 0.181160935631876 0.0622428565056629 -0.144015826798235 -0.149405112451044 -0.0382677125289211 0.00715853399227398 -0.177526152155914 -0.111940701264405 -0.107587127241966 -0.1189905912903 -0.290650927271935 -0.17532287269891 -0.10449484160817 0.138968306274398 0.0392309086824613 0.372889481888902 0.0776353981712624 0.0436715648730199 -0.0176218207411314 -0.157529987324918 0.0969048848529251 -0.136147335348326 0.0674760119606756 -0.0335992604388715 -0.00959665535851352 0.0635060897246794 -0.279659469694452 -0.0415824143388357 -0.271847549110784 0.316658002143499 0.0487925970225739 -0.235016397547454 -0.212937464798893 0.17840177528357 -0.038423364398298 -0.229327922728886 -0.0245443010247366 0.0760159524533477 0.492160951248818 -0.0940962725973299 0.043573173710937 0.0593727723890775 -0.318791929565435 -0.249276362343032 -0.091245767392692 0.14703413246217 -0.129753903195609 -0.053934765555843 0.0127515338571535 0.322614295318082 -0.0402492026703953 -0.0796719945111386 0.00569153719346196 0.0204679446897646 -0.0455403610637195 -0.0231842606312913 
0.272543673219373 -0.181782616728539 -0.0129042655911614 -0.110500958551557 0.0867743924952072 -0.219736185307475 -0.0663920335091302 -0.162213152544279 -0.101977578323127 0.0963209177051216 0.0338102526478776 -0.14840022199801 -0.0495078842368572 -0.174874103727477 -0.217319852813052 0.0924908831452237 0.0725324886469394 -0.170858277186319 -0.0699467918695536 -0.132817024346417 -0.0972590855765831 -0.0469419359514236 -0.29278607700519 0.16347044216623 0.242751396765452 0.0251934437091407 -0.0109228477750521 -0.000596755309848716 -0.152694877925212 0.0794008855035277 -0.112643370520194 0.117400355380298 -0.0299401490516251 0.00616031877402561 -0.0702483036392236 0.103310775485423 0.0660994508493931 -0.224129582069991 0.0591481012477285 0.20416696865124 -0.0166914338302178 -0.0165388858938011 0.106203412017669 -0.297705936311661 -0.122796812207134 -0.156642123973314 -0.11673662091928 0.14033730908488 -0.00892400131246481 0.249937038548707 0.200569200249562 0.118726711196854 0.0327522416270191 -0.0198038294160055 -0.0823693037241368 -0.11819544940356 0.0845119692231079 -0.0644011277603702 -0.19524541812837 -0.14854525711963 -0.080474944793577 -0.175584413077521 0.0888600136411898 0.0433162769766054 -0.0477072265485395 0.0442444864000182 0.187168576719339 0.23291126080418 -0.00888258775476485 0.0192933368566763 -0.245478754141787 0.141781133103852 -0.0739796278534509 0.158031576368617 -0.0422261796309472 0.166993284075968 0.00923910544804766 -0.0190063166795027 -0.559281386030968 0.114279247641677 -0.16134168221261 -0.11517711422448 0.0630474777536284 -0.0193945428198755 -0.243337582177597 -0.226101799358626 -0.0324341489014882 0.1748887087208 -0.270912668704807 -0.00339354026422992 0.0287598809789732 0.107889546268459 -0.0228870995007297 -0.0779029460731852 -0.0603541933399275 -0.200009670391976 -0.0495969824674733 0.128257667238926 0.258462365564821 0.149463068630586 -0.0445074467820368 0.0429971179410619 
-0.178558985641566 0.178582613921297 0.0500764081146967 0.0319731308854439 0.0238756905157116 0.178969858123194 -0.0249338924205835 0.116027279762645 0.123204607974795 -0.0823661978931982 0.163420452555657 0.217581428168054 0.122753884927953 0.248636243833703 0.059332163022939 -0.0675360527949295 -0.0575481655732968 0.0538226092824038 0.104740517286514 -0.00860066025503207 -0.0174988696521025 -0.0200923106417297 0.276944398420015 -0.190211894000968 -0.292587256491112 -0.126386481547359 0.0849511042858564 0.0571546373448048 0.206388194157927 -0.0850403638742427 -0.0236103707408353 -0.0413032790345376 -0.00808028849867203 0.00823889824995399 0.0597694652389736 -0.249169194102105 -0.0441609986923887 0.233199925637664 -0.0676089458868035 -0.191176204592439 -0.159754204478541 0.158469012793072 -0.131825591141996 0.243040557220651 0.242211077517024 0.206410767863866 0.10657826756653 -0.0459286533718449 -0.0292668358060788 -0.246534643720933 -0.173993059184646 0.0201169839866536 -0.0253017414238113 0.168305327828377 0.0156215591777393 0.079768002957801 -0.00128864131014764 0.012534361356483 0.12559058438628 0.199825126725593 0.197097499908365 0.175602230066644 -0.0925292067203277 -0.0223599572595472 0.170991614183639 -0.0712447575892933 -0.237859115092603 -0.212775236944844 -0.0109910962342214 0.0704385775937838 0.154377941037451 -0.168415213161877 -0.0138968573266181 -0.0679600827730114 0.0916413897949153 -0.141988393744639 0.0276382104865555 0.0452279157242664 0.528147691203156 -0.0611733841598578 0.0474044271828221 0.131205360201516 -0.151298534600712 0.131311861101534 0.146491272423851 0.252460092606263 -0.116077902120767 -0.211421661273491 0.114863026987516 0.124040801805175 -0.0442351777485916 -0.127984002228283 0.0596632108969822 0.194383778331434 0.0812752943553292 0.12181530971793 -0.0263802313935315 -0.0639847649085953 -0.270682010358243 0.0546920459328685 -0.0260589329353774 0.0675445070069758 
0.166201689823375 -0.104402655234443 0.00657079039597918 0.0308240505829448 -0.0313357147408578 -0.262808863930986 -0.168010709264595 0.0626493126000678 -0.106542767835244 0.0247681371168208 -0.0163943611199922 -0.0430025622096699 -0.164579531293738 -0.171155694387099 -0.114631090170314 -0.148362237617698 0.0301305470693048 -0.144553412745611 -0.0842149347042972 -0.0443871572288803 -0.0816545501374498 -0.0321436401089577 -0.0576109368276371 0.102047604008766 0.252430894325192 0.0297950058603909 -0.225710756701437 -0.0443046978252539 -0.169089415842072 -0.107865268999827 0.0132192643783019 -0.0585142979034158 -0.217869557455259 0.0505914040821554 -0.129603278216184 0.0315371627786753 -0.082715857787309 -0.200282567884241 0.0604097962305939 0.212991798995525 0.0751991734620068 0.114151563750899 0.0739866020873985 0.111480026111522 -0.0883842480568134 -0.0311361725558924 -0.0778572763791709 -0.00579114936236116 -0.0586630195155346 0.115379084863152 0.106536614715082 -0.0262952670269104 -0.0405222917802874 -0.0192604912784514 0.00247873807086505 -0.0389431783437626 -0.160368107259076 -0.122407139364337 -0.153200422136918 -0.0894145957506404 -0.143086520813376 0.02395033455799 0.0803372511316534 0.106852107632282 -0.0276693450583285 -0.042268726454944 0.220360138999562 -0.0752151935894332 0.0282764497833415 0.0119606719182758 -0.0745799899161931 0.153886498921618 -0.201710343851413 0.214131982859755 -0.147401130571615 0.284696239877392 0.0856900726200936 -0.148312142816111 -0.334378236212675 0.0612587362650926 -0.145873864374272 -0.231424128655173 -0.0359168059002715 0.0295305627702284 0.0581300021058509 -0.209996002666731 -0.0055032022959486 0.1026621386431 -0.228853817787177 -0.21429698540897 0.171372837517232 0.0388320196321176 -0.0342326039704193 -0.142659271256382 0.00308275681836678 0.0911510252217605 -0.0131074535216798 0.0345886530129996 0.158012770894881 0.02368904497232 0.0213710441881595 0.0214057374456876 
-0.0796055100983527 0.0359059235791296 -0.00808983854084952 0.0540219897926023 -0.0390956541949175 -0.000734723426292248 -0.0762997158487133 0.124934792956803 0.0200484868507327 0.0218353958951856 0.130225206826489 0.0315218028359435 0.0207656724773682 0.0441858211140839 -0.10832282899748 -0.0782738693899911 -0.0257660775131025 -0.0774819330285798 -0.0489718965400232 -0.0198332672399307 0.01084134063344 0.0889420604526681 -0.00771561390385906 -0.0389537110115937 -0.0101070901133247 -0.0639581926126596 -0.10870098541433 -0.00893230545139203 0.0771064003304981 -0.0850695493568672 -0.027349706298508 -0.0324983484165372 -0.124599015820701 -0.0796891696872759 -0.175036687268177 -0.0638469420315923 -0.0768589319546023 -0.0233611618911671 -0.0927713719480634 -0.0676184311577763 -0.0717329125339505 0.197466517590539 -0.0563758223549684 0.222710174681189 0.145322392827848 0.159886621079875 0.153991913564759 0.00582065164950205 0.0500837148479236 -0.129403780587427 -0.0990932120073662 0.0245194976639058 -0.0853503968589253 0.0122081255251876 0.00318654311622085 -0.0936129959334654 -0.170867671608707 -0.0485161729341908 0.0428498343445136 0.092363992082301 -0.00458569111476566 0.228284657144123 0.0249802051057854 -0.0534781918492486 -0.0650137941598584 -0.106820252855305 -0.0249880619446015 -0.0956293727324185 -0.0451190837661234 -0.0566100097684684 0.0545214562181991 -0.0732798068175275 -0.145294747209317 -0.00979612465012804 -0.0673640675220048 0.0713569081947107 0.0775991781305078 0.00329738092734578 0.0817466021127078 0.0549037770647477 -0.0538475287408756 0.00346488458607477 -0.00969645007659082 0.0892619380461847 0.158387700068066 0.0699092823139436 -0.0597963512249087 -0.0660440237955932 -0.0531429352859347 -0.0559774225284765 -0.0739184875100446 -0.0572473192977935 -0.0880593638822498 0.136620048450253 -0.00684328179314497 0.148022569307991 0.0545729177623989 -0.0586438368755374 0.0170176043728012 0.0809394378822463 -0.0434734541506478 0.00822647500396329 
-0.118567914167809 0.154278682713465 -0.0238696146180789 -0.0513632666683253 0.0428677486093543 0.358861729433213 0.141063092121415 -0.0701278172780044 0.144227825887184 -0.129190271412815 -0.0606182633776112 0.195796847590622 0.158315358208515 0.20233639159781 0.262662630695786 0.173024999279926 -0.0727027032562894 0.213857018339965 0.0476779345394917 0.0392572702581523 0.153345957200682 -0.0584646637232915 0.374412628543415 -0.109865889727631 -0.268704308024375 0.113889769060588 0.2332685716403 0.154146176111005 0.202989215185249 0.0412595567170657 0.00407319829184358 0.148104322000552 0.137421391060644 -0.097981893467073 0.190474713854931 -0.234217749621522 0.0306807187346885 0.286387598373587 0.046200031128752 -0.25535094203194 -0.0858412942457446 -0.0920674710408193 -0.0339952732224887 0.0572068233792232 0.120890210111748 0.0815235692764265 0.105091452776726 -0.0999937055886455 0.103359395582967 -0.219748317011101 -0.237962509833736 0.0337162423096956 0.0173363105764578 0.116432620554033 0.102096915783418 0.197841655942199 0.110180059185167 0.0966414836274059 0.18889835461285 0.066036919573816 0.153983106267359 -0.0426958600791285 -0.114945504353192 -0.0509523947071307 0.135414889888198 0.085753613613069 -0.296883151694695 -0.0910671473476771 -0.0360617860197109 0.0524381372696007 0.157732168000434 -0.169485836125506 0.210681114944379 -0.096917162005722 0.292534000746504 -0.34045827999087 0.0892749252791067 0.19767160524133 0.518465975447601 -0.240762792055082 0.205343027235398 0.350335291013007 -0.0656463364946915 0.0116101605822146 -0.0393309736168908 0.314953827647112 -0.099737602530817 -0.179177107204009 0.43310877325688 0.226978759283049 -0.133386085710702 -0.184696531765491 -0.0201629744383015 0.151905691797914 -0.0316736322816184 -0.0325182735406862 0.0120184987913541 -0.0132741338406777 -0.131951215197264 0.0440628044551717 0.0213799181518101 -0.0279803766332541 
-0.126214868423743 0.16861971598669 0.101567698612271 0.155081687191267 -0.156042739885269 -0.149293394326749 -0.118732617627271 0.0857909530113121 0.0700538666320852 -0.0739480771466579 0.313272255086979 0.0632501410386949 -0.137661178024025 0.105661226918647 -0.14574706357069 -0.304546157048914 -0.00075697233656395 -0.0285309350103776 0.107838618849333 0.0331434295623886 -0.163310934999014 0.245963630065355 0.0409487863220355 -0.140199315189153 -0.0643381723786554 -0.0502172246607483 -0.187124186165729 -0.0148520092563416 0.0459710352682102 -0.224248682242458 0.0977272074475646 -0.0543147355171329 -0.0338263173487205 -0.0830262351233424 -0.231245739255525 -0.0344651906431525 -0.0645759615064179 0.0473522675897371 -0.170216385439175 -0.0851181419932431 0.0380176801181388 0.0461306170662647 -0.0915760559485056 0.272802893315888 0.151606725069732 0.11417126270726 0.239354281154141 -0.13440358837171 -0.0410432777300473 -0.174680505040735 -0.122361429189958 0.0140181485964849 -0.128345337593534 -0.0490091380405461 -0.0746495134244678 -0.141514343545407 -0.260621958503072 -0.0341449771030305 -0.139759751058563 0.254522774877766 0.149326050361152 0.260755191860343 -0.0358744474900125 -0.133089718076038 0.00993123750116524 -0.288175048027125 0.0106681352659653 -0.250580033833803 0.121166018506479 0.0353454338853757 0.194944453931334 -0.042719056829825 -0.103508652599258 -0.122804587629207 -0.20619327639514 0.137538764590353 0.0824400232356497 -0.237854032192575 0.105731065119108 0.230433765032747 -0.0341273317055553 -0.044384125384529 0.0406967468989516 0.00349929753225003 0.571775350095451 -0.0531895430954612 0.0620161656920492 -0.0523670037156853 -0.239672914509513 -0.219186186789243 -0.104133423309695 0.100171099795731 -0.0249883285761825 0.0589153700540217 0.10344999914245 0.316118420562399 0.0123430335478496 -0.0704657984920912 -0.203696048772811 -0.0814514194626032 0.00566526310224941 -0.0386923248627822 
-0.037270518037731 0.0604025636193914 -0.0194024503342405 -0.00584184427474072 0.0424965017204987 0.311092854338293 0.193386888283301 0.0292499824925396 0.145774980436108 -0.00712467661630864 -0.129389828940322 0.131318894501035 0.145841727053075 0.0888687888994738 0.264078444748383 0.107722885942462 -0.0435657556403286 0.107198459710885 0.0371100179267452 0.132514966721064 0.185833648022766 -0.0310352199611804 0.171249539621184 0.0336127212053605 -0.232410178290417 0.0424873050431377 0.25051898262578 0.0733466725062418 0.113131245477688 0.054917986623971 -0.0144708303406063 -0.00999140183404624 0.0677308446638819 -0.0612356537955699 0.0934575542742523 -0.0734654962571499 0.0143495369442288 0.147172693169749 0.0929957222051208 -0.0914178939079188 -0.155181824281108 -0.0983710021165439 -0.0100706652291651 -0.0417301317852591 0.154463861826584 0.193128404872498 0.0845765467127577 -0.0698750856959739 0.0785572847353769 -0.0715403251287095 -0.0882971235321568 0.0315866679894213 -0.00664710231496058 0.12913675718847 0.0622135645506976 0.136986887186386 0.0411056159860649 0.109066028860623 0.176165476764117 0.00826498953617908 0.128771267367312 -0.0723966346899908 -0.166709083451769 0.020789211196923 0.0906003549845811 0.161746476339805 -0.210875930400722 -0.0110456627301482 -0.149590046230857 0.0223451516288846 0.103741242728324 -0.134036636406887 0.154483146949596 -0.1779798847684 0.293386115137089 -0.375127819012168 -0.0936417705371788 0.176382408720299 0.41647649361624 -0.0926610688658968 0.203218270021785 0.275866981644633 -0.0326127712540608 0.0650943537750315 -0.0620452938268429 0.244912580972586 -0.0790247796010465 -0.166814877967214 0.238436112919626 0.186817389525262 -0.0456331380529383 -0.148610070877644 0.124166229601235 0.165229133439964 0.0822922118749587 -0.150833576817002 0.0259926281673521 -0.11951936558268 -0.0745364492853475 0.0399695240690927 -0.011486199113938 0.0331442522243014 
-0.215696208988877 0.273294346316136 0.0350141775644274 0.0340250924665227 -0.16456529577974 0.200991859868102 0.0175756723258009 0.0924485731603853 0.147620373268072 -0.130703246012675 0.136203230657077 0.249831050234924 0.0876120641230723 0.202452548314945 -0.00393269992895243 -0.140587654178456 -0.0194676778743421 0.181956283159921 0.0285543532175581 0.133161214166334 0.0147455365244997 0.0961772607554129 0.128116309997256 -0.0184127980914925 -0.158239274768665 -0.0560828067058816 0.028804353683213 0.0490242550477595 0.235776182461524 -0.13079303039518 0.000687235841644871 -0.0919663856076168 -0.0170146652952581 -0.121215923445648 0.0723695569363109 -0.130269178507683 -0.061045201212857 0.165135911728334 -0.0422861886294271 -0.33624438472253 -0.192969651680102 0.076700435940677 -0.140563454327986 0.179041020682032 0.34217361057804 0.124898578117287 0.25705274709038 0.0209453545607963 0.0495600096195355 -0.349105526454892 -0.331814744153811 -0.0079710877447166 -0.0749836909469022 0.0552096758679002 0.00734760158027578 0.130386762207377 -0.0345590411135956 -0.0514982203186609 0.0793682396392562 0.187084344210003 0.295729003260159 0.235069170130077 -0.189468325587477 0.0385932159676327 0.0415382426119536 -0.0489849449810348 -0.228197525983104 -0.24196409215612 -0.0766896326627919 -0.00897692601629929 0.19148051365956 -0.0916830184547014 -0.0356023816514519 -0.229430215107581 -0.0148506376513602 -0.143784842903456 0.0484749437785848 0.10928317431751 0.467185468997381 0.0908826450634875 0.148252066584319 0.179853464502049 -0.066246268026728 0.122186968360743 0.348002332169051 0.209065303600383 0.0662919551748506 -0.130857970514855 0.179507177872201 0.0770720201653203 -0.0604541198338955 -0.119478130698383 0.0718035216361159 0.128859708390163 0.143193795565391 0.154630142989091 -0.00146402206701215 -0.00788552837068777 -0.205317724732911 -0.0614292299755206 -0.0642237239327129 -0.0502722184405544 
-0.18469807925518 0.230588807621019 -0.0726892856106633 -0.0780162110356689 -0.0961690940512441 0.240735610687981 0.110565927007728 0.0718384649998776 0.1548400813477 -0.111533365566072 0.10457122100283 0.248107738172699 0.186521126621394 0.179802951867476 0.108581207278616 -0.124439307163618 -0.130015186317793 0.065360485150779 0.0105710845420083 0.092120764326028 0.047530493249809 -0.0424548292562629 0.198850098702169 -0.143302476657495 -0.202535761222422 -0.117763420977463 -0.00861642181392778 0.0629700380503766 0.208893007974636 -0.00300204262919698 -0.0714052727248854 0.0742281490599916 6.4224357604746e-05 -0.123210981473863 0.0279016893714913 -0.120358959265285 -0.122025357769173 0.202262691280063 -0.0408644276842456 -0.242471264092925 -0.120721915371274 0.12401945016323 -0.054041296659292 0.23628857001644 0.17490241224896 0.106547471169061 0.174112610345108 0.00333656279741123 0.120331302749587 -0.317313593858932 -0.194604946596403 0.0457664593564341 -0.0743111877650054 0.109050431209337 0.0853938361214644 0.0945696529816904 -0.0481384765550565 0.138805907465643 0.241906257435687 0.194933539065591 0.209160767116874 0.0767736401408915 -0.178797329933793 -0.114142509172165 0.152645392640075 0.0029246403385242 -0.253092296348336 -0.172717988390296 -0.0410315328844069 0.0565878363536198 0.235555190448158 -0.130264363999281 0.182251519089884 -0.205195463709998 0.137393618550132 -0.243539632169539 0.0713310211676479 0.122310285753799 0.452661920235323 -0.0195789736872866 0.142060820250278 0.21098838127999 -0.0967248159412011 0.0672931639420236 0.0914344295806766 0.184820778347011 0.045108801504311 -0.140806134770761 0.266932469914859 0.174487984676673 -0.0887635321119363 -0.14013155460343 0.070552177925829 0.101862458740153 0.092800597030532 0.11833319115265 0.0181336966478903 -0.107244422684566 -0.199965783042764 -0.111952330989408 0.0363098247926741 0.00899808057452444 
0.159800039132477 -0.201665024532637 -0.00324893186151423 -0.0670881551476383 0.10685839292659 0.0996439897795476 0.115953946648329 -0.0989589957195185 -0.136473169813728 0.0463208117056119 -0.21098626718308 -0.185469032214773 0.055159843167656 -0.195888604735246 0.0290719202752089 0.196358047389359 -0.0864721980566058 -0.0105504211339943 0.0488944320748318 -0.018606959118077 0.0403960051054937 -0.234470704237285 -0.169916304574576 0.216269235528818 0.139300399729545 0.071332039894568 0.176043174937033 -0.047991486929565 -0.180562320417572 0.22932855443797 -0.0765387377613371 0.0905380366306424 0.0276947508251616 -0.0231557260153662 0.188489068168714 0.14169191724228 0.137428664794744 -0.106991822996135 0.0351001600957059 0.112310935606405 0.0359798634449859 -0.253296653653733 0.15506827903929 -0.399532323194164 -0.156019446159384 -0.0797992512143897 -0.213268304241053 -0.0124695747636811 0.0037239218249038 0.245988897414201 0.246507343158669 0.0694558535155546 0.200479923142688 -0.146961777116448 0.0466523054487461 0.0942505242289218 0.219113113826894 0.093779017097701 0.00500759613347165 -0.22844780037554 -0.182271643718557 -0.236344108371373 -0.0170262967005535 -0.0476473705113807 -0.0948287996227666 0.165762998367148 0.0356560466180817 0.288974743585851 -0.082107352889075 0.0242194231801886 -0.160122869622605 0.150642851580074 0.0798542321065302 0.0687519427161903 0.17998129560921 -0.154760146860301 -0.118481949093263 0.153539940781693 -0.175145082303033 -0.16250177260267 0.0606194380660565 -0.0272477838938703 0.0608257663871549 -0.0351038155233089 -0.47237035031572 -0.0966735256175609 0.00458929111887486 0.0819380817975354 0.0265107847552091 0.161021514115642 0.0296195289955823 -0.0751923492097892 0.148878346966349 0.00643191962366148 0.0146579687762779 -0.25134478760411 -0.100364158246595 0.0665129085974173 0.201064379355676 0.0724564107459698 -0.0335842086894988 0.0112496704199109 
0.209718880007204 -0.0574284422473989 0.0768072466401646 0.0422884341291852 0.0289269634782446 -0.256048059822554 -0.0389034467459618 -0.0845818554379494 -0.0973061962603293 0.107428548087479 -0.0294650147354833 -0.113186937432711 -0.207559096848296 -0.25417966339288 -0.223304546859291 0.0102481797385128 0.014535170324714 -0.228003158123084 -0.120735062699958 -0.10249219989477 -0.0355026069486412 0.062913749935093 -0.323256388583497 0.0884297217025314 0.197228286194379 0.0821613120849146 -0.213499679759107 -0.0551244215169656 -0.18895115709847 -0.00706751713799553 0.0533198307715302 -0.0511515998820704 -0.0970167422769501 0.0196029420283268 -0.0635423626826934 0.203628069713132 0.11121322976074 -0.267046220322231 -0.0609270774477465 0.25202886044464 0.0433471805879965 0.00876443174523688 0.0726262451883127 -0.0156350486170562 -0.172109297691042 -0.196468014939973 -0.141377106885014 0.0196388655917971 -0.0348933426657115 0.250902643657916 0.129128934336341 -0.0550336723992031 -0.0135255801133269 -0.140827916760161 -0.0772123626920709 -0.0386015040923223 -0.000701511017548235 -0.119405519737061 -0.203826311922071 -0.151673708145575 -0.213426676477307 0.0581492289762804 0.0952239046618554 0.0816530015789023 -0.119858048329641 -0.0969951633207904 0.24272731537763 0.15909804862188 0.0374792525006603 -0.0467525913927013 -0.078421335935817 0.179631569876919 -0.157985372825164 0.181324075249223 -0.151430007404601 0.185969987944597 -0.0601194314671547 -0.198817256604291 -0.558602722264742 0.0385335943279543 -0.152359563096764 -0.25174522565344 0.0253763910941452 -0.190105562719993 -0.0103542287052153 -0.309739612870205 -0.00940820939981006 0.20607615531487 -0.260557636656192 -0.146859487857252 0.0725620861858018 0.0426108798810985 -0.0352316075249622 -0.192367400090473 -0.143714384887861 -0.0130337913616379 0.0227846222242065 -0.0152422815905215 0.253460092590982 0.0329758280231194 0.0612567367879722 -0.0117999948486622 
-0.120732847772356 -0.0484654302456864 -0.0860550134393171 -0.0753648795536434 0.0596718616547242 0.260872420059378 0.189489380640768 -0.0616444371221941 -0.012230376056416 -0.0374699844032265 -0.138222377032077 0.0308931911365659 0.116422067517652 0.157433145086935 0.311798641321296 0.14899077999702 -0.0933334195956943 0.148189661265911 -0.0557945228332689 0.0118708214674661 0.106692266609306 -0.213288790623617 0.346717280301785 -0.100266300671805 -0.240818075131913 0.0109159263273311 0.23267791698078 -0.0208589569734417 0.108592628723384 0.094389287680978 0.000547065791354196 0.0444991217727725 0.0310463618858523 0.049139676134732 0.291732473009454 -0.0685514924185801 0.0571110109830438 0.26598484457323 -0.0214819306561376 -0.0830095834007025 -0.00233840276464275 -0.0250050255652517 -0.0238663789871156 0.0413389250823743 -0.0826053149704736 0.0662457809913941 -0.011002130433591 0.0381692165760062 0.0727467057617058 0.0300956082341344 -0.135547965137266 -0.0654321379766916 0.0753067404003518 0.202016141680214 0.107430554259193 0.193108610240569 0.214862674899532 0.10565250874844 0.190733999607348 0.0380466585657489 0.0251216772989987 -0.181325232252534 -0.200980453841016 -0.0536785783702444 0.0989712132085029 0.186192594427604 -0.21916861315837 0.0168685349616184 -0.165468468033447 0.043945288707431 -0.0546565483080283 -0.193753397844614 0.246746931164352 -0.0472200650185818 0.312318974485586 -0.421035356913962 -0.0728416913088623 0.126186423267153 0.41976758281376 -0.197992056771038 0.161866521611569 0.282223817690513 -0.0840864915167487 0.0399638898064693 -0.17396605027295 0.160214073896319 0.0245121698179005 -0.136048204547888 0.283188232184986 0.148980961625741 -0.0453045069701606 -0.154414656795251 0.0122429994921259 0.0324520885590781 0.0645423282245681 -0.0954372312187272 0.0182415626548756 -0.090114095439015 -0.082390634156071 -0.0094022774609946 0.0394999797616447 0.0503157871467136 
0.167769155098436 -0.0878707851519362 -0.022535446745612 -0.0153178885766115 0.0254718921409834 -0.313878075346762 -0.0444826402611142 0.0327006373241048 -0.022702266909232 0.049882103685123 0.0781183453225698 -0.120438668557741 -0.10642993141708 -0.169271457239503 -0.209940529463303 -0.0811850630680248 0.0456545144588092 -0.145719054810517 -0.0165419789650386 0.00243715208141021 -0.0726325764837562 0.157917637540079 -0.25482581402188 0.0676259540383397 0.289070182162419 -0.0869295993084765 -0.256290568686586 -0.122705180461367 -0.112163878026398 -0.0201909723533353 -0.0438403475979297 -0.110222220858497 -0.127898244696178 0.00733868518166082 -0.269212911880063 0.181945758554387 -0.0726070070756204 -0.219849915731798 -0.0898067875275091 0.200847279177737 0.0979880257654219 0.0573829051278013 -0.0127240052045863 -0.0102048375854404 -0.0381317553515981 -0.120370066400572 0.0182068170593182 0.0728436772037375 -0.129988338470215 0.0839976720793662 0.191418083496909 0.0380988082648156 -0.0927604014955813 -0.0473921584488647 -0.152393332667491 -0.115686997191016 -0.241449759491469 -0.178935589291697 -0.208418097470931 -0.0382872898579417 -0.132954368444594 0.138460287568669 0.0729510450263443 -0.0197350273192845 -0.195878123184447 -0.206703388423179 0.243269274965342 -0.0463768214090358 0.0708579290305739 0.0389700262886556 -0.0819296852641622 0.120116408787205 -0.0983410925239959 0.16505396007864 -0.314554578114637 0.311320113479301 0.0630654691180363 -0.203749880008145 -0.444790409742252 0.136397608383277 -0.141177271504184 -0.206759709696617 0.0814173926429515 -0.169598052716403 0.208070532495573 -0.221953785163877 -0.0303611041930169 0.14638299617705 -0.258599112551652 -0.256555443197395 0.0430184758861164 0.101132731616729 0.00159724961732732 -0.136129070928543 -0.0696698831509183 0.155464952016399 0.0169242028382499 -0.018690546975472 0.128950125422737 -0.0439794445366915 -0.0264919722105405 0.00821388172118278 
-0.14326727348386 0.199073026900464 0.0655920693362037 0.0673207934144728 -0.104457762266102 0.137822601487204 0.0113614684386907 0.0795514070444607 0.139997906385421 -0.0353952933835347 0.143572922484969 0.2155800158436 0.174726836497834 0.188698168220687 0.0471453374337005 -0.191999887508552 -0.122844639526737 0.0518758407970103 0.0279309822155857 0.055408092771966 0.102460249292106 0.0669270865218495 0.158432307913776 -0.0975554093158568 -0.165221248938236 -0.00315215818226146 -0.0328534060979587 0.14599772925647 0.182744717744722 -0.162118882561062 0.0292549350158126 -0.101708197982653 0.0836868760535969 -0.040313261838236 -0.00256659493295487 -0.263697880546823 -0.171421135470997 0.219933686579359 -0.0430711023784821 -0.298748283263857 -0.240206385443766 0.126552271522093 -0.0790531085884014 0.284724003441333 0.237089861882553 0.158258991330142 0.281708734805714 -0.138114494986039 0.00209517654746384 -0.306298837216072 -0.33104854631867 -0.0651345166476295 -0.100674151455346 0.0618932522297819 0.00647244069314599 0.102243402633609 -0.0585286784904468 0.00489019749146759 0.125205244512985 0.219989539521893 0.241678128644778 0.213928311115889 -0.14718802324169 0.0229113549425344 0.0691656456929018 -0.0272905572679073 -0.274588858319323 -0.223131362730822 -0.0790233305223662 -0.0571776477769277 0.231301002472821 -0.120157673859736 0.0398039308836734 -0.163717091108148 0.0498889050761423 -0.132039265691123 0.0673344287325229 0.000643813693769349 0.556675605184457 -0.00687294169160266 0.174486571246106 0.228153437234235 -3.73712811643668e-05 0.0996988824846226 0.288335409556006 0.225927783258787 -0.0242096772502383 -0.156915729838082 0.21041637771052 -0.0223775079086095 -0.0962421542232347 -0.106611519659807 -0.0613809339622897 0.222409072263727 0.0918459521850862 0.0934115753703342 0.0507813742364202 -0.106912060827568 -0.276037750684179 0.0314325033537847 -0.0112833959308914 -0.0233173979898365 
-0.0282415984176836 0.0160831934951751 0.0328209462194608 0.0132623217913744 -0.100933061948614 -0.16727628497391 -0.0924297541976062 0.121753482137415 -0.0232903013569123 -0.0291715947978079 0.183655341417426 0.0216361162242778 -0.177519100509663 -0.024306242344856 -0.234319907228021 -0.189147296015328 0.0391648088144147 -0.0483642882684203 -0.00511824194289123 -0.110609438963618 -0.0731224752325939 0.170868116513152 -0.164081772576556 -0.0612968474537631 0.200732030946534 -0.0955072557334155 -0.200071689031146 -0.0698158988031322 -0.0767326734009024 -0.14691103517265 -0.0500015482229549 -0.0742821089360868 -0.119775147645465 -0.0280679810486901 -0.185315249374134 0.0624018869931421 -0.0980954450707534 -0.202438223592918 -0.00640966326918578 0.00518059091247657 -0.0143158434476814 0.0894972945832298 -0.0404545775337705 0.110175459399244 -0.0418107354057547 -0.00625360535959833 0.107273250225768 -0.00328452485763951 -0.0125793615600516 0.00589709911953932 0.018506361262341 -0.0324333862114266 -0.0989094983082322 -0.0730111155315762 -0.119903271935931 -0.193327167574302 -0.261514203428876 -0.123225398665679 -0.129036080944494 0.100299763268029 -0.019429572536094 0.263036767372614 0.135481511487327 0.0704358281706809 -0.0711734577285836 -0.218971960976314 0.0934609451366094 -0.161205570904413 0.0996811671605549 0.0595036581933033 0.0265994998149365 -0.0182408842163047 -0.139539976640714 0.0115853452162858 -0.300441464973618 0.330157243748754 0.0999532379302509 -0.221675503618768 -0.16791200908456 0.148384929467187 -0.0788574763937204 -0.175131005769232 -0.0885025394407307 0.106659705886912 0.333112674285885 -0.113947488193295 -0.0752018751066716 0.0612265015758911 -0.245403721273079 -0.304188734815671 -0.0110986178867935 0.0352170610633599 -0.119718513337368 0.0210554546815729 0.0858282373623843 0.251600655841714 0.0895496517944158 0.0101420287971227 0.0977675350942589 0.0987231589449456 0.0135587686733838 0.0273901807978602 
0.10526421051157 -0.177375813437854 -0.0132184157744884 -0.185510404940185 0.0870419315483699 0.172812997299553 0.186867089248448 -0.0763205618553461 0.00195041653074178 -0.0690428393041718 -0.274355200164094 -0.0066166558710781 0.158307356614134 -0.0732246384938739 0.202703910397472 0.225298462562452 -0.100216872691376 0.129621610404161 -0.062552037923347 0.0842905118487408 0.0663057935258683 -0.287050081556002 0.1752576408466 0.0353830173595994 -0.0939035400387438 0.0102286827807079 0.232284133872236 -0.0464122800461369 -0.00610049701939769 0.14246714929233 -0.0712765939653686 0.106049775156129 0.169601813024285 0.120537502612145 0.301541408090322 -0.0177835293398464 0.135534641632833 0.00907722537222106 0.180625667600864 0.0989469433564583 -0.0205667630175295 -0.143029113678716 0.118906491719137 -0.268167257011175 -0.0766229273000389 -0.011797355605814 -0.242385009355524 -0.046566290189804 0.0690027985182729 0.183927024875567 0.135884164729753 -0.0413847737323512 0.192925137432886 0.014712700167792 0.131706823001799 0.212721276803588 0.29653102114104 0.0957941591567762 0.0476195470857913 -0.187433128287171 -0.050806445030097 -0.343128829620715 -0.118733248343819 -0.0245799132335249 -0.00570204915136759 0.2540222466991 -0.0824629089492866 0.140017368425967 -0.153010045674765 0.0261741550742109 -0.0243501313352151 0.0599839743548166 0.220380319450714 0.00894635721067424 0.308210117481597 -0.286382760494001 -0.0806836164510653 0.262449649154295 -0.0244025097559194 -0.131042829107224 0.104825788629516 0.114024367831686 0.0627099865407458 -0.0320112178590132 -0.512431327065385 0.155494594776466 -0.0127670353437893 -0.0506403352528483 0.197468891993208 0.302972150628579 0.0838236682654731 -0.0550750044738845 0.153438544749894 -0.00121754292623677 0.0709463167641975 -0.233710468345373 0.00879001958249979 -0.052724252889409 0.134836503072105 0.000327235393420426 0.052419630213197 0.0288181580877312 
0.169711423121897 -0.148362310741717 0.00647237684176408 -0.0122495777832594 0.0819007271402639 -0.148770290521249 -0.110278049749385 -0.0561902389409483 -0.0504943263371707 0.044651651781514 -0.0534929623497495 -0.138816104046408 -0.121860485492201 -0.242019366672404 -0.215138585354657 -0.0132259532359355 0.0634812698938229 -0.0584931602443643 -0.0298555383137902 -0.00523982464726392 -0.112302464048534 0.0841489980757887 -0.235224460877295 0.128692333747179 0.271215267058081 -0.0513435103778456 -0.17735187812055 -0.0784228603935222 -0.196321789600284 0.0147956356681057 -0.0900004610584894 -0.0835521298503199 -0.0805796469127466 -0.0489690075836536 -0.165653618193641 0.177344949179901 0.0579743628916571 -0.152306716578478 0.000940476864733069 0.277583193144367 0.0687701310792079 0.0446087587821063 0.0104306061148922 -0.20874308381311 -0.117391458738056 -0.118348373448711 -0.0202630217359524 -0.0390920533742461 -0.0487675543294791 0.148956758686189 0.263257334720319 -0.0604468511487961 -0.047768319886048 -0.223242021667528 -0.0442997743773752 -0.186201188438118 0.0106473636521201 -0.0647986629594123 -0.0472286094009676 -0.159008394345367 -0.267133377512888 -0.0976746420375838 0.252802923370242 0.0475162005431846 -0.194214858340871 -0.0363873043206951 0.295871270838185 0.147701501517484 0.135055574811959 -0.0263557098048005 -0.14735563031263 0.220474187137955 -0.116162188772861 0.109908542026061 -0.183991829475965 0.254337644481946 -0.0799632822590065 -0.186116496629772 -0.458636566955095 0.191744609996492 -0.163347777061657 -0.29201672103191 0.0117582002643935 -0.13455519918987 -0.0263417919318704 -0.233217901350192 0.0263462014886798 0.143914085540069 -0.259587142798405 -0.144775222799177 0.035811086101725 0.0982226529705012 -0.0204509391811514 -0.0418139611412101 -0.0586146980850654 -0.0799894903379907 0.0650127453685466 0.0587881215160046 0.211270658558478 0.000667737303585331 0.0438409704676622 0.0383581349379345 
0.129481683987399 -0.150271875462398 -0.0253087244430826 -0.0935006049320808 0.122614692966092 0.0490374767004827 0.0395984249316307 -0.121331234891532 -0.0712659969220471 -0.0584712992081248 -0.133409173910035 -0.086782655021994 0.0858696868332056 -0.0750983738967996 -0.00500268428247035 0.147838087162294 -0.0746073945112387 0.0341722110090647 0.0146994316831316 0.0285502877375178 -0.0453620142833512 -0.145990567152599 -0.0762406802966541 0.190148282632481 0.057257141278221 0.0862191372550975 0.133935035339858 -0.0297909239799377 -0.078256200788581 0.187817324340196 -0.0359203045965148 0.0161029610657565 0.0364067037420419 0.0959584251902418 0.179385033021978 0.012333970188213 0.139963885636395 -0.0677056558957805 0.156109710596809 0.0724411108385369 0.111054213915626 -0.116577170388403 0.0523594951024715 -0.230784416254803 -0.187474939842225 -0.133036296713051 -0.232398506706543 0.112534567016143 0.0722247885492004 0.190456921784979 0.110155754625023 0.106332410210744 0.204450754843194 -0.0178808472109226 0.0245393992768149 0.00533174626149405 0.0654673692421091 0.0543808000000306 0.0388507555438275 -0.242421356577819 -0.106948325442894 -0.260316675066576 -0.0462147647372196 0.0018617285151873 -0.0300529526844388 0.129256621535087 0.0874870836486994 0.220419959941418 0.0799277945975093 0.0551924477618489 -0.0968834036146783 0.0845249883245796 0.0789516283362134 0.081095366330221 0.0600511340110227 -0.104159678404411 0.0140266668569669 0.158679406558638 -0.167834907336762 -0.132574109068678 -0.0399700446059047 0.0121448729671605 -0.0570082107054885 -0.0634068262811914 -0.388432630583213 -0.0444373796197384 0.0301569751295003 0.13039139349832 0.103519429745197 0.205596592451679 -0.00269022290943485 0.0901572373906898 0.0836017629782565 -0.116983869188139 -0.108385749428931 -0.176183023020518 -0.148767276718133 0.0976683494782342 0.128632883151 0.0523629269160572 0.00694988232281736 0.0284373189760098 
0.230496026267555 -0.14488034672589 -0.059788269908623 0.0256235759224903 0.105501396462148 -0.181052413053216 -0.0414248577120312 -0.178165380175948 -0.0716565456890312 0.136306434421514 -0.0929598448546627 -0.270792880505194 -0.13470039366934 -0.24563516254334 -0.115431696697444 0.0898423490773643 0.0633809226344471 -0.0583348975419692 -0.0927662427120011 0.0452494628336124 -0.011351746449722 0.0289760060175368 -0.271716389807605 0.0698351020000096 0.215317863256692 0.0288778658495991 -0.0557539620629999 -0.112388049627083 -0.171607328101315 0.175522513709315 0.0521682536629042 0.0757609193894329 -0.0642336924562249 0.113830836127621 -0.103605175555145 0.238989948879818 0.0549586630573825 -0.201393376431039 0.0122492259759836 0.265484236245682 0.0779564220548233 -0.0900437573728029 0.142437006885627 -0.199960589093815 -0.117163071752707 -0.061849423430763 -0.162978274707832 -0.0440287433554911 -0.0361184281259052 0.242010319372103 0.259850189995309 0.0931795167357244 0.117271262811935 -0.100788638180923 -0.066518197052534 -0.149855320841087 0.0849694886551621 0.0196536702095288 -0.160786274769714 -0.202854920404425 -0.162713696020929 -0.163491650772532 0.198218480168189 0.0338850321675701 -0.0958203459241532 0.0344285736627723 0.190167105582866 0.0943709760864659 -0.00669283934244569 -0.0234634655633982 -0.183308951158182 0.0741166374744955 -0.0419590450603008 0.0757345606960816 -0.0680202617665824 0.101551704202842 -0.0462079489072043 -0.0219744261043855 -0.476817217993809 -0.00476349591441861 -0.142198051935256 -0.150365420693198 0.049236935783928 -0.109725393941917 -0.203080276914572 -0.231477535114879 -0.0194458634298049 0.193595123270481 -0.0760724298277263 -0.113973019543588 0.147076793771838 0.103852468438146 0.0423479217706988 -0.127938970876235 -0.103339712080229 -0.142146941042653 -0.00162258681497452 0.121837153801288 0.232549525504542 0.00425286644151946 0.0314274378810605 0.0097452259253894 
-0.208387850069795 0.229820337417301 0.0692738200883016 -0.0187640154094683 -0.108131166566528 0.243970933928547 0.086913014574351 0.0316310882309332 0.233973126776399 -0.0591687907064459 0.0178108096011279 0.197268052230321 0.0943791468639 0.270042527487973 0.0607521962705349 -0.0705810313958247 -0.0448506545473589 0.173575255216931 0.0423541009730381 0.0706913963380085 0.136370195326418 0.071658153236168 0.251473203402687 -0.074511365022231 -0.281542502815457 -0.0964221411364978 0.155183924553373 0.128433022489756 0.229432703134372 -0.103847170442677 -0.0970664411107994 0.0979524749489401 0.104411713672936 -0.130291356146016 0.0557761356534159 -0.134044590415841 -0.080582824424044 0.237613080143058 -0.0786502534646096 -0.279875184701461 -0.236363079669845 -0.0115707931485548 -0.153314339777249 0.0702699660547321 0.202096551831641 0.165614925894945 0.187020049429462 -0.0686565618274952 0.0381086329317758 -0.311128723972427 -0.198926126017759 -0.0112545198305897 -0.0825623653379536 0.186440800284026 0.0773354847837459 0.139184235296427 0.0466387511721474 0.0765866193984 0.121015070261104 0.12819754136094 0.176624248400357 0.122071874843005 -0.099368188686949 -0.0277662759590774 0.213522622076622 0.0190257940365006 -0.230777801152677 -0.159761769789526 -0.0530567162289351 0.0360672506364997 0.243867192426976 -0.117311145558377 0.0455481176241895 -0.234881806260573 0.0733312564007615 -0.25551291859719 -0.0227490097467106 0.234514102387177 0.547425268843586 -0.0492360421861311 0.155644856463683 0.223749004032504 0.00617159657901075 0.105771283272901 0.0169830068647883 0.293975570049091 -0.0250009058312888 -0.146226465766153 0.330354956652208 0.14549909223486 -0.192415776479907 -0.119308554552174 -0.0300035093656677 0.176594978521471 0.0278211014762846 0.107370054710603 -0.0581640921027331 0.0244671379137412 -0.157999032676458 0.0343554609538234 0.022835857864358 0.0283256841965256 
0.190004550268438 -0.204209439434902 -0.0518063808148409 0.0406746008986557 0.0758621525340008 -0.327048476947258 -0.167436719692442 0.055105708096327 -0.192828631053254 0.0647406835492002 0.0144734057937523 -0.12419886983519 -0.1057241884208 -0.152170111477959 -0.139900743908433 -0.0544761360376232 0.123500307506464 -0.149075513629813 -0.0798279654704349 0.0125764143545732 -0.121937157110189 0.122948188672916 -0.251719388601988 0.0698651813585865 0.26221078411772 0.00355263162387119 -0.245490130658752 -0.0884007539344158 -0.234324782817782 -0.0243607103562315 -0.0819819813717274 -0.142035234435452 -0.0865587393847929 0.0238523827290381 -0.13525604402436 0.205114890243804 -0.00652181235399317 -0.290347204914099 -0.0514343252551256 0.203565387925989 0.106278616879451 -0.0768165588295831 0.149012389506343 -0.118305683062967 -0.109969587343659 -0.087743323538222 -0.112705130065558 0.0370303679335949 -0.0793671439651752 0.253699106925287 0.24771094569625 0.0461597194700512 -0.011299774133752 -0.0787078522924558 -0.0974510130056325 -0.17389488503286 -0.02333491981233 -0.0564682299545221 -0.126009515755424 -0.0910717795582326 -0.241046590625117 -0.0594160733040154 0.218207732035274 0.0785630872257519 -0.147592549253727 -0.0203313355474362 0.294476621515947 -0.032651279729712 0.0131310088764889 -0.0986564086295195 -0.0925771500919975 0.162082290222795 -0.180076820167219 0.177159887453893 -0.273968669387501 0.267442155471508 0.0567237243328087 -0.190498818934184 -0.382097650916129 0.0838975086692693 -0.174903479371635 -0.3168736035664 0.0511193070861438 -0.170397091563719 0.00489291152519596 -0.225754030414634 0.0301780759925914 0.225906114423092 -0.280301170067819 -0.254515014120193 0.116651105078154 0.145107692664117 -0.11659363032628 -0.238085919320184 -0.069987569923998 -0.0299156163739485 -0.0179736076807458 -0.0243323671559006 0.260893035193709 -0.0422519030338674 0.0709887430081396 -0.0170033068118019 
-0.0296237273625544 -0.0941907384804506 -0.0790834928412331 -0.122031715454602 0.0922311453982246 0.0792619557107967 0.0974197976459875 -0.13777816164778 -0.120016973791391 -0.0466596876573905 -0.246766190511166 0.0398859042268224 0.113662283867611 -0.0278626453066776 0.232613177922636 0.241724862205924 -0.11648555468057 0.13809875258082 0.00538083891286305 -0.0330836834513722 0.0508989551209861 -0.16109298182213 0.143884349041587 0.0429619190302734 -0.143214496285742 0.129023714321069 0.313725557924746 -0.0190299219840184 -0.0373666974664076 0.150674878822784 0.0670161742648793 0.0585114978727789 0.173158554892127 0.0872100435999702 0.247730127571322 -0.0456481572447482 0.147699327703088 0.00854099757783296 0.0108053145618682 0.0681422576120392 0.0752957529924484 -0.1175634908996 0.149378458857229 -0.205741325522707 -0.12448731168809 -0.0328735802125626 -0.109674071906039 -0.0082926931926659 -0.0235484945215285 0.156315757533886 0.0771894792909573 0.0522128847840442 0.205456064857031 -4.72133671004819e-05 0.0923263327607955 0.122155942906342 0.262068099042608 0.178186828791225 -0.0424337727185439 -0.0860249051695041 -0.0315644198030902 -0.330759445997534 -0.0438670499959095 0.0213604288476118 -0.0510620643333511 0.269743718068332 -0.149949304781881 0.0997687550010901 -0.0334011488913769 0.00284058412204137 -0.112622082916809 -0.0714600435743078 0.23151635576443 0.0905838015478322 0.206138640002275 -0.239830159723553 -0.118555055710765 0.0462552813975398 0.0450931113654526 -0.186010865167326 -0.0142880705787935 0.0495520005845743 0.0242141886812976 -0.0541562523751859 -0.387689103312338 0.15340396077941 -0.0926734007039582 -0.0121075596771888 0.159940143224772 0.251835688165568 0.047115397762852 -0.0771614301760156 0.0355288816484343 -0.0649719271133573 -0.0169527732762497 -0.244551898056658 -0.0399447327557334 0.0107109356794816 0.0772699799435994 -0.0418354713290465 -0.0105785017347375 -0.0328191237135567 
0.0936873681137329 -0.0565684033809865 0.0253269124605372 -0.172863837074762 -0.123764143935853 0.202927058094423 0.138665058721399 0.0528439253804543 0.0853447390085011 0.0848357704618569 0.115145717733408 0.0200625182242449 -0.110449247531918 0.0326376603231161 0.00804648477909635 0.0219722527872262 -0.0767828856395203 -0.0477984599347991 -0.0188833550981278 -0.0873648231837643 0.00961299857937813 -0.0171883223642527 -0.100275801517829 0.102368759665483 0.112850229222757 -0.0269030634300348 -0.0783781196604102 0.0755834829903823 0.0188510359000132 -0.18143930973291 -0.171721419703202 0.211666559994411 0.0978465878109279 -0.144182492862307 0.0102007455750205 -0.0783358620921514 -0.0609146142966824 -0.172233603727984 0.0435780725060598 0.114177627044968 -0.164030523215097 0.0912682339643728 -0.124788424950255 -0.0919708838578383 0.041626739064269 0.138087737396649 -0.0597084908495781 -0.0511695000296038 -0.0068942808074943 -0.108894161714223 0.0341968950168184 0.125595664932351 0.0176183579705665 0.0407468687070394 0.0442464650585315 0.0546651245917212 -0.115324974413657 -0.013569949857089 0.0476117248457982 0.0170032411241264 0.0203827954498514 0.143011867289023 -0.0162181081990217 -0.11148993618321 0.000624362242917184 -0.0783667595937456 -0.0892168845250547 0.0132477165710253 0.0457648538041931 0.0706856620099332 -0.0264632655075974 0.0589436291631524 0.111780974085647 -0.0955270201596688 0.0791544875151698 0.115062181706524 -0.226492441348916 0.256983954568004 -0.0251528926003892 0.163785700189064 0.0209259707253984 -0.0481282311897296 0.0202607802195993 -0.116143276830111 -0.0642259373449933 0.00920195467871971 -0.110651328615106 -0.0630941639493321 -0.138767017809436 0.209033486273906 -0.0818124677075639 0.0808414163771958 0.0285342551624564 0.103482811934605 0.00867379978308209 -0.0115806480752869 0.0107796953347884 0.0423188415290512 -0.000762616182690871 0.0402236341024033 -0.0258509704690546 0.0282907094585274 
-0.140180993176759 0.101264107701759 -0.0935520139606086 -0.0980345121436763 0.028030617444732 0.271609133415584 0.0972426647713896 0.0264494410597682 0.00298303495465521 -0.11280663413342 -0.0290859108220238 0.207104380790668 0.177124836642054 0.133259289336211 0.195007000200886 0.135008866931313 -0.0550489228077311 0.191021563517794 -0.0233441572159552 0.0113091835195658 0.0390210282554606 -0.0208431276141245 0.375050473007017 -0.122969779003306 -0.203118329820314 -0.00856972625593462 0.221594806344963 0.12110716571482 0.198535403567399 0.0835757346672659 0.0505587736112051 0.0897534386023071 0.122321761094996 -0.00180095998653596 0.274882992737656 -0.174436208453385 -0.00315545427489041 0.22427743239133 0.0116039650670891 -0.142058932341263 -0.0690014465482263 -0.143724576795957 -0.0202181639270119 0.0357891494341613 0.0981020925210041 0.091368034341382 -0.00445934832782265 -0.0107370694762066 -0.0533621280808538 -0.111323205379352 -0.119076483371522 0.0310552170847207 0.170077088708287 0.0962404757976852 0.0685087158192565 0.23008377475733 0.0245929704951414 0.101741750324753 0.108995621386431 0.121637578463665 0.150168414127047 -0.0305654163809739 -0.236460310728825 -0.0350075461510845 0.242429290779732 0.0333912285688331 -0.262325738275731 0.0551162364397548 -0.0172118875514262 -0.0399348588818363 0.045382018137564 -0.104258347586015 0.100839973191744 0.00153212759131568 0.231507223279202 -0.287087533139859 0.0617690136967564 0.19026509593087 0.430608513879037 -0.157573955757509 0.186480341191099 0.243175118348683 0.0490950837724229 0.0464821788944512 -0.11222072043447 0.285100411845031 -0.0278064988705036 -0.115434991954221 0.244626794151772 0.234372154942697 0.0102102137073378 -0.113161064355209 0.11343590272727 0.142188825972814 0.00400762212157609 0.0391897395151842 -0.0184953498246095 -0.0299900166611171 -0.0868409465484152 -0.0236139621014498 -0.00644394167796085 0.00655176313150334 
0.018641959901361 0.00571209453222289 0.0393114176952771 0.127561542272459 -0.109323189545544 -0.257051631642994 -0.114059260319382 0.0698482155772565 -0.0221948834898947 0.125679035304055 0.116872708165956 -0.159176415470488 -0.158271933691686 -0.193956498350293 -0.170188825978959 -0.199023122978093 0.0569825323920528 -0.155306185016987 -0.0742668473488719 -0.125839554824221 -0.169284740324507 0.0957124948875346 -0.284098757400487 0.00453728920587598 0.33694820536918 -0.0109524978492248 -0.266704956964236 -0.0573944313269059 -0.157182248933058 -0.0957211598766642 -0.0330166874231727 -0.167296111199932 -0.165521282496324 -0.0051973091377892 -0.267944043699565 0.0457249506258475 -0.0458150829938745 -0.292318703424391 -0.0207347397001596 0.194521565488295 0.0921231255638349 0.0502037381368689 -0.0370753922478987 0.0903613089688143 -0.116322514985193 -0.118164656776954 0.0887852095561267 0.0723171975147322 -0.0462012798801217 0.114262230520458 0.113789788279646 -0.0464561720861329 -0.0718961246226908 -0.0683344471714942 -0.166307264209877 -0.138706168663466 -0.298947765184317 -0.210119654285961 -0.202664956951085 -0.0242727087360402 -0.168895182241312 0.250142890955818 0.168752041746018 0.0379217495009779 -0.144682870901224 -0.191644508328462 0.324468795017648 -0.052248225167987 0.038535331073084 0.0237640297630795 -0.127077233635644 0.199590883490444 -0.264884418983826 0.107222349438924 -0.223663800206684 0.368657554425416 0.00171700659439153 -0.304365642059625 -0.48182802242056 0.157883274300693 -0.200552873028114 -0.206566227378615 0.151052720832629 -0.148684320166089 0.257060675909171 -0.319063056022276 0.087337815119184 0.0834859459361514 -0.293515668108807 -0.249510702580691 -0.0231164141650531 0.0510229267033955 -0.11702781729804 -0.129132179175532 0.00240311522062813 0.151681149128869 -0.019010173613407 0.0558486274621504 0.166917683969931 0.0168390302231061 -0.0172495529079011 3.29171200613752e-05 
0.108853958851869 -0.0950079345312795 0.0331037998429227 0.120919238163686 0.00922557980727701 -0.228118119329603 -0.13895483933002 0.103426370982535 -0.150588093391864 0.0219546526381646 0.00580642121444067 -0.0840796583030294 -0.118665432237941 -0.0992386126553364 -0.119806816935402 -0.0853143195674345 0.0523082146986839 -0.181725243289951 -0.0238433562322276 -0.0348390345257021 -0.0623780619199235 0.123897021511826 -0.112058461765791 -0.0351117698630729 0.196635805583264 -0.0513704560122605 -0.162814468881802 0.0359328764293429 -0.267847424499435 -0.0797252113290363 0.0745745596568277 -0.163287979505087 -0.145796710309478 0.129872541497838 -0.0519622563816055 0.136049574906263 -0.0167103325996544 -0.181328969173381 -0.0296352526015702 0.0480943664821056 0.168451618494571 0.0743966095891225 0.121678647748075 0.0272022372366861 -0.238184787328944 -0.0662392206210552 0.00155487484562158 0.006542608657131 -0.104082283134149 0.108569062163747 0.0660496178278456 -0.0993443539268502 0.00763516529962626 0.0143975672321883 -0.106683814925777 -0.042048032348596 -0.138919835409557 -0.0175804911645151 -0.20150305483083 0.022238140011809 -0.198538040713677 0.129359763800194 0.109429503706171 0.0500580356145271 -0.0806829119855604 -0.22586983437433 0.234652244600563 -0.0390042690998378 0.0711990755213034 0.0392923207434651 -0.102114216823836 0.0353046778515813 -0.17520829590056 0.0929707741662596 -0.268478357195693 0.169830570062251 0.0653031638921047 -0.37268943257119 -0.242039175938738 0.0875176340500553 -0.10599382522079 -0.232293719524628 0.0563052700120072 -0.107692201777431 0.180129031857445 -0.140915515982068 0.0177070822771301 0.0614990521632197 -0.306971210608041 -0.207808116131531 0.189776444248981 0.140098352563199 -0.104188746262345 -0.14982091001264 -0.0446978989519046 0.206876230398626 -0.0930111640499529 -0.0385079045983605 0.0728450655818211 -0.0536526190149434 0.0500173652731784 -0.0254452554232115 
0.035630112400507 0.00925851856091026 0.0300174209715883 0.077808775332781 -0.110424568718385 -0.212950193831749 -0.0799551305310604 0.135450493936454 -0.00556207854218635 0.0535618029586647 0.22391337548024 -0.030905704206653 -0.25062723053356 -0.0652086918190786 -0.178226188268398 -0.126109721904413 0.0236233132950741 -0.208861267447272 -0.0792588133542238 -0.0532468197140646 -0.0764804506708165 0.110627029644482 -0.255784792595395 0.067802896562869 0.255376746169912 -0.141940533664691 -0.310591952732219 -0.0279446545200382 -0.0670861633159793 -0.191593911263602 -0.00101949704244587 -0.160954639536702 -0.146442818667522 -0.0259038566534284 -0.285132523527307 0.136731794685624 -0.158973551390975 -0.17739614010581 -0.0247921574663956 -0.00433191114437843 0.0660777926690812 0.141405473507236 -0.0364700254786734 0.0740329304198108 0.0821526623781235 -0.0921546229061294 0.0204870696668132 0.0375688346873045 -0.0253504652040699 0.0401815972086911 -4.9573694040559e-05 0.0803369200540695 -0.152520152127785 -0.0660926829340781 -0.0906575208387025 -0.210224545678319 -0.231357777986843 -0.166743470129772 -0.134998242729436 -0.0342060605625101 -0.0805342347760035 0.199511662131161 0.179691723390887 0.0352343203172202 -0.195160786352592 -0.118391779999718 0.184178624504518 -0.104367198624296 0.0483484920821342 0.0488965248059132 0.0631847907955739 0.113256728441799 -0.177724008772324 0.10971618164784 -0.314148262457263 0.436051268433985 0.0296307707376425 -0.224213429281418 -0.293532132033789 0.177194997091116 -0.14024437220659 -0.185940465419007 0.070245328229924 -0.0138809849675477 0.37006172262486 -0.287604273176861 0.101164898866037 0.126711420350579 -0.330426635111526 -0.290303915603067 -0.0179181155108822 0.121217617191149 -0.0660649353910038 -0.0742546090292974 -0.072476679411628 0.080554745622453 0.0384010411064692 -0.0104140934357421 0.0286510873587759 -0.03177423842031 -0.00228680032260477 -0.042785997333591 
-0.220793265851939 0.0895188722834969 -0.089560753622598 0.0277690455351322 0.0738218871425459 0.134575175205436 0.0616684537905738 0.0555199304128351 0.0964254670024488 -0.143224979859468 -0.0637229603545611 0.180887134445642 0.0932735911157106 0.100968178153822 0.268307181841441 0.17232637443597 -0.0886775693811148 0.136111146533983 0.08063856132769 0.0627976044607658 0.0854837707001664 -0.107425036694117 0.303438688643115 -0.100270177369098 -0.300170471291471 0.0802053753191278 0.197929002185783 0.0687597951211461 0.219879042003344 0.151700044511551 0.11475882828517 -0.00737109309986762 0.089154101415902 0.0484038081740232 0.132662335877168 -0.0895448972710615 0.0826749238756712 0.260497240674657 0.0825548857212055 -0.081810187050414 -0.00591450123720761 -0.0546747293055806 -0.03140247649569 0.122450467131064 0.00666768585385199 0.163537463657449 0.0156492077159735 -0.0249010916834046 -0.0340923220704375 -0.0971412085089253 -0.105484195322425 -0.0259218504781788 0.121792560091498 0.108676844185947 0.0229854818058278 0.168127519466129 0.142363968592656 0.107984023291721 0.111416760207214 0.159915419617373 0.227925941733057 -0.151344479950983 -0.12891224123076 -0.085477670570141 0.184296475180059 0.0958464198925786 -0.171824214452882 -0.10633544367308 -0.0439225950239708 0.00232321022817508 0.0503896609537568 -0.082139386482978 0.185603773563312 -0.0646407697809617 0.177422856476976 -0.334841240567845 0.0284758812369707 0.0789396816421333 0.477867554438866 -0.194900436610551 0.0740373930693156 0.240352121866176 -0.138536311417078 0.169851841294333 -0.051406593883429 0.300204463134125 -0.127098113026625 -0.156616218651501 0.394663655391776 0.19581041435523 0.0313752502831722 -0.157940119602879 0.021049761147769 0.0891296095833507 0.0518574603272551 -0.0761432535336774 0.0789153708894008 -0.0435143017263683 -0.148297737828416 -0.0466558659060187 0.0190824690872953 0.00754083207457137 
0.0318521496992547 -0.0740279659424448 0.06112779415192 -0.16096950220909 0.172910140871746 0.0274721208001983 0.103205080769862 -0.110705338098198 -0.0254519647492255 0.0228401866364793 -0.197863248397396 0.0134145834913982 0.167464757313449 -0.0718192569356056 0.167844088481176 0.267471789716269 0.0328370020085272 -0.015139855628742 -0.119018262457728 0.0833697370273688 0.130063985249495 -0.181471412622778 0.113352477162233 0.0827646856189883 0.000232620833309133 0.009160385853148 0.258088955361506 0.0591833102945358 -0.0654707390274837 0.202419693098303 0.0911361038945993 0.0422992230314147 0.0944125810404265 0.0946586106364713 0.253007806676909 0.0588813276130713 0.157802778258107 -0.0383701366933024 0.0175815536861086 0.0304294208215987 -0.0482514902364541 -0.20150694806253 0.164564947982241 -0.222102569327799 -0.109390236439034 -0.0478231181237672 -0.243561295401204 0.0303529220506159 0.0826082153491026 0.216019905999198 0.148398359923197 0.0416617499563304 0.124009990380703 0.0703099292043182 0.037267624494202 0.0721327964892752 0.199751724007605 0.157949931373908 -0.0417593523030671 -0.0893092333203676 -0.0799397933849348 -0.246434901812484 -0.051397004081337 -0.0223296783859432 0.0814108885078666 0.115298009499591 0.0639117045636143 0.227958777725721 0.0301209390297433 -0.0839491728280553 -0.129077860945603 0.096042747399877 0.070989901898348 0.106822149813995 0.164013386044592 -0.156149309872672 -0.00218547199422009 0.16404001896729 0.00523327182142253 -0.170797618483841 -0.0314332307592624 0.105426674336066 0.0341076032740035 -0.0734561544343082 -0.318373744048914 0.10676260520218 -0.0397230571073116 0.0947303281729858 0.190645105526542 0.114145439457767 0.0787667651238972 -0.0910435665258575 0.0504523061738338 -0.0274193493491328 -0.0297127945026943 -0.185542166438599 -0.119213843732078 0.0583224956079416 0.0527255043609348 -0.0456240813339185 -0.0430792260024105 -0.0501722231117584 
-0.147894576439172 0.242630589666811 -0.0494440650729386 0.113130421459002 -0.129362257787747 0.0200922725371343 -0.110335525972289 0.127986026639519 0.105722104845457 0.02051417597962 0.27917067515126 0.283512861330995 -0.0115000525983126 0.179879970039477 0.0910049443228499 -0.227991329955276 -0.0903968638611234 0.137760063969134 0.117828954437256 0.039973523628662 -0.0040211647368479 0.122067879984361 0.201610887545832 -0.0735713741157146 -0.220358737310537 -0.0343472379407913 -0.0869352872600113 0.0962673205953976 0.170688192914305 -0.187725977932642 -0.0160878099610058 -0.0682920975037063 -0.0895069682666083 -0.0955625221442989 -0.123264405896403 -0.182740467795381 -0.250299810989493 0.178401550705012 -0.13859408585314 -0.306935161329995 -0.223243117386179 0.18938217154818 -0.100449776933956 0.350907914568829 0.358018340663775 0.21092456954745 0.302649739421997 -0.132601376016747 0.067239898931832 -0.276732121112557 -0.350971649430624 -0.109835762961615 -0.239717249813839 0.114574155822417 0.0258321185460974 0.105801355890327 -0.0918414928827957 -0.064894999647708 0.178812826989751 0.28983514945944 0.164005649378582 0.29822627301192 -0.179084361400056 -0.0476104562148694 0.0141734487072277 -0.214592484226378 -0.189975659737468 -0.186716045835011 -0.0737496523696065 0.0832626608796573 0.167409429767589 -0.232679998453902 -0.0488855717186137 -0.166409615256948 -0.094111379425911 0.0468654598884647 0.0112874222536824 -0.0232930742829569 0.443627635440726 0.0768264748497502 0.135866815050765 0.224498421787956 -0.000339335275934772 0.141141383638356 0.373176719946642 0.177651860870944 -0.00901693078790778 -0.217923734053537 -0.0128494401816227 0.00513456853804661 -0.0938783335759605 -0.0833173527113047 -0.083855635761936 0.214852048458091 0.0264279942808617 0.22944165577042 0.0419288746629095 -0.104583329280057 -0.213575564304044 -0.0819822503707506 -0.0254647035796089 -0.0375034460891044 
-0.0895095155415721 0.155077152537271 -0.0219329230865943 -0.11728330303567 0.0163664507799859 0.216270809349685 0.0903179910298756 0.0248732655433345 0.0778418523092205 -0.131806982819391 -0.070941872789599 0.188976963501114 0.11935258037683 0.0947568775922987 0.157388871454958 -0.0192556121716048 -0.0898312434151414 0.201445439861357 0.100560746676928 0.0921719056300499 0.148325668018918 -0.00994684102365342 0.190160710548389 -0.0436780423356725 -0.232674277990837 0.0654402193451836 0.119412486432687 0.017583456497264 0.27534192519656 0.0748297180274712 -0.0295634017378591 0.127714136387052 0.20029150221484 0.0262653981039623 0.100965057459042 -0.26717600868337 0.0273827999201998 0.209855286740266 0.043388004239445 -0.16679260069017 -0.102082117631745 -0.078072146300711 -0.0622010701250113 -0.0411255500567402 0.162264457706399 0.165619032407992 0.11030602610064 -0.107615916836139 0.0945364557256212 -0.13321708709382 -0.218244929967991 -0.000627414159247136 0.0505993761994755 0.077698634833496 -0.0201052503101476 0.114170927362063 0.0597327291190925 0.013030864627914 0.177647151447782 0.102918592163555 0.135172346058742 -0.0344267007768662 -0.140261052125281 -0.0351859721096169 0.116852074935553 0.156365883990911 -0.285921321669995 -0.0012340366608936 -0.0669462283283573 0.0173493552474638 0.0488190637097479 -0.104260210119608 0.161716546072589 -0.104311707183859 0.150557129358078 -0.223990526241913 -0.0144022749663667 0.154421198659325 0.347411850936876 -0.114965753934586 0.113680762225089 0.290736091532722 0.0374846531244652 0.0223378057259559 -0.0627220987966664 0.179482198674159 0.0915520445712745 -0.175739073041462 0.248934064232396 0.258962441852211 -0.204708705900465 -0.221191533319286 0.0233020496518915 0.232133728416403 0.00142597886579425 -0.114400490018812 -0.0338862791711139 -0.00545963943189741 -0.102489722199832 -0.148495721715605 -0.0227398961553363 0.0378186148939086 
-0.255726344331691 0.069876775717725 -0.057085343767202 0.0167135025034084 0.0398352698151212 0.302360048265019 0.101126700692709 0.0233594203579777 0.0512843538269584 -0.075738957301683 -0.00398145344237033 0.190878210032659 0.201184538547813 0.162743969046244 0.185384302832391 0.0884397319973347 -0.0505550367074807 0.130804935123202 0.083509100018335 0.0624948288672625 0.131113486187874 -0.0729523391774558 0.310125539212853 -0.0697904858910804 -0.26109968479454 0.00157163172576686 0.262867324035624 0.0405083624342918 0.235352454032992 -0.045882212219977 0.144913341274222 0.0288557712586092 0.0522250507134488 0.104541003763044 0.118944739369793 -0.131798527316601 -0.0607480870449905 0.198964323989611 -0.0585844120287967 -0.255659040793074 -0.0667007247017607 0.00401258254062472 -0.070483283386665 0.201688176685986 0.168749045139684 0.265798701504046 0.101829503307127 -0.0688715732082184 -0.004184513884707 -0.150632059556931 -0.182626651798373 -0.0866191007636627 0.0668105345780764 0.199950122153684 0.0560479279734187 0.184334332134746 0.0394943357804259 0.0785439193870919 0.164564091478804 0.192640615977863 0.11173842093399 0.00417333686679316 -0.191367666178856 -0.130470759183906 0.291911335793661 0.170479173333676 -0.203422408380343 -0.000247083895602041 -0.0169693585790638 0.0209275482338233 0.0879591649380395 -0.191777394350926 0.148651398816838 -0.106625296981434 0.223765714098743 -0.342533218241043 -0.0364428674719774 0.079207067612439 0.600576550086482 -0.118217541253007 0.0874281950590288 0.237710372754104 0.000292735615081861 0.0921806440551392 0.0039585696980245 0.193466955947028 -0.0116903716509705 -0.250113310447057 0.336678265286632 0.21634395735745 0.00917866287319698 -0.0568776852117802 0.123793689921701 0.179628871235221 0.00674499181204172 0.10498079248588 -0.0870452692201373 -0.0663547502837945 -0.279456283487501 -0.0375108826878212 0.00164726824835389 0.0324975107066756 
0.0491673447663375 -0.00623547755935453 -0.0610800854475609 -0.0966075537929808 0.0969523328398371 0.222387195994272 0.147059782708064 -0.155916501633216 -0.0822171311584891 -0.027120954996024 -0.162698871019803 0.115107230364033 0.154678051913931 -0.0162686187183086 0.301716405419874 0.118367260116256 -0.134088305970557 0.17057976253558 -0.0741536373955494 -0.0123127626529386 0.164897269634673 -0.234646895594365 0.284817138771721 0.0394059528469175 -0.149944327926044 0.0825033641754993 0.281254570410366 0.0642633583842496 0.178177728376682 0.267219474073082 -0.0300949398360674 0.0753583347902591 0.0892930176095286 0.0420015957695897 0.335487744827558 -0.0417171344036253 0.0459848716008562 0.128922250309958 0.0585754595185345 0.0640988177972537 0.00349840050281966 -0.104803532281022 0.119726486396425 -0.156727874066193 -0.0996823002069641 0.0556015225220428 -0.0338290000455033 0.0378415626220277 0.0309775178492027 0.0747051242059695 0.0881020821425052 0.0532666945735114 0.162726676002468 0.145223267618293 0.0876232354302599 0.242593260401394 0.220396093468638 0.139514152378382 0.079237872118212 -0.076625263443621 -0.0382778156832719 -0.365907749315507 -0.090973030592947 -0.113734904176178 0.160521914787948 0.226362295971002 -0.225653391749659 0.0970770950447637 -0.136378092829521 0.0547400939277362 -0.0649878287654358 0.0122373850855181 0.227824404384681 0.0821382979959579 0.29202960859251 -0.383802573309798 0.0216697547937612 0.181903034294202 0.325772272007694 -0.240391373951537 0.0740521096907132 0.218085584195596 -0.00465846228508912 -0.0932285516806987 -0.365786898421497 0.161084164813604 -0.105173055933809 -0.017923048449437 0.308328196719271 0.328109209050306 0.0456122961218802 -0.0519272520104883 0.0388796463448757 -0.00864333160273455 -0.0618530833976966 -0.146108524107547 -0.106448784100024 -0.0130650977252511 -0.145629857644851 -0.0759690594928673 0.0235610884139617 0.0168446173554734 
0.174816521668442 -0.232944145095819 0.0462478794584784 -0.159024408452014 0.0414727182652825 0.0823315767851664 0.0558083704870327 -0.215325402004785 0.0170270222818646 0.098800091598554 -0.109056857173775 -0.087932133712981 -0.011699189926127 -0.143726020922059 -0.171755896717115 0.198735221292629 -0.0963128701464285 0.0303495860336575 -0.186771419061486 0.00175056272588608 -0.141853635635878 -0.227346178011144 -0.139686296895068 0.147097515045087 0.0144506216345414 -0.0490163579131314 0.0542019536413527 -0.0329194912775823 -0.139160293124252 0.17297992601925 -0.0743974825510109 0.0941935088963305 -0.0940586429972711 -0.177741874284406 0.11158639575688 0.145224351396759 0.0497522861881151 0.0213818563798049 0.154632302185107 0.16251009879935 -0.090155203156783 0.0126636822802328 0.111169501172858 -0.305384485438228 -0.0640041438392213 -0.109767644869952 -0.147160910564694 0.100413335572664 0.0308069832136222 0.180540335193133 0.0892765771835584 -0.0221105005065999 -0.0435560578616431 -0.0288589877818315 0.104473823606254 0.0690088667991585 -0.00239799580332455 -0.115017569835106 -0.0558598442921693 -0.224725100770936 -0.0428854036915328 -0.061028944720906 0.0833590506531272 0.0627428950829734 -0.034897018919014 0.149446752037285 0.0749448829044905 0.135526579503596 0.075567011836652 0.045799705613309 -0.221271822008094 0.252271343610918 -0.01953863042568 0.142322760471406 0.124208344237803 -0.0429343560296335 -0.12963442303907 0.271909666565945 -0.149996157779542 -0.0664542910050188 -0.108158523580642 -0.0479331229583373 0.0555992408003528 -0.129413873961358 -0.363593553956115 0.0539313352017377 0.0564015411308265 0.15294481759067 0.057922320466301 0.0940281827048039 0.0564543464518316 0.0151991382423059 0.100880656533915 -0.0358777519572319 -0.100593815074931 -0.175182534190047 -0.0310258284052343 0.0592244040429463 0.115184127192797 0.109969776801999 0.00158896147707243 0.0161734511782593 
-0.084569969628952 0.120681899046773 -0.123995435719362 0.00278417429945159 -0.0149766816651882 0.238242892212555 0.143845650266253 0.000442969765465551 0.0763184622301506 -0.0151453414734987 -0.130578231072523 0.25046285157521 0.253334641993163 0.116494412923558 0.317278673754958 0.133285112868107 -0.0743603547434691 0.172351970329379 -0.0278073952661284 0.0195508506168114 0.14188800208142 -0.174071707238479 0.265355098409506 -0.0178664324874915 -0.310726732590541 0.0119776970146033 0.285388622189017 0.048635569488417 0.197650114463752 0.105083923375153 -0.0266379955670037 0.108084377086191 0.159916033498399 -0.00782651966208235 0.288946740861471 -0.182879460604941 0.10811191285881 0.230277595735238 0.0130408647265597 -0.189839757116768 -0.0743024581834581 -0.0883807853373268 -0.0783043296655494 0.0193937352435994 0.190154714819135 0.179370229891035 0.0372291038656695 -0.140385872923742 0.0279103742985071 -0.0780857480651873 -0.20180980217954 -0.0132213375369959 0.0300745678187717 0.198226844476876 0.137274668671152 0.193557422126432 0.111110365039291 0.205704162743961 0.101091183994292 0.00933204556312895 0.0940650472856042 -0.0560373379999537 -0.170788236651449 -0.102142313758841 0.262587854230088 0.0633857206153913 -0.257898795969461 0.0158403958205578 -0.151910358604722 -0.032822128901471 0.0974688106467203 -0.151868273542029 0.294122977995749 -0.166826124104151 0.384063726969605 -0.432779119468487 -0.0174258101109481 0.296807208192171 0.493559971416143 -0.100938009703567 0.114872614094492 0.218557240291032 -0.103309150295191 0.0455357374700123 -0.0777365936078714 0.216770691406466 0.0326518724816409 -0.146909774035177 0.383027975087074 0.390260981874624 -0.107109520526185 -0.0969638394076252 -0.00639388466453982 0.205407154618424 0.0302447449015136 -0.0942347347863221 -0.0539050719446488 -0.0800299971978687 -0.21094059464887 0.0315646601515802 0.00484004476783821 -0.0470275889869626 
0.0411522978241481 -0.102613539472523 -0.0284140579076774 -0.12997842123903 0.0992161718395683 0.118690830913688 0.0990869613907378 -0.0762866997674128 -0.0343446051237632 0.0620671266764151 -0.17835660278188 0.0403558627876456 0.103669160464523 -0.054650587698026 0.13934086839374 0.201416003344708 -0.111477020218549 0.0140850948141281 -0.0287450152396579 0.0147464483969908 0.123628422532991 -0.0953468701689275 0.156635087014598 0.0363574899584081 -0.150439207303686 -0.0451089945955678 0.184842236014111 -0.0278883172736615 0.010188793733685 0.100570544253451 0.0241456876007364 -0.0275302496670586 0.144845136715441 0.0629598213798112 0.130347424328314 -0.0828123675584908 0.0158126217816103 0.0386149772895258 0.104301597512768 0.0383838795771281 -0.0526855411784282 -0.0919230294871565 0.10134644598284 -0.0911720331109633 -0.0186143264834965 0.00611103662369354 -0.0659769304237249 0.0353655557016563 0.0605771609862776 0.10050557493981 -0.000630372205524233 0.0184311194609866 0.131171470998828 0.0410041493800876 0.0897056743929194 0.160010335201956 0.0632549992873835 0.0891274537260989 0.0955234466411757 -0.10607047884893 0.0963043480512459 -0.131602950796486 -0.127076798683289 0.000613299227687856 0.158568382328965 0.153083527188425 -0.166288337574184 0.0921292608642328 -0.0250818976866383 -0.0834027265750297 -0.0590578428109547 0.0222695769250002 0.191580433696574 0.0228209357478384 0.216666596947854 -0.176292196050819 0.00741477379155233 0.13485765004536 0.209662666644047 -0.192502939523258 0.0534774171489383 0.0820741589483777 0.0491658967030112 0.0608727329121443 -0.247086051935907 0.126850103474519 -0.114979932266414 -0.0936037094376548 0.233943458105847 0.198128593840279 -0.0103092638193586 -0.0155042244760808 0.0775277564219573 -0.0376956835576448 0.0507888279944074 -0.0433292162956726 -0.11398015948786 0.0624993365141278 0.0750672915239401 0.0194204438862495 -0.0268631898832228 -0.0289560609725847 
0.126841959664799 -0.106741086765536 -0.009017102781743 0.112042249347943 -0.0949397057983843 -0.216712734852937 -0.0868862047648477 0.00422672099088934 -0.043265288271996 0.117457383489425 0.0650448209748413 -0.088548119300314 -0.148091876454898 -0.167575117121457 -0.249760512495394 -0.224127710779338 -0.00760499877347098 -0.167568117615581 0.0163530055732357 -0.0657650924272233 -0.159390862676144 0.0676861184797339 -0.346545445699722 -0.0411158677881216 0.342635909412909 -0.0464322179338597 -0.305355489430077 -0.12205861812601 -0.16263405256695 -0.0498351730936181 -0.000227147968969098 -0.0891448927791221 -0.111427200327396 -0.0294003757608153 -0.22484301911962 0.204497082176332 0.0565192098048833 -0.285162251568747 -0.0201535068547786 0.173283827956811 0.0214533655645591 0.0383979411951273 0.077953924185402 0.0169184810371743 -0.00550921317481829 -0.105098456087639 0.0547850149806447 0.00549633757511026 -0.145622797620667 0.131458759836303 0.151682571034354 -0.045672523586008 -0.0212669471854517 -0.149930402500025 -0.0640611635607025 -0.126317015887162 -0.180073203350688 -0.101696759485459 -0.0841189082501068 -0.0314505663526587 -0.225772975439867 0.0605028204495857 0.115739434846123 0.00723164438567779 -0.141996477149171 -0.227646389054972 0.288039304230883 0.103726672704923 0.0349095392749282 0.0202579891176271 -0.0803573057128291 0.219632808762885 -0.246070076842532 0.0233661445752196 -0.291793828422121 0.368153413262935 0.0392080144528117 -0.202461566919652 -0.39156647930707 0.224579227037695 -0.101214220166165 -0.191608622907495 0.117212715047083 -0.102879044669575 0.165103113348696 -0.312747171705848 0.0619676529553969 0.174512481653679 -0.265575123816883 -0.253847454982251 -0.0063931691457459 0.12055503783224 -0.0812703235998894 -0.143775519474568 0.0294643583756271 0.0694035482650774 -0.0633410234045821 0.0837716453251995 0.135316350189607 0.0528439831277515 0.0282685730137961 0.0324118866545358 
-0.113493601351565 0.131661541390884 -0.0877287839629969 -0.0678624046039837 -0.0467555871485262 0.312433425535711 0.0377921111745645 -0.00853060131550359 0.18466111298768 -0.018467088241163 0.0194966369331721 0.153844318682396 0.25560791654104 0.0914032904740775 0.184875577685942 0.0106842568207283 -0.0520642673161172 0.158737338718028 0.0265558333798172 0.111995426927626 0.0860972683472516 -0.171190661528573 0.280635086552049 0.0294565004313918 -0.277743845272819 0.0114499115188717 0.268208836617523 0.0742245910967431 0.177904440278299 -0.0600175439805731 -0.0411657327840571 0.103435825729804 0.149067350658224 -0.0947422865146129 0.210403134842202 -0.256982789633003 0.0663455045553679 0.261812186251138 0.101563910259353 -0.192524199134471 -0.109044395884961 0.0607507667899922 -0.00675249191601512 -0.00262700443517791 0.145678809504199 0.194473151776973 0.116004287537757 -0.0660058027691061 -0.0198685045910396 -0.160670977677657 -0.118479447977553 0.00466975193220139 0.0689715325686808 0.151880331358707 0.0795876319712353 0.156491179154479 0.171810079285547 0.116735566908055 0.1728916166862 0.128765275357381 0.163792035363243 -0.0977176673881894 -0.217906985502785 -0.0906644438351549 0.198617079920617 0.143665947337329 -0.234572721816438 0.0164268017565097 -0.0860706452951844 0.0499095757968663 0.089871458976271 -0.156626123856219 0.182621465288111 -0.164898736656813 0.363721351193522 -0.421812938013623 0.020998798578199 0.27432221414211 0.432735733383714 -0.102685625586665 0.088642846219061 0.244387569611867 -0.0474898481824043 -0.00388381260324921 -0.149577918323027 0.260319175708404 0.0234438923759988 -0.154919784426991 0.29323143344224 0.27970250909092 -0.101803745629834 -0.198759928746246 0.0419825612563774 0.266553343391431 -0.00806917880855427 -0.0556833084815011 0.0201811579988309 -0.0487385235866936 -0.172855210050556 0.0259187619180344 -0.00682934800729532 0.0611287440812998 
-0.120461607481532 -0.0188540895372678 -0.0539421607131925 -0.117711146389056 0.0523956885361775 0.167114459090321 0.0920322995793907 -0.0340980955872688 -0.011420146071889 -0.110243553532188 -0.167641497076063 0.105780253349977 0.239143975749782 0.160112858794426 0.257151071591218 0.0942328526269656 0.0144215665468126 0.209963664448117 0.0328113632688686 0.0333195745935191 0.105356068781191 -0.162948473666935 0.296494767948618 -0.0688266320294721 -0.257903850294927 0.144483205268516 0.326458109107268 -0.0386307471876951 0.0860558924392949 0.0851885207847919 0.0573867645140767 0.183992290122657 0.117998092501134 0.000211239602858581 0.176455990701437 -0.0634844293185603 0.104400405350302 0.27379720339627 0.0896188323677094 -0.0297391334119792 0.0257446188735656 -0.133506083086295 0.00814394977337183 -0.0201889392297224 -0.0131195574430543 0.119477248645438 -0.0844300556535477 0.0427681515053667 0.088423062051521 0.00640225196345003 -0.0975953656133813 -0.00687319774605406 0.053942385482465 0.136315037590293 0.103177811214351 0.12722131823427 0.218803138589793 0.119920061792739 0.0771193430303192 0.0244985453693036 0.0586779035013584 -0.214876307093049 -0.182407892561646 0.0338636657892952 0.120864814822034 0.198937629718145 -0.292040690665177 -0.0108786161803429 -0.0893229278754508 -0.00853963563387937 0.0423181743483219 -0.177221520004992 0.14658050447473 -0.0591478592882139 0.357972891919074 -0.306550273323699 0.0129120058697793 0.101364099099587 0.315516542798758 -0.147452728043762 0.196340986713402 0.193503830984183 -0.0359534023199823 -0.00595549367372488 -0.324808115028675 0.243648674904566 0.0160136750491259 -0.101768965823722 0.366359863623671 0.267789570348031 0.0374285783377546 -0.0677798506711328 0.0918343262660631 0.0994826818608325 0.0415149801637199 -0.190177498964676 -0.00245152369790702 -0.111156238191471 -0.0204019213674897 0.00809236577400544 -0.00666136209507023 -0.0112824195025646 
-0.13777272976741 0.107103560443663 -0.0254619507494853 -0.00236718879057861 -0.0262007532320732 0.192248007092899 0.152594140206834 -0.0145283751450655 0.153783612749386 -0.030484577816079 -0.103020452163143 0.0477483233939084 0.155458607023209 0.0382804839447854 0.134767302855958 0.137122751532435 -0.0122414724125228 0.148905967174858 -0.0445470942076302 0.147402174603412 0.148365107482535 -0.151806066068189 0.239624800303465 -0.00618743465925502 -0.254011011297664 0.0574402937356991 0.274829208623624 0.0589032725787295 0.224103571216224 -0.00264357528119598 0.0711537153618456 0.0870562660344228 0.0583728437384576 0.041876876791056 0.134975171084161 -0.0697846609850675 0.0288733909448533 0.183110493855224 0.105485887803524 -0.0963785391162613 -0.00339799734513984 0.00819923051446406 -0.0517788268220894 0.0328988523309296 0.0451845762122199 0.0884545133545401 0.0732031197253298 0.0120788170069426 0.10065498628583 -0.0814867190462575 -0.0939033002237896 0.0160642690421848 0.106512331324523 0.169205542061618 0.0561904961975555 0.149419633400665 0.0515114718770229 0.0853360658194062 0.168776572518307 0.0362079152746819 0.0604351183325091 -0.0555495935319604 -0.06227878398667 -0.00633725214881883 0.11829685834314 0.132255017683569 -0.228539629690385 0.056824953108841 -0.0402291505280802 -0.0630785735410466 0.126465933136315 -0.083016544872322 0.0757237336845732 -0.13403836988706 0.261302961685379 -0.23410641455408 -0.102398286832176 0.161304910533419 0.288129802569386 -0.126116158604262 0.103938876497872 0.279754210164041 0.0286268938612432 0.0321851992570549 -0.205196778124168 0.285100382210326 -0.0333579972289934 -0.171647276659823 0.295733839643576 0.199882871546176 -0.0570688253221922 -0.151579153044495 0.00311379931523811 0.132024816499523 -0.00712530450312526 -0.135272110120121 0.0286796155832611 -0.011713555150442 -0.149422704611818 0.0768468496719611 -0.0703365980253706 0.0473901196619572 
-0.012633504390044 -0.0349532984180096 -0.0555807221127241 -0.0554070891507799 0.175345736058081 0.193283926031809 0.09099942535143 -0.0706643233027579 -0.0443041887368859 0.0218742486594659 -0.243054907437494 0.0891760173803681 0.185910812184018 -0.0461780764902166 0.240368410097016 0.173976990375619 0.0036797970631249 0.0862519857339914 -0.0213325168414167 0.0473211451307745 0.0531559809515869 -0.192808563820208 0.135740346458018 0.0441089000358345 -0.0765403906779737 0.0974464332710471 0.297237796392838 0.0513150971396166 0.0395682036964047 0.176787310047606 -0.0142777520398778 0.134455474940706 0.0455907812141824 0.0464574294486182 0.254636974109996 -0.139251837677622 0.0551085119492454 0.120834196306957 0.0405977839418904 -0.0448748732236799 -0.00104652078260978 -0.0438768188211892 0.0258971694610428 -0.111262984884116 -0.155294390061683 -0.00084694503194039 -0.111109721275645 0.0864669962314689 0.0309151426339074 0.0305631791613012 0.0265298522262046 0.0616339698567241 0.205418581825173 0.105749525498074 0.103979174944896 0.233990524683079 0.105358862922441 0.0701448526690693 0.08574267681012 0.0150187124874735 0.0410392646447818 -0.303394295386401 -0.0869432308397364 -0.0703751991064038 0.0494211502016208 0.0986135254205872 -0.0880044110776314 0.191048409027422 -0.10952650840609 0.0398122633637557 0.00270786924485495 0.0123618122277826 0.185390211333366 0.0889932482689518 0.292016699611992 -0.33361883879611 -0.0903793563866632 0.0898715086674533 0.274596107930101 -0.239987193002108 0.0916508463426102 0.145395179326219 0.00684354541565569 -0.00570379457315185 -0.355169568677111 0.0811665411254057 -0.0903277250867389 -0.0231006296172951 0.221764717281094 0.316895631281771 0.0622706970196732 -0.102876291682041 0.0617504862891367 0.0597543259624447 -0.0482110705074449 -0.116027334119621 -0.0167341310361351 -0.0520888353189413 -0.0802836345976772 0.0472981735332986 0.0255655605635745 -0.053686194394492 
-0.208495521204927 0.166160406242194 0.0664295443378723 0.0285357152548045 -0.0534158914358302 0.132185236926258 0.0622398236154166 0.0129250778270862 0.0763800724305236 -0.0726345528993772 0.109823395963189 0.179945270822862 0.0362046930155447 0.147271274339397 0.0602001310946296 -0.11378110995763 0.0221042377238861 0.0936530112016637 0.0576857461543239 0.02712137714319 0.0181023401738965 0.0774606277364445 0.127511932235116 -0.0618858187249363 -0.191421324462568 0.0258294356211215 0.072009557384417 -0.0378935714275998 0.136089250678373 -0.0218964843674656 -0.00821036921550104 -0.0102433439230169 0.0389877963906916 -0.0783151544832014 0.062112738432518 -0.192026440882171 -0.132745786095105 0.205801021024934 0.00381088886250557 -0.178074814099045 -0.044276731748147 0.11855387912313 -0.0949295949545009 0.242008320586206 0.328628842203484 0.130619686457364 0.18020576041918 0.0134194654357992 -0.0269403890243442 -0.311395206695186 -0.242403444592438 -0.10403056662707 -0.0675948074091754 0.0545293104733417 0.10917573033666 0.0415678709954688 -0.086875676816341 -0.0257414276580232 0.0931356221036929 0.185512870109688 0.278491070950857 0.118849648613802 -0.0865699409354626 -0.0259527461119821 0.0928175835339081 -0.00476338482615388 -0.109821958686824 -0.182183912058357 -0.0478350757697259 -0.0407991595181112 0.124486186294754 -0.166135098074223 0.0718142954223487 -0.0885390576496344 0.10676198355778 -0.0580342484192184 -0.00530270449058394 0.0448638859214537 0.338493711853226 0.0892786296488989 0.083751693042909 0.239583872517401 -0.0118426733811805 0.0543874761172126 0.0679795342963236 0.170767241788067 0.019374189744096 -0.172265233928273 0.179394489462255 -0.0180970169070835 -0.0854922181657814 -0.018093972029358 -0.0734820083634231 0.16789108670286 -0.0412002335322718 0.112528614796666 -0.0144520569518557 -0.0423663033782098 -0.187594498014534 -0.0698901704239222 -0.0635035240562481 0.0425122278406507 
-0.0438054390665054 -0.0130976799978084 -0.0378881123760524 0.00897300766762837 0.129404220906645 0.246730934832079 0.107109563105605 -0.00225214811884899 -0.0150072958922485 -0.0782746668084557 -0.277336515313987 0.162518469354223 0.212056050693034 0.118366051995138 0.353117660420422 0.153295413130058 -0.0359325995223875 0.164145165597183 0.016063653271846 -0.0012510481588667 0.156403909417568 -0.101765861678619 0.314324990184289 -0.045263223498646 -0.211707250749425 0.107423450242135 0.240616878583958 0.0761074337627589 0.120820809310471 0.122672382455388 0.0102358930582028 0.0395045075404897 0.153153783314586 0.108585909677973 0.329385009741352 -0.0967001483948636 0.0889809685803195 0.199014111898601 0.0619039112701632 -0.0939990972010216 -0.0504592057476785 -0.110838633488932 0.0690310762152392 -0.00529562433799532 -0.109135993636923 0.0526063736143599 -0.0083983255248158 0.000674165166454313 0.047770262612509 0.0969855189569475 0.0677685042990115 -0.0318284683040361 0.144000323961179 0.155411570732862 0.106935977141949 0.223245581901988 0.271743339834381 0.209121369802541 0.139054978088829 0.0970309753810113 0.114515222792434 -0.269739137315927 -0.153535347483322 -0.0897655408736091 0.150185451576401 0.231434590012942 -0.185471153506355 0.00169681599047424 -0.106206654425235 0.0647044012147697 0.0627006551424705 -0.0780146525045828 0.280755994185329 -0.0259186628424354 0.31815665322452 -0.404535665050722 -0.0356673404407141 0.20315535564025 0.457405872543355 -0.18976650426102 0.183464492919606 0.160814856576075 -0.0462185660840038 -0.025386276001179 -0.313211806843869 0.21027300388379 -0.0588162310890806 -0.151423556479485 0.382767140572042 0.313074577467326 0.00487728923994298 -0.150617146851648 0.125405867860902 -0.0299135441174432 0.0367330438013637 -0.110844809532598 -0.0348465635707443 -0.00701021045146022 -0.0950336304819939 -0.0858080430231597 0.0555248436381858 0.0185238245728766 
-0.0166525872203566 0.0685698744301414 0.0920343446154272 0.0225964855325067 -0.158862657547717 -0.0250336645820757 -0.0655465579869956 0.188527149467906 -0.0415557737517632 0.0593857119010246 0.148496794838771 0.000931932699104397 -0.0460005048384321 0.121754516822683 -0.0111205160675587 -0.109579156047517 -0.0220578140032848 0.0157013927403264 0.144486700213213 -0.0433795074925624 0.00183384706941552 0.215936790276479 0.0507613052089729 -0.0705907034513183 0.105355694695835 -0.0630863877218743 -0.167964267009415 0.0374179539427377 0.0423433226601247 -0.184418067273467 -0.0944865887415061 -0.102840354202955 -0.000728096789691123 -0.114208037490076 -0.200690438037131 0.0114162760265972 -0.129784709322611 0.0181601591356761 -0.101292248174178 -0.180204632775396 0.00136618053863973 0.133003825082945 -0.10000863085447 0.207675424470239 0.247048512125438 0.0570121355886783 0.216576440324143 0.0165454977524593 -0.0768595030684108 -0.248933494420324 -0.276724765518191 -0.0274173254878126 -0.100088852671472 -0.0713047586247977 0.000762081259385022 -0.104253790374288 -0.221241210246197 -0.152900335357177 -0.0492011512961958 0.150638005200242 0.103904559142191 0.275034700992124 0.0356469374408771 0.00236049838584021 -0.0843430558859568 -0.0603327700711658 -0.00600520525999527 -0.147500125206593 -0.0532917831208005 -0.0237813281761796 0.190204115513172 -0.0549301042168646 -0.18012253868921 -0.0958566437119421 -0.0843166824370157 0.130732838128754 -0.0212527296362558 -0.0218966388460995 0.090525659040274 0.18540829055101 0.0525373447710487 0.0724211664104051 0.0119051880926403 0.071040515782526 0.304026898305033 0.0148238237997023 -0.0305803962328959 -0.0790309240420835 -0.0614398757199934 -0.269745066850085 -0.0192996191435256 -0.0223226616471241 -0.161573938081557 0.0283187074057855 0.0435382417288934 0.155776613746564 0.0161421759331315 0.0269476555208966 -0.133344480564107 0.0645711597961363 -0.0622325661746677 0.0341063841417412 
-0.0102032370917233 0.0223344764394136 0.00604671807028201 0.0824923626957206 0.0591830055405009 -0.375537442119316 -0.168442064801081 0.126906489238881 -0.164855088713076 -0.0835715261859437 0.0939777970241245 0.0626247753907259 -0.11383709601747 0.0218480564752737 -0.0237507769139531 -0.166423510244531 0.108928445979692 -0.185458695380565 0.051633615048094 -0.108481572853196 0.0313810781456446 0.102270339266248 -0.0570314595489998 -0.135920087769169 -0.0102195946268198 -0.0798624541738195 -0.198188708056018 -0.0036954124877461 0.00855469653723309 -0.167479941072575 0.108937777014142 -0.242793294948994 -0.0797760226219305 0.112941192706242 -0.200389811506851 -0.0831404627375402 -0.176229434915746 -0.0677141912842386 -0.0876560636886008 -0.0869215244777396 0.0140419494543727 0.137138597645816 -0.0734986374611952 0.338941054260809 -0.0868796757200151 0.0966543352162518 0.0457086331749495 0.140489681078509 -0.0432494340874403 -0.0828625939588196 -0.117559828310852 -0.0511705776677605 -0.0259882265785962 0.0356155638044222 -0.0968389870776558 -0.0264309469085036 -0.198477399222665 0.00561545757611602 -0.0191208677338132 0.262490544110642 0.0385127152067174 0.22446508735899 0.0405863644301609 0.0511859174718155 0.0377365942540286 -0.30977597368901 0.178429487191891 -0.107920533013507 0.0329037968849299 -0.00305466798270395 0.160111336522837 -0.0470386446272074 -0.187655570935872 0.0973078548580923 -0.149639451441868 0.243587580249725 0.0150433191768873 -0.346941686045224 0.0130346664424937 0.117510183434535 -0.0674525562290735 -0.212163103613976 -0.102600316560419 0.0615992929134165 0.487485485425173 -0.0598860086828524 -0.0582353454156749 -0.0287366618031008 -0.221520807903933 -0.243238700628964 0.0349705530799823 0.0981592644142645 -0.0330574757245978 -0.0746395862510552 0.0147722013150969 0.358269330983103 -0.07059020507347 -0.08567877757695 -0.0469091689761062 -0.122878604035927 0.0763501597156863 -0.0439275897938828 
-0.112668874235498 0.144179859764459 0.0476631658640473 0.0938803097242123 -0.142036323397443 -0.161108706885348 -0.14171091495778 0.082648787943784 -0.00397068427134987 0.0496168800310203 0.197951560376787 0.063887703602944 -0.037478329309866 0.0493554588777784 -0.127111200912802 -0.172514582503143 0.0388286947722732 -0.0905073391436971 0.0976486763844588 0.032477410814283 -0.0921548799069506 0.103638102189852 -0.127933741044295 -0.0488017426357871 0.114106655405718 -0.170559606099043 -0.206035373576472 -0.0020371078330723 -0.0792035464827284 -0.157510458646687 -0.07356680760078 -0.166039288118094 -0.111833288530897 -0.0368050038697608 -0.187054367331479 -0.0866552308080318 -0.080246373889651 -0.092393018772258 0.0254261719799127 -0.0324775667608769 -0.109014682850952 0.216083889472433 -0.0476698308461948 0.240511662361188 0.162690895074751 0.0365138009064653 0.186570267408278 -0.0107182124951928 0.0509446456338294 -0.19992783306416 -0.0601311920274366 -0.0553042184617746 -0.202742127938786 -0.024782429682495 0.0316289820366761 -0.161746745195282 -0.222780487403703 -0.133487961484749 -0.0598115126315963 0.126302101329163 0.126329814437558 0.248619570045276 0.0652455244484672 -0.0731797942958974 -0.0380697914600603 -0.197635916092022 0.0228866066420643 -0.243086866940004 0.00089620576893392 0.0422515310472228 0.0305797262893824 -0.0120696159426122 -0.115484591564604 -0.0740842552635371 -0.132740804029256 0.183894684787505 0.0028726772601771 -0.0270005328155138 0.0310814918281825 0.245926285328506 -0.0608016479414721 -0.0540941605984381 0.0488351521567218 0.052783879598332 0.293732490074147 -0.0295874975383114 0.0209705319639332 -0.047547627944767 -0.174522252081399 -0.20542109798768 -0.144366920444185 -0.0260282447447854 -0.141874417881612 0.0358858089135433 -0.0106771063044411 0.153516439410816 0.0827795120289048 -0.0460820415340761 -0.0248841378606012 0.00619675346261103 -0.0075724112632171 0.0606088840801819 
-0.0797233251963767 -0.0105584954916906 -0.156014113930368 0.000928668945670746 0.018464013255478 0.241084444137807 0.191382960670944 -0.0670780919243236 0.0537286667974904 -0.0494814295493422 -0.152315311161902 0.0552969778069922 0.152762598966738 0.132273772573855 0.256878457782832 0.139023465354295 -0.0847439016512754 0.203246406190079 0.0183384327839837 0.0565981443358842 0.185649894497729 -0.112115657521379 0.221838943890491 0.00858970445876527 -0.267803542498465 0.0351918133309402 0.262772241906272 0.012229460193609 0.227589261729442 0.123040316143266 0.0633098098853914 0.1001137000439 0.0850375191007832 -0.0486510358596808 0.354071264756006 -0.19487952267862 0.0952315166424021 0.139781109272959 -0.0285283784874616 -0.113835404454256 -0.0692488361231903 -0.0935951858282022 0.0712795250027882 -0.0563009291680268 -0.0344017330873717 0.0464192361528268 0.0149801256071456 -0.0725630527102231 0.0662519380804342 0.0604700295584069 -0.0941412287634034 -0.0411870977983127 0.0995566527590903 0.147481535806487 -0.00873002688871125 0.255930176373248 0.125247220826868 0.135541435323266 0.159339286513833 0.027647380149983 0.0807414067236052 -0.26607171697473 -0.156311489031675 -0.0325407212208998 0.173282532101889 0.223617494131765 -0.132941228525448 0.142598159848407 -0.0626673644723358 -0.0537051586094833 0.0124299695744816 -0.157179795688449 0.26153107174838 -0.00540687240318568 0.318130802322527 -0.321555818035859 -0.0469455993426274 0.187805442410099 0.332813296060301 -0.212087376080767 0.127871464126901 0.26739662413111 0.0044577550609698 0.0677383769726476 -0.291683943807964 0.271357072882394 0.0124705679346323 -0.183126463329765 0.385869514577896 0.213141981545886 -0.0274033978423135 -0.0649634173229929 0.0443892735542223 -0.0192820638869915 -0.074708660115599 -0.226538443306747 -0.0200089781577891 -0.0691062255764728 -0.0391675110275807 0.0255582916948866 -0.0585619866685671 0.0457328598367628 
