3
102 64
-0.335544933977241 -0.0638867455470477 -0.16373410787272 -0.0440438148994677 -0.0909774998060044 -0.154742654526729 -0.167824901877321 0.133059652607194 -0.0159472423406237 -0.0358542083815406 0.123024409093289 0.256238582863809 -0.0349645499217165 -0.0491574888428525 -0.0276319962942401 0.140140830559726 0.0989054250188006 -0.0412016584293827 0.0862546410160526 0.178219217577827 -0.200740881435199 0.0308951242527692 -0.0928034372799555 -0.018595590057123 -0.0275223546960752 0.278321523525728 0.0411166842272898 0.0672726367231236 0.189488714174065 0.101560892554694 -0.0703552504112647 0.0341746720845339 0.0341615777128818 0.23921238128601 -0.0236649888204663 -0.0948748993179974 -0.0920773229081198 -0.279404680343558 -0.0351577892117527 0.0960106990589987 0.0262114279604574 -0.158750610629817 0.0520190373484882 -0.104879483120328 0.0355796784083369 -0.0870459648602396 -0.0599258645748207 -0.115630397979495 0.120056121727932 0.0942578778545962 0.13101593710399 -0.0328850813291552 -0.0229328582347343 0.054272124091021 -0.184780126127888 -0.0774113904313251 -0.0480803942342788 -0.388307908802122 -0.433289043138436 -0.293794585606696 -0.212891596658532 -0.198083218251923 -0.255407387010384 -0.182391979574105 -0.0692582767871892 0.107766215698286 0.0242166550819649 0.251838522108892 0.297081948533916 0.0731282765598265 -0.00538663493699967 0.0574106694601439 0.0125270687885422 0.0579955742760114 -0.0962849646316784 -0.214264366044558 0.0513827673955966 0.014719085144253 -0.0806661131173473 0.00883344759796809 -0.247142997723497 0.0232561397508643 -0.0280256159137182 -0.130215726060761 -0.00285588127049789 -0.0815377654510509 -0.25709952364742 -0.0902299248030012 -0.42517336639821 -0.178141111617013 -0.103859784574516 -0.0992420328036101 0.062527689988381 -0.100606525164131 -0.122741309895526 -0.196670859063835 -0.243643289233571 -0.255196512528093 -0.249974832160175 -0.10043112771779 -0.132141010442145 0.0995630563342043 
-0.217181607880691 0.0977079029698827 -0.0938668353796991 -0.204539161931985 -0.0722494036944801 -0.0251901097294205 -0.0180166541624272 -0.166719472907689 -0.000572166524736452 -0.0702346502705361 -0.166767491593415 0.0161369836977859 -0.0880038945920831 0.0861033194508487 -0.0321077570854663 0.234554333568542 -0.0948660401481056 0.147889935593333 -0.0168266461700987 -0.00148018202292864 -0.0587959959537679 0.0460331609713118 -0.0494116854388083 0.191389368250284 -0.0211863797625828 0.150495416028928 -0.0194992981267157 -0.0535227661734476 0.215701989732746 0.0661750284612803 0.00741474611852084 -0.0368840315682852 -0.0536544708387047 0.144662493718796 0.221545917924805 0.0026540814036909 0.220977121542891 0.193419263620476 0.0590889855473707 0.0639262379757249 0.0115051146480925 0.0119194450486297 0.0168793819662843 0.0455245915746318 0.146973667982164 0.142156221815612 0.0533997972457471 0.168961425532035 0.227121705812268 -0.130614697697721 0.0714111792681644 -0.0539740926670729 0.0181753282706832 0.107453022347821 -0.0343828678240024 -0.0507957567113194 -0.0521236369177008 0.188480707437505 0.177374792141529 0.0424630185317403 0.33894497399642 0.0376073912444739 -0.0282304076728407 0.209594352622712 0.143613462654539 0.241947181013122 0.225281246783985 -0.0372633482655622 0.0206184704121233 0.177703919955084 0.0449057647592552 0.0296317128364447 -0.136951675022368 -0.024649828307436 -0.00960794736177618 -0.212869312107091 0.0449753930207158 -0.0201979067101015 0.148499032378805 0.00259621870818043 -0.00699940987303108 0.18168241146553 0.242953934221984 0.308809945155212 -0.0302479361229764 0.117738587715571 -0.00361208749122687 0.145215925835873 0.220330734023646 0.120473041512439 0.159341331724169 0.182294107120865 0.126781376786242 0.0989759823172667 0.181999680722191 0.00814542093486273 0.09140134344137 0.180096509503615 0.0536347278625745 0.237159327459227 0.0367780880888818 -0.0806036715080582 
0.150262698586218 0.00589290996187492 0.0215897852676458 -0.156520264562473 -0.0165644925615799 0.105238821697879 -0.00213828643799738 0.0999501051086815 -0.0246443961187198 -0.0303478151666264 0.0376946706619457 -0.185360518451101 0.0641671743920851 0.0212511096322001 0.0586747923057945 0.176571327288887 0.114916159091629 0.269619644042172 0.151992423160257 0.194225170184243 -0.0402431826301172 0.0887066125814195 0.0587050407801338 0.142149542293792 0.0731914486115275 -0.0509850835650737 0.148547936562631 0.0783946524775657 0.253865036271978 0.176698349858341 0.0455782961495046 0.132000840115722 0.211089397295009 0.0393131916036981 0.194446685912731 0.0885666644325712 0.215526010652399 0.260290507071128 0.0698944785520902 -0.0198041853741679 0.108508027146708 0.114415291070213 0.200451393101379 0.056143776707933 0.0692060728764492 0.229736656502401 0.0675539499797603 0.169047125688742 0.223476703873157 -0.0937522141194194 -0.146377663523981 -0.0608709931352333 -0.0787553131711965 0.113645172337096 0.183576356258187 0.236477068260132 0.200150213648507 0.236582728686002 0.198583156943815 0.227312849347279 0.135912839667021 0.288869026845137 0.111990792230718 0.106338707784154 0.0650589988871689 -1.36783996594546e-05 0.232260660778091 0.122636546283646 0.0376953975343347 0.121537028093528 0.128540312218996 0.102495412517867 0.122921119355943 -0.0860204364250724 -0.0695619916431272 -0.212437205030656 -0.183927269955485 -0.0936781785075859 -0.0308295246211966 0.178110950923338 0.0270090740006732 0.123501838496354 0.196491126400387 -0.0316068295989867 0.183041915810749 0.106772395082674 0.0158390260591555 0.183803552578107 0.290598984119957 0.0288953233079706 0.0230656942650871 0.260497593254218 -0.0369379385388822 0.2297143339186 0.127347052770543 0.267683724220728 0.14399049918733 0.07109290656577 0.238507493999833 0.0802169437014373 -0.0943803737801032 0.0415865489869579 
0.349159823638468 0.38059070459019 0.0388957067300348 0.23633008793253 0.1788533391354 -0.0217839057432398 0.0171691217717935 -0.0107468311961085 0.0305387111640906 -0.140662989554937 -0.0515587795875354 -0.102460370712269 -0.159168631095558 -0.0872623185633762 -0.0320831285371033 -0.185240470543764 -0.052417033412959 -0.266506960227264 -0.337320042121901 -0.176249838211067 -0.430822955255213 -0.0925046029245031 -0.0435429979487131 -0.207487601534395 -0.118614712385465 -0.150371464837975 -0.0799201404533139 -0.18454220292988 -0.0881422052234107 -0.271131255790904 -0.225290459346071 -0.242153347066512 -0.00660041662439376 -0.0370071797604858 -0.148705539207287 -0.251531662178229 -0.301781280907251 0.0532165202191496 0.00804322065884523 -0.0498089416315173 -0.131530941608267 -0.0605002083135435 -0.164395857077937 0.0120078865124576 0.0582337697107507 -0.0918155221489515 -0.300279291923817 -0.096113083750533 -0.18097700914103 -0.0962581687653913 0.0415448778893597 0.285241507083848 -0.00893222792133161 0.0974632958581535 -0.0836139252971873 0.0202833849475053 -0.29618138950268 -0.0432070715542447 -0.181459836344518 -0.194173586855598 -0.0709844377185798 0.00332371358837973 -0.0960178974694032 0.0480170356979873 -0.0558201685004347 -0.120191246554307 -0.364685101038847 -0.323279742784693 -0.431198245861211 -0.240713388205797 -0.0376119566946267 0.0116342394941074 0.258799391249479 0.123434534054709 0.0684621489754648 0.149995098439415 0.454225449816919 0.0121565334022796 -0.0420828965224734 0.0811476583557494 -0.0209337458245756 -0.0981980467872518 -0.276795164329451 0.0650607115903415 0.310563639968836 -0.084723689978813 0.161477554677214 0.00886793910739194 0.0905577614759794 -0.00753991886351586 -0.203466004524205 0.0866802847869351 0.0100904632607809 -0.306971068614741 -0.0797048814835602 -0.0712254912058457 -0.0522635857985287 0.117065738755612 -0.125339705504098 0.208347830847983 -0.0139586890320079 -0.0680253932173557 
-0.152159926871286 -0.209632151148979 -0.149401635857755 -0.17111151336063 -0.000858133167097958 0.118221842761107 -0.0820794757808804 0.0618088636707207 0.107395949100315 0.220567831494802 0.288944302880996 0.38672336683777 0.00571362969856998 0.104823505634251 0.101839028150751 -0.0570310313454487 -0.0551973965796785 -0.13209708951256 -0.0101082201074173 -0.0580355414738136 0.0905820453557807 0.225233538361176 -0.135581046955669 0.053688041973824 0.0912839396901911 0.220102568277035 0.287278805559638 0.139235016032697 -0.0856324345063954 0.0997778626709998 -0.0376714624245808 0.0353992236874289 0.147158780963292 0.0803770968317535 0.0805482700058485 -0.0610664386462383 -0.138394458488354 -0.116050108117248 0.255695619405698 -0.167588361099825 -0.114245741565396 -0.0743520156023552 0.0375003835993265 -0.0613651132250107 0.0518684256563956 -0.0849747280789352 -0.112487801193782 -0.00678486549926696 -0.154257344353801 -0.196573273680407 0.326658107316251 -0.00786513748263993 0.242780118887964 -0.136391936711013 -0.25545223900811 -0.245098575363269 -0.125242606541646 -0.283683640236659 -0.276418046998949 -0.229219272937849 -0.0918519497390921 -0.0526429584685756 -0.154845659598162 -0.171131472240531 -0.204371574713456 -0.058231522422998 0.103996538263153 0.401206765317269 0.303183161427523 0.111513007904875 -0.245318458024787 0.127961346695591 -0.294787754363707 -0.297806912341713 -0.305721654354882 -0.034476856890451 0.0181472750505175 -0.0676989889617222 -0.227940834977145 -0.326547129017277 -0.253950422937682 0.032649389775169 -0.311309246288717 0.0909264753411018 -0.161101219552063 0.0639050337177008 -0.113060357562934 -0.211144589224467 -0.441118513977517 -0.0645526419829082 -0.132945214245558 -0.251175493451757 0.227387122837059 -0.281971596460825 0.114071457577586 -0.13901398129904 -0.128893981003317 -0.151193167995358 -0.0501520758865605 -0.236434459234241 -0.0998643562663414 -0.11604670260991 
0.137309510537584 -0.109282785164959 -0.112339081432826 0.0601503363311632 0.179144237028163 0.046609731721132 -0.00767071889485632 -0.0118533522471658 -0.125850076371185 0.060874139126828 -0.028117477176253 0.0871532187545521 -0.130704467515451 0.162587399093549 0.00874699656052607 0.0163512308524851 -0.12463201404015 -0.0122524993321527 0.070339258083563 -0.106294497433462 -0.113336763659628 -0.00998680388803854 -0.166609132986777 -0.00910839957454159 0.157346101181692 -0.0012955042739013 0.0292720636090437 0.124552776431685 0.0181151072436103 -0.0390339088281935 0.0207524379614214 -0.239761257399544 -0.0432076856437766 -0.0602449069265299 -0.163015171941577 -0.0489774305093625 -0.148828251790463 -0.212895721026747 -0.24229298240182 -0.0357081780434019 -0.176524676884792 -0.179609278580061 -0.0328521201656518 -0.106724719398297 -0.0247354655099113 -0.142915828702995 -0.249514603092939 -0.0117047987761826 0.0158928429954092 0.0267608618860744 0.119113911339349 0.0784283097985682 -0.122940763005236 -0.115179394133436 -0.213823414397449 -0.0581774949766393 -0.254967212110358 -0.126672018486928 -0.222181972751698 -0.138326116034766 -0.0931530745958178 -0.13725149757433 -0.115653271773331 0.0266168230262623 -0.129233184328236 -0.199439485176731 -0.109639242865231 -0.0809244335799514 0.0925169857482044 -0.142159580058603 0.0560433813182868 0.0178580640243708 -0.164821394680394 0.0249886065512184 0.0444709234800087 -0.0827547866777872 -0.0904914841711499 0.0988697739388056 -0.00402750680992265 -0.167642407642236 -0.203245580320028 -0.0328002917082456 0.0642278769975417 -0.22662160092326 0.0856763098066286 -0.150560389596821 -0.0951483363562248 -0.0829386406525911 -0.213013610734666 -0.0674693747334774 -0.108917667415268 0.0282545169984513 0.0567075906578094 -0.252842484509035 -0.0537758586832864 -0.121172375987983 -0.159880091361635 -0.27896990084722 -0.0716908749118165 -0.097942359620953 0.0873230905175982 -0.123589670382941 
-0.0711649373181016 0.0511033472406738 -0.0150559556153696 -0.0409583134697678 0.259277258699724 0.150213413981898 0.0137446884085933 0.0721940125665585 0.0174924396826078 0.155482825548612 0.22350152837682 0.124286525727915 -0.0584657097698244 -0.04077688392611 -0.218914333934255 0.0242972707448081 -0.0181699772369399 -0.122010574518816 0.062098789382288 0.0703468336147063 -0.162882080624798 0.0300568695520819 -0.192977234570138 -0.00490070575425165 0.00218183331817508 -0.0282179117981021 0.13787316123989 0.0745899083174241 -0.136009122069083 -0.0680764812634837 -0.127913061742662 -0.182148600884971 0.0347721983582806 -0.0526509033481705 -0.132273067117088 -0.0054521733716979 -0.136766867944417 -0.258370537714378 -0.0214807986742272 -0.1306826320483 0.0565663915113361 -0.00150897448017611 0.00369165528520643 -0.112319022902013 -0.0468082561067185 -0.225250201579819 -0.263906448438733 -0.20313336766504 0.0344475017788987 0.0221128686160512 0.15463915137972 -0.135301665905763 -0.137350443592381 0.0660144121431255 0.142010891270869 -0.186784995976734 -0.176039201419739 -0.359768751077908 -0.394396974564889 -0.203575168727833 -0.39175592805831 -0.368486298942205 -0.255373388736417 -0.288308866912569 -0.183777559948303 -0.12000763609432 0.0465691551211494 0.0684019696560798 0.00416133451987297 0.0995609432169295 -0.134087267146962 0.0361039889643856 -0.089926844988815 -0.157239765804222 -0.197348541683283 -0.121521650726207 0.0629661961237572 0.0365281985936228 -0.0680048476994922 -0.0185770052635571 -0.119592885463167 -0.0344239893933315 -0.216024991317076 -0.101690648655023 -0.0459022265196142 -0.171699433915061 -0.152160948602352 0.0307294413459007 -0.262494423217372 -0.222332141706133 0.0221044729440617 -0.0289674638204185 -0.0272744567787698 -0.0361125187379639 -0.188108908978428 -0.133818759727735 -0.275355599875345 -0.25578215214712 0.00219103637728166 -0.303202727042309 0.0245087552803798 0.107861137869716 
0.148447546335481 0.192072794082403 0.0544536854646231 0.0639814543208414 0.0456822543156033 0.120043546418942 0.0667367408416952 0.0542845439579496 -0.0132962078413987 0.0553342819787782 0.0414644309007768 0.080257359144801 -0.0554499072427836 -0.115740033053867 0.0460507751108184 0.0284198064017678 0.189371502002356 0.119894791864516 0.233771950874142 0.115108532918207 0.178445680799233 0.156213681544251 0.156780465861074 0.101240000227759 -0.14515087728633 -0.106779582042351 0.0680912253135902 0.0730890840221884 0.211208240598907 0.107882834446608 -0.0250575063651151 -0.0674647198773415 0.101191306858779 -0.0626036757689352 0.226956066561727 0.224152958812276 0.0348070171325132 0.0849958841184172 0.00699829698256537 0.00315189119262463 0.053090170211292 0.227351858443784 0.118555629668387 0.263737169531146 0.143914692898926 0.104765259955093 0.110392293077542 0.0450074464056915 0.118613744447903 0.114220648219596 0.0179680670681348 -0.0524454003813795 0.0479684316537591 0.145443196619036 -0.0652701095999273 0.00450520044642942 0.053489211990188 0.113399644083569 0.277731402406972 0.308078139290513 0.206275947674479 0.215629214947928 0.0913201509376256 0.125668897252049 0.0652668260289699 0.257003334029377 0.142259746461065 -0.0850387873554122 0.146430653643713 0.104746099464478 0.0773780633870655 0.16409379871982 0.0638923178471907 0.126657353013585 0.0760345431003244 -0.0321035066837787 0.161196127789977 -0.132932163041843 0.0356518484820791 0.00757210836815406 0.174293530044771 0.160921291607958 0.187376802932091 0.260133708054187 0.21488567475655 0.131952702735091 0.230927691765916 0.0801316001876829 0.255511945136281 0.389667786754337 0.283174164534624 0.0440758954553856 0.0982238754617155 0.221553574018723 0.0534397958294662 0.198706403464068 0.154194530909963 0.279518181922766 0.0208341094274159 0.170088196405968 -0.0747303104086448 -0.0460789962081268 
-0.0366876676902869 -0.0199102461961636 0.101040119135998 0.07291920104864 0.0182674884460517 -0.0668454834326921 -0.127936725957913 0.0691347133991869 0.110774008105571 0.156977825773339 -0.0158650783324419 0.0225929835512995 -0.100892074795227 0.0361483220781824 -0.106578717520492 -0.0409169627325908 0.0339164801088893 -0.0992535134781737 0.0119677237120703 -0.0310959938309859 0.00497673576661429 0.00285405162014159 0.0267397150951776 0.0548155760000259 0.20885349353116 -0.0778964194337343 0.0243539224466162 0.020866734921693 0.039381420233854 0.0583919046722156 -0.0295746200775555 -0.00295271465276089 -0.168755188037986 0.136138400648065 -0.206460064929339 0.0233285952508578 -0.0508136576487051 -0.327511604378202 0.0301798165635277 -0.134842405513501 -0.165968265508815 -0.124791873816074 -0.208074653432063 -0.083821889527254 -0.144186548183726 -0.152950365961575 -0.168578449696791 -0.152381429898865 0.0780069116984379 0.109890097512614 0.257247551431159 0.0344268016821164 0.0419520731980023 -0.0300997147108293 -0.0557929133407043 -0.0843651731087096 -0.00293701088552185 -0.293821222840647 -0.202065627177058 -0.0935280011454967 -0.241379730386155 -0.100505224872641 -0.292756148310426 -0.341915065603967 -0.0224743731073447 -0.278515540332316 0.0873547214774591 0.0495913663338038 -0.0575976287425498 0.106121347143497 -0.190842050103464 -0.0386636966005801 -0.183274995598546 -0.178171424582188 -0.253083415820222 0.118839273054558 -0.175338014509718 -0.00184666457579699 -0.0663440899135546 -0.220498060137248 -0.020704698320563 -0.166620050082381 -0.258790998691482 -0.231653934257266 0.0906840659605706 -0.0713865486995029 -0.198298802223317 -0.175604580393664 -0.362613132271026 -0.368486207887388 -0.307828924361236 -0.00236479654125042 -0.131816808179713 -0.150314817223243 -0.184756537522514 -0.161930351362027 -0.170656314767208 -0.212344354323728 -0.22382139152084 -0.144490107259475 -0.0181886193326506 -0.0375193148214363 
-0.160877394675743 -0.155079237506575 -0.00160288671742755 -0.0937457136896349 0.160148838170053 -0.106522135958263 -0.14027826444618 -0.0321973501018082 0.0886636812243163 0.0523645648179161 0.129037513424563 0.0781561136930115 -0.128759298077272 0.0149007858642749 -0.144637720100649 0.0935801344641757 0.0246918769791705 -0.0509524122606054 0.160778133747485 0.134448543004967 0.102619408922729 0.02006968700003 -0.145939721116166 -0.0753158770342529 0.118124650611355 0.125437066680873 0.0952405918426678 0.209001128121338 0.113981979445797 -0.112714769734233 0.0685562245154671 0.142165092784306 0.0532700003919961 0.028861095725567 -0.0180141762790687 -0.0680502544822283 0.0787371073104816 -0.300047568368307 -0.0269812324077115 -0.160961516627839 0.106957290655716 -0.0231744330203686 -0.0309065586004503 -0.200337524111536 -0.0180148031529116 -0.223137763661773 -0.0591042730721153 -0.133615625078663 0.099179873229254 -0.107549167532298 0.214787320557218 -0.0175397545698592 -0.0918940456676126 -0.0253461757357776 -0.105161016334867 -0.0614942295067262 -0.196392854206132 -0.321019046109408 -0.340183281591124 -0.301731967363564 -0.387792106502687 -0.358413119679498 -0.0311789570532593 -0.113153088812679 -0.100606711431673 -0.141850747268804 0.0672772722143764 0.132468259714625 -0.0236971538918489 0.142702936058444 0.102450808273379 -0.127437119478141 -0.0749441962121983 -0.0516981337983533 -0.0280771134768191 -0.0266919839578628 -0.0787610297939024 -0.0544339976609355 -0.168902615062874 -0.0741855160045523 -0.192485231498403 -0.185268452571575 -0.223884338883692 -0.242966426233413 -0.248556465457023 -0.18689358565719 -0.231733615176071 -0.231547132371563 -0.234989815639947 -0.150511635140788 -0.278606326775043 -0.0295253308398626 -0.145264405439952 -0.0824043582107233 -0.0789212750225443 0.0464760493364233 0.0101537091792906 -0.10332294399467 -0.255637541250734 -0.271006244278497 0.00292197315970697 0.11459372742973 
-0.120122580834102 -0.0290647669764966 -0.112742198990209 0.0599437556899385 0.060353806241966 0.0911304883679505 -0.0904272608579627 -0.0157122481632567 0.112755794956083 0.0812017996128681 -0.00830610071119229 0.166613634586724 -0.112974265878177 -0.0304339369130531 -0.11557782348669 0.0188698812440701 0.0500320336504987 -0.0579285659770718 -0.163687791788152 0.0415924122731903 -0.232814698624287 0.144499925333255 -0.194931404699825 -0.179776664448129 0.00118846834885217 -0.051306824529577 -0.102488105903554 0.0308474001397532 -0.101051901999503 -0.104676575154422 -0.10126632383743 -0.0173160360556241 -0.10060261880404 -0.0488802662224011 -0.140480650726821 -0.0504274084118749 -0.27174924898132 -0.0367728920099919 0.0100250527122653 -0.026274751154994 0.0160954707892284 0.0217598526616019 0.0196549128179297 -0.0796169038589875 -0.292976236759306 -0.0703374879390288 -0.0123256482819778 -0.114278816336443 -0.166954330286952 -0.0276912218294286 0.103792412721574 0.0955019000592171 0.10202686817917 0.0971272166296283 -0.0662379512350846 -0.0358901937447406 -0.00148002864934197 -0.260525083275049 -0.299923431491324 -0.277651050102551 -0.327623855647552 -0.137321453877933 -0.257521431901579 -0.080627193475019 -0.203027437697075 -0.268807633754044 0.027952387635814 0.0624742791589036 0.0663868874573069 -0.225508384837254 -0.0202954414491853 0.227535993543549 -0.207124445580546 -0.00765010043991722 -0.0616832392213631 0.145455240849751 0.155724135952548 0.0653803345146071 -0.176377897895227 0.0406096645296557 -0.016928809398113 -0.110315449421808 -0.0991818101000427 -0.158546251232606 0.0390192650469701 -0.255850059740766 -0.300275624837581 -0.115922086016998 -0.17371695828858 -0.199848564797718 -0.0483863841475137 -0.0920950820620096 -0.00500072739812451 -0.203028020125668 0.0176040650884806 -0.176506840574555 -0.0940536799718373 -0.224468805275521 -0.262312962768438 -0.099970357522118 -0.000129161739717984 0.150914108544935 
-0.176726420557651 -0.147203733920149 0.0678015472622365 -0.178731003610947 -0.0885482485925625 0.0627550239528978 0.0532831239960778 -0.123083048969072 -0.0242576465599082 -0.0502532578347286 -0.0558696163093601 -0.120611443689034 -0.107001953827677 0.138944514713368 0.0958576062169649 0.102514201463026 -0.0133259546332464 0.0323651426073094 0.00281458646340958 0.00653008046509351 0.125707307387094 0.0854351906980924 0.215147042251734 0.190615273224773 0.0976396711617359 -0.0401729984974524 -0.136934286881144 0.0624393422358367 0.159957731980614 0.258040640708203 0.101551888794493 -0.0247092724192687 0.0210536099690971 -0.0703174744966095 0.20079656061064 0.0594290716294014 0.141545876025519 0.26640538787874 0.161526731651091 -0.150887141048205 0.102143490693105 -0.0296901754182371 0.250285455399713 0.210044174019106 0.265152239057315 0.0803564584788993 0.206484288236189 0.134532822806121 0.118929155667774 -0.113449007094748 0.09124487478036 -0.00952847487403172 0.00933130079354747 -0.0249468581583103 0.00869247843664638 0.149753944990961 0.0850159827092053 0.10050359157555 0.200260510138438 0.110444071868377 0.363203937970801 0.085783477140438 0.23755038747977 0.199658105251913 0.207718052272045 0.184795400454721 -0.0144509336850186 0.162563643635544 -0.036883911883158 -0.0750848294338568 -0.0427925617054113 0.0509520635039228 -0.0765441138961605 0.0602790564198343 0.12283957848396 -0.223479457130945 -0.151000331495852 0.0162616422538747 0.194284972159068 0.0380026408457926 0.138728342929513 0.121033290500971 0.146879329516944 0.349549049111944 -0.0422134235752718 0.0716089182055588 0.0403179444172766 0.107303746325473 0.139250775792496 0.189634665513767 0.208871820754401 0.0877768679885806 0.0673894511488788 -0.0344434775256226 0.171892795256058 -0.109841327078326 0.0728869451863389 0.105714014733554 0.121962293969679 0.143989787281597 0.032081458963771 -0.16354334467767 
-0.25075164338978 0.0304647154044524 -0.00476651663032068 0.0816624453316202 0.151712966276376 -0.0803172282221696 -0.052385859790411 0.0188193474510883 0.0621739454275717 0.243601692919248 0.214173568808892 -0.0326662049225039 0.0734419573180099 -0.0791234576288433 0.0112343801308454 0.0345457449545362 -0.143407433485169 -0.0716727175879632 -0.00839131225230216 0.107639295762112 -0.036940212372773 -0.0262876206075906 -0.0699280357197565 0.0925346116080104 -0.0347746797489847 0.221292619006415 -0.0151681273668878 -0.0889360280656654 -0.146542427847871 -0.143175509436812 0.167729906275459 -0.101313774402245 -0.0490699814872093 0.0490018722009402 -0.114113810356586 0.0715036174320087 0.00440410451114751 -0.325959283486919 -0.239499746172897 -0.149208058754239 -0.20205392296439 0.0111311261077167 -0.0182762711887954 -0.169362689173541 -0.0271030437456431 -0.26755305451452 -0.0292793168497783 -0.0704482037839839 -0.0778841225156565 -0.0808005451024664 0.241454216612096 0.123072428522895 -0.137516663558742 -0.110424169375425 -0.0300071130630816 -0.197803783433332 -0.235831883493524 -0.157409027050417 -0.331526995467513 -0.157345292647754 -0.184475100787243 -0.0694072571952179 -0.108446668960086 -0.152489250417399 -0.190060320736882 -0.0873800444162128 0.0184619216817964 0.20461276468865 0.140236222426475 0.202021684643112 -0.026105537109645 0.130810329418253 -0.202703932087047 -0.0385949729485452 -0.128870502935626 0.0429081048291661 -0.0657051377969674 -0.0202198870099229 -0.145030773123288 -0.130379490578597 -0.160065042758232 -0.166697145669966 -0.165374166471416 -0.283817537383115 -0.0673063880454377 -0.0919386833919915 -0.0537929288203312 -0.095961926776685 -0.30590815350982 -0.35714982843943 -0.18834771203558 -0.113811942255379 -0.103233105572315 -0.194766333550382 0.0141945160010803 -0.212918943989639 -0.318371945353003 -0.0239521690523109 -0.183998777677939 -0.279932054544561 -0.0730122964117496 -0.128364267765134 
-0.0694570637197841 0.0986813178710068 0.0215476357021418 -0.234604996065101 -0.1957942013988 0.0199732746151483 -0.115595751712931 -0.136562225212046 -0.0950095225176426 -0.0910676886671257 -0.227913322598513 0.0195845329380087 -0.221129463919978 0.0207224009121399 -0.102354628938712 -0.125259924325309 -0.189194407324083 -0.0199017431898443 -0.194903683043844 -0.0681928136205919 0.0497551776742418 -0.0717951399210916 -0.0965917759143494 0.0633890516500333 -0.0576980234192397 -0.238575417206788 -0.302653884197846 -0.184620700054163 0.126639364759068 0.132787978441003 0.0246801615977237 -0.138147623580599 0.173990494788456 -0.0467422260412383 0.180634636487428 0.119902607658301 0.103987214612147 0.130819079034867 0.0881715129656812 -0.0415226632570481 0.0405809819529336 0.0507216296391201 0.0492286531993734 0.0824751499050264 0.142982650968078 -0.0203048447313924 0.158096789404652 0.0746934024457058 0.0784320078819934 -0.275255089385282 -0.144820790125978 -0.0567092059345583 -0.149519509627344 -0.0482623443979778 -0.134419055703594 0.112858662848557 -0.0416326285127848 0.258607455525932 0.171901388226869 0.210084760160942 0.271332102634929 0.277974729397799 0.142014030477153 0.301185545608844 0.222814216306136 0.207375005286337 0.000210181834360824 -0.0158429803243244 0.164320080627468 -0.15167761576738 -0.174623760192918 -0.0399470691638929 0.0633357731258591 0.0157978582875243 0.222826611243712 0.0401849977692947 0.000224739267997779 -0.163337898846943 0.332077209684888 0.230798216110276 0.146273431449162 0.268552666607727 0.156650491453435 0.249386478338379 0.118862627775995 0.189468782873038 0.269053418915447 0.231887298348327 0.0843506578054153 0.404337558517887 0.0338641565483577 0.224341026924977 -0.00686912868934822 -0.0592011024807985 0.0749691673820844 0.218883442185836 0.309531475382445 0.310303832371675 -0.0365957304663279 0.160272756345207 0.12620365015233 0.0202345661486961 
0.0961231793099223 0.239071078358191 0.16039648293779 0.0293702539692432 -0.18706865523842 -0.00754743710973624 0.0582657179371117 -0.00389227852203626 -0.151578040826896 -0.0367933504500449 -0.0278595330470514 -0.0516085485521085 0.0348022540406755 -0.0116605164268178 0.204564847588726 0.231880129561072 0.16813375054454 0.0302132083816388 0.103107196271141 -0.0763791652165302 -0.024597947867798 -0.128500137240232 -0.00451467946706094 0.0580801534306653 -0.174295137468403 -0.0803824523520788 -0.0567785559969018 0.0399587067982791 0.15997732375552 0.174189874232513 -0.0402054192252549 -0.043125928592398 0.186897668815912 0.175444896865778 0.0149769689770092 -0.0540993012684827 -0.00410743691057839 0.135743829674093 0.224214795617442 0.215383810175274 0.0728202834453792 -0.0507578221016075 0.17341392707054 0.194712644990131 0.106088156555644 0.107489785760089 0.0373854726747925 0.177332124770497 0.139069728906748 0.0511833893834834 -0.231277483239112 0.0893296695176592 -0.031481884210447 0.0684750375772005 0.00197872716106847 -0.00507127822323497 -0.0129450063254942 0.14599278111049 0.344802530417548 0.197519576001045 0.0929208134164412 0.243951606399337 0.173028181275117 0.105531032080127 0.191340919477353 0.047971312350503 -0.0492994847177854 -0.0657167428330792 0.0589824209549723 -0.127924516621837 0.0356442999339467 0.0179423651202686 0.20652253604514 0.0921351731184209 -0.0286006524050314 0.0132035572854588 0.131327294787354 0.209988581646892 0.130651521471272 0.144413791436856 0.00608988260396569 0.304241342488789 0.249219255116375 -0.00110896398102064 0.201191221768517 0.229022085130644 0.077092908255049 0.117348269674118 0.139021597761763 0.237707241130599 0.187581759541293 0.233096564178392 0.00188242006667782 0.0178810506459615 0.0075961165265848 0.125833704848232 0.209533504017014 0.054857536498016 0.218381973403342 0.139000436333992 -0.121744334234341 0.0101949453239471 
-0.226226326227634 -0.00283004412376825 0.0577952661893766 0.12103063596517 -0.0724373348671324 0.0766359986828819 -0.153674991414446 0.152348521605583 -0.129126028064133 0.213170900066612 0.0138898824686896 0.218573220398464 -0.0332751834229693 -0.0911825812373405 -0.0870505879979551 -0.0528211258784088 0.0357854888418423 -0.0176409825916254 0.139542953566483 0.0704391126535099 0.00578179349394315 0.165059300956296 -0.0427888645725184 -0.139843365981709 0.233930154901379 0.133428019749792 0.138933674230387 -0.0120552331634479 0.0659000720253228 0.068862406225946 -0.034662323123299 0.0637558062518244 -0.0154657720297377 -0.0175831765413989 -0.0311847069917444 -0.17286944678328 0.025847017253818 -0.361269022412455 -0.144885703691613 0.0597096287328028 -0.0393078155700548 -0.150880902131476 -0.0470397418470808 -0.0578161598534593 -0.0800668237291035 -0.159666055476296 -0.144262041524196 -0.0814167197276599 0.102069546658239 0.135109108634845 0.0496365251172061 -0.181535509677501 -0.0756368652889139 -0.186733091873707 -0.156316866350235 0.0033975875031083 -0.133785793722974 -0.180027203533136 -0.176714549828623 -0.358765347342337 -0.290166171922596 -0.401165041855111 -0.0896253068424878 -0.308943430387132 -0.155872057939305 -0.0650756271289004 0.123339847701052 -0.0462782693678712 -0.0512574496900377 0.103218920573137 -0.136777915164974 -0.163676628920803 -0.173461532936856 -0.16605705801036 -0.147666283216976 -0.0497528236428309 -0.0362899268390753 -0.0438110795788576 -0.261021632078886 -0.116001134059074 -0.19236355664373 -0.100599033511177 -0.0141320138759777 -0.0523698080416673 -0.122782810663912 -0.106188910267184 -0.311498273639946 -0.294388869948668 -0.254300815751564 -0.187052133247254 -0.131340112845921 -0.274677006180022 -0.230147448214212 0.00667606776411789 -0.0463307211172474 -0.301570591924628 -0.156127813122858 -0.354747467177362 -0.125604008403439 -0.078563601320891 0.0101672762207912 -0.0794485347177253 
-0.0520056162852611 0.00218979468867112 -0.0607825684127561 0.149639906842326 0.129987530353437 0.137500097370653 0.0163315095448676 0.0860437095650213 0.0526937903015799 -0.0262676820612853 0.0804104765043046 -0.0371796514810699 0.0522693196337364 0.110056007856181 -0.124708539569631 -0.184212403623075 -0.117523131751869 -0.121008600600573 -0.0493727937503355 -0.0618057667629473 -0.0999612331745361 0.0534043942869498 -0.0176810322945422 -0.0208257641437419 0.052099582132583 -0.0940557877495373 0.00683893357595401 -0.0285354844418794 -0.0778478738730658 -0.234953285247934 -0.0534763487568559 -0.203797704958899 -0.0373914593455357 -0.0203983351065809 -0.116952686642792 -0.168417891933413 -0.0761992845056996 -0.0627749807572563 -0.237062058989463 -0.194558900856907 -0.0694424285149786 -0.234887322315665 0.0381750277317122 0.0177028394640414 0.0297123252296542 -0.2655766159586 -0.155867693541541 -0.0626373551014361 0.0514587585477846 0.0107522531990815 0.157092071063198 -0.0826676861357842 -0.0485015593366716 0.098239600035021 0.00835617142286061 -0.0485756244654308 -0.245196030630173 -0.191220659240775 -0.261289882007605 -0.302561752035418 -0.24818284987486 -0.132601988003358 -0.240675863806087 -0.278343830614919 -0.249936207533758 -0.286418505277993 -0.21186748831103 -0.0902058828959546 -0.203219776547687 0.00914245378707186 -0.0829731074342864 0.133708646451745 0.122078582488684 -0.162872007116747 -0.0140661807778772 -0.0308582811073688 0.0575920192530001 0.107861084481852 -0.26023777349067 -0.142868605558007 -0.233977620017799 -0.182141087129927 -0.106080078661105 -0.292675968596916 -0.084741887407927 -0.173250618547645 -0.27601728217522 -0.157338050945254 -0.134006606142695 -0.224597967012653 -0.059972818336969 -0.256952674987734 -0.227140064713762 -0.171464208988484 -0.126844671768345 -0.190966710751767 -0.140649190728986 -0.323861601725033 -0.150033896332598 -0.0194889105113295 0.135902623156755 -0.0836145846269683 
-0.164660453425571 0.031283465322091 -0.122883636478622 -0.0882863813881415 0.094875071278785 0.161298412102708 0.028742948380683 0.0823234130936529 0.132424495522506 0.207485302333068 0.0602320869129986 -0.0252957424232446 0.121759511569883 0.0244461201061137 0.0471819427096306 -0.155840949378594 -0.139871264648106 -0.0531858606403742 0.154647336130291 -0.0223224601364977 -0.108404740641522 0.0642500509692285 -0.156192310523123 0.0148893676623451 -0.0510682692028429 -0.0575744621148039 0.12108751025962 -0.00785640181568742 -0.152713747876061 0.00341854821684781 -0.150803797545662 0.0114553122954116 -0.11902447501863 -0.0987229839696978 -0.303713588135239 0.00320914518932675 -0.169064444670066 -0.18522171829371 -0.267229260264423 -0.25562490471536 0.0242752178128416 -0.161606378909218 -0.114025006941936 -0.249614768952756 -0.140267336481539 -0.146764001005035 -0.143563758403607 -0.0475710095439572 -0.00826401518200715 -0.0981092351881434 0.1749330017327 -0.084905184846229 -0.0191695003677895 -0.128355295634578 -0.0401747905633473 -0.0702296196786634 0.0718275606234989 -0.11301783709662 -0.350266202246003 -0.210656788242166 -0.142875056082311 -0.219635513787724 -0.129344571875596 -0.0552746436038038 -0.0321313898486124 -0.267648756262454 0.0973417031050864 0.0343584314762161 0.169561385302489 0.154633466063269 0.0514977396569333 -0.00876128032912173 -0.0358708482118793 -0.101048181241114 -0.147039348520711 -0.0927158549401588 -0.159188197578858 0.043110421201656 -0.290446304613742 -0.106165116018149 -0.180687929216143 -0.146209433977104 -0.0225768132344276 -0.025810012461897 -0.213770554200524 -0.024143385054982 -0.0945469335644567 -0.258379609910848 -0.127643608257511 -0.202265588192408 -0.301642019910495 -0.258077448414866 -0.0719258925642871 -0.25084488565761 -0.00579996661347369 -0.0151604923871718 -0.0883165718531534 -0.278902870365053 -0.110217283133895 -0.0720944768002521 -0.0652422511210414 0.0240093501966816 
-0.097020184913749 -0.254902251842935 0.0405882848600185 0.029022023908866 0.0273512077061825 0.128598061575846 -0.0212297360127764 -0.0438941048553464 -0.0452061781766826 -0.0096478888921484 0.264999511963227 0.0333564012114907 0.149380879037955 0.12618511090698 0.0875230380912549 -0.0922433489072966 -0.0318282946815906 0.0571166357475987 -0.0966645522966168 0.119134381195018 0.0164412928079454 -0.0637109368814113 -0.0449868737112911 -0.0868621370921477 0.135387432241982 0.100654527336273 -0.0616000339941505 -0.0598640058986609 0.0231786200596516 -0.0687855315373812 -0.121029974653258 -0.139421238138533 -0.245546716335927 -0.019945761414707 -0.233664231228222 -0.0177006036990483 0.00917655224252628 -0.119782960509916 -0.20761420501646 -0.130389056370918 -0.214003815288943 -0.00633147446000792 -0.101949748583027 -0.0814697024966611 -0.217303223756685 -0.290920507998471 -0.0632382071812695 -0.184116006765539 -0.192593984995886 0.0587672251697539 0.0152581297606969 -0.00431685653161496 0.0565899281293197 0.105190572129174 0.00679030723483744 -0.19781138102635 -0.205671850219606 -0.1536504303296 -0.407422751858588 -0.365131478986001 -0.345274366012764 -0.185074682170448 -0.191878586217945 -0.11684262759943 -0.260995372888938 0.00817212939724227 0.0812668856390947 -0.0403805084508555 0.146185430539235 -0.00855337003440972 -0.0263758791893339 0.0941902213971913 -0.0480212454511138 0.0925291630955619 -0.118330335955432 -0.019953263962359 -0.0436531849558794 -0.234838209498703 -0.299423796808248 -0.187616420906669 -0.181385083647141 -0.354040971274535 -0.0302579678060315 -0.32960084366351 -0.243612730131907 -0.100672988419338 -0.345111317964808 -0.156207328175445 -0.311804171151139 -0.379513734978813 -0.170291902440625 -0.01395105502923 -0.0531433052051636 -0.0920971459018677 -0.0862146309994093 0.0154364778694589 -0.0862367810926508 -0.299975830984792 -0.110027207802284 -0.325515365002982 -0.0213471175187379 -0.00190745898719035 
0.0769199355550571 0.183454390164834 0.0574107358092361 0.138426002552989 0.154553815831819 0.0448039278813824 -0.207307948475791 -0.0224596240603467 -0.0941758767525566 -0.0838980739083004 -0.050423018604732 0.0220002235845851 0.0698366418411067 0.115577638718809 0.013030387954851 -0.0297386631784568 -0.112623400763324 -0.135549775959442 -0.0608025515561422 0.0290502868176355 -0.0274732304580461 -0.124849247392797 0.0796069882650357 -0.0220294107489784 0.132680219878671 -0.0146693936741066 -0.0211776904463891 -0.138824691270238 -0.128185868178658 -0.0142395218459419 -0.0116759657194797 -0.129684720258453 0.0828350787511294 7.00459709102894e-05 -0.332951636478466 -0.235236784934831 -0.146550460083918 -0.004595842158086 -0.304907328387138 -0.178319402733004 -0.0178363048777302 -0.0348435797482996 -0.0346182505410517 -0.127124919086636 -0.296444182589582 -0.269309227809253 -0.0952472204062706 0.00844949523816635 -0.0919590902623996 -0.0895268825622764 -0.173484272308683 0.113010722346574 -0.0437824359662076 0.00912124759609253 -0.113978631196726 -0.125006638576738 -0.161927493738828 -0.109824119670351 -0.171183563543169 -0.119706997778906 -0.198573506302457 -0.194862244959745 -0.0229853693588267 -0.0697319065208821 -0.262893208307402 -0.243653416213392 -0.185998859145089 -0.16084619957048 -0.105134283220935 -0.0373227108221554 -0.0351945508371823 0.0858230514902821 0.0862355990606663 0.0259074197652885 0.00852168839696529 0.0907222760529082 0.197848769811574 -0.072653455865844 -0.140612860802649 -0.200834498883777 0.139925477839855 -0.282655462369726 -0.132785282352413 -0.0126343364499124 -0.133376325249901 -0.175980467142838 -0.197939747005741 0.0436632854180356 -0.0534548100668167 -0.335270389196048 -0.258912566206532 -0.134401834975987 -0.243171551116988 -0.130603192815216 -0.230680425875755 -0.0456549320264059 -0.0442843813559404 -0.019519085668559 -0.175756712753613 -0.269716470013748 0.105711450547997 0.12707072006944 
-0.071479846134323 0.0462496093965634 -0.218851962492714 -0.150498276894368 -0.12374710858069 0.0334716400450292 0.183957997739325 0.128660379713342 0.248463626980571 0.0331518512166598 0.141105006957495 0.0233068202139131 0.0502032291342377 -0.0328295088854036 0.181373190930727 0.0560974557567123 0.093799907562938 0.218601238625138 0.192627922037684 0.12576827604336 0.0466369979475408 0.049992780482521 0.220287245584913 -0.0181227351675709 -0.0717583063129185 -0.0319757336305547 0.166310419721675 0.022226599889838 0.308956890787801 0.205475664977569 0.176685913089138 0.218106348040104 0.142542016114114 0.0989720560294865 0.0718191014808675 0.118819347426361 0.172598888263386 0.124805487090751 0.282825489273202 0.137929374378727 0.000564270382965213 -0.0227966693918955 0.223139069482833 0.249537829823781 0.152538143182676 0.174841043640532 0.295890188869807 0.0711226993874828 0.129360883715861 0.243012514144261 0.187290875885595 -0.198293505481395 -0.00310559857833121 0.0738510514281629 0.104298849113184 0.218474900502987 0.174636486930656 0.278677554159775 0.244274250182724 0.136116628018892 0.373038134340405 0.102706024727718 0.176686803173286 -0.0326018818786284 0.28976688789934 0.0764050640457534 0.346532608440079 0.165662767207975 0.190696210743011 0.00598310851525479 -0.0951334088492898 0.00217719785999874 -0.221720256007902 -0.0099109434659687 -0.167914759154912 -0.281217575832383 -0.212853216407581 0.0766786981556045 -0.0424185862657765 0.00926308162563204 0.167080117735485 0.0563068249699669 0.161703354247585 0.363084502329464 -0.0687567364324532 0.217724501011924 0.115635126728343 0.143192749463814 0.060482882341542 0.239545533336842 -0.0481991227808752 -0.0439560203296468 0.344265941449193 0.232902509649806 0.378240379624828 0.0289479604927279 0.0556796604464099 0.242008733880003 -0.0849444705271109 0.258222408658471 -0.0881666075760011 -0.131947527126745 
-0.174805002181031 -0.0777205125814184 0.0247091316461604 -0.0317916713517969 0.0961205055277281 -0.0422180716682505 -0.114151763124896 -0.033920255646694 0.111259206599628 0.178132793711477 -0.00876406905626669 -0.0677229343743319 -0.114374282981846 0.065159383976105 0.00669090621567419 -0.166905145904409 -0.0586590149562415 -0.0317394004262315 -0.0727539508551899 -0.130021202365061 -0.11410442658859 0.111049200789076 -0.0628550187451577 -0.159644144025043 -0.0924825256557186 0.108624927802311 0.166787131866347 0.0663487722958201 0.0281641847193092 -0.161806999157696 -0.0608317420499275 -0.155915611650709 -0.0806005565255305 0.0903590333477492 -0.147281133584283 -0.163012426178332 -0.0849541187251782 -0.271666025096842 0.0635861752777736 -0.133191322897391 0.124465264632638 -0.164450451644359 -0.190493483163275 -0.0943248934457111 -0.228015610050216 -0.0724642002277254 -0.031268772946863 0.00418864613274488 -0.166231005004053 -0.0868478895182425 0.147109540912429 0.119333161146957 0.0551547078909218 0.0933985877487432 -0.215783383771449 -0.0985723332088501 -0.00696161298460908 -0.331770711613236 -0.131414954486451 -0.323710955898848 -0.266104267751107 -0.387786742140603 -0.0191774594548152 -0.133479027762333 -0.252751311302365 -0.0683889721929955 0.0811648840762731 0.0651009139132725 0.056733658989798 0.0405174682339519 -0.107980683052966 0.153617495770122 0.0684451052806575 0.0146303071791331 -0.076894851236069 0.0191713419719698 0.112612378834565 -0.139319399478294 -0.355848546401058 -0.317451791270301 -0.373254688801028 -0.280676253975193 -0.288312374887016 -0.0839550553223356 -0.220871382906957 -0.133363224197753 -0.247300016737499 -0.281812044154962 -0.390767234312669 -0.429788863148173 -0.334193669143893 -0.351767565060311 -0.0957105363335598 -0.0156505112968985 -0.0440769089501603 -0.168109613165927 -0.27153756570965 -0.264799912996656 -0.222685135425775 -0.140651011150138 0.0412537361078284 -0.129369191813146 
-0.0910819407656516 -0.178855561823512 -0.0654719032753349 -0.172997104526549 -0.0594008584936848 -0.066322232473287 0.0571311908344754 -0.141419876696033 0.164344342591606 0.159124344747622 -0.0270982566459016 -0.00135905582912153 0.00125714023743147 -0.141051308246293 0.238254890269497 0.106707706941349 0.069631352240788 0.0154353950486074 0.0210498882114228 0.217155215508977 0.205851235541109 0.0822927203768264 0.136390577734232 0.0965080674848788 -0.107711520896295 -0.102091207269963 -0.047262525288768 0.0227547897951538 0.0460314498413969 0.0878651214320848 0.0662870734878844 0.05375238143641 -0.0293777571108542 -0.0367482956708636 0.183675490852272 -0.0878746713323559 -0.0307859822448855 0.224822980225213 0.206538052494658 0.026682604035496 0.00771470036589204 0.221266193507776 0.211511935060821 0.202282820933803 0.167165682649509 0.172013469729421 0.137943606734273 0.0764095470209294 0.20015572542999 -0.134132615667268 -0.143473528414085 -0.0493563685629382 -0.127714410247849 0.122306412078251 0.0500120652264568 0.0615335713735167 0.00791825500152286 0.227295632927845 0.240550057772868 0.277258655905322 0.223703406793428 0.220104965948375 0.0621739134210098 0.232992175793731 0.228659366054015 0.31116527133205 0.195701688762017 0.18280196052074 -0.0739674648710663 0.0292959896958348 0.191875377952607 -0.0597273769224355 -0.00394463446091814 -0.0398857726289127 0.125518512408984 -0.0480446006880074 -0.13693354432922 0.0381215776381668 0.0645748948045231 0.138921733695184 -0.00718665524692872 0.142052850574915 0.0849447080229163 0.00281213667357477 -0.0153563729288358 0.0810769026449842 0.047806342794174 0.134931062509714 0.11922946422269 0.0352756455462141 0.22297252543371 0.0735676473295601 0.00650857072009875 0.087841544928822 0.0160435136706352 0.0570046573703513 0.149253136817529 0.132305477214074 0.225216216400284 0.297433690560658 0.0389752069495922 -0.0632814729529004 
0.113125589904283 -0.0830851717650212 -0.0509833413650581 -0.0934226764577201 0.0180861709120245 -0.00407677179326146 0.07538448186399 -0.0728216927108841 -0.0499604770536707 0.104632434165917 -0.082461656839537 0.0458369457690602 -0.151832796611979 0.0587903713334463 0.118397223783114 0.179884795051431 0.00720267425359343 0.0480661789316529 0.00248815378354212 -0.130713508769338 0.190450285377602 0.0542809418240932 -0.025017172221385 0.0997856888859177 -0.0882717102727888 -0.052475421309068 -0.0799265679914013 -0.0947874124491268 0.0972251351582497 0.0681951578470994 -0.0222456834643346 0.026515485388931 0.0671056858456146 0.0171419243628979 0.163077448994799 -0.085868483645168 -0.0490267716398452 -0.0498954557440605 0.229437009812186 -0.0949183514368866 0.117600967873733 -0.0255077284317286 0.0600763219126711 0.17907723949876 0.213663706683347 0.0781522474528325 0.0793791845273296 0.0673269675306476 0.0495952396424024 0.0315530359122651 -0.0244724721954217 -0.18714470594186 0.0724639733858279 -0.00753243208351776 0.0099176820277267 -0.0224170616236423 0.147568654199144 0.165017101585142 0.108561806543654 0.157254701846632 0.324761538293029 0.265054425888927 0.0503876835661657 0.0313333661236279 0.0903735053547827 0.0452920471727988 -0.0278313591506589 0.217032185383379 -0.0272980913874246 -0.00675751554459528 0.0878801374617539 0.140251929019527 0.127478955524029 -0.0703243693139611 0.227836420127674 0.044957333179807 -0.106265984107159 -0.105631680422374 0.170055060101278 0.000546792596537395 0.127464205705857 0.215361665744051 0.0383229388065465 0.105733342947433 -0.0414568473542882 0.0255464339449106 0.234138661249875 -0.119039465175965 0.187916166757577 0.0861441529850583 0.143868854644391 0.105558167115057 -0.00570119396304321 0.131972980724209 0.164365850637649 -0.0213504550373916 0.146751259643424 0.143508129951569 0.134637543020634 0.111794362109389 0.055244964720145 -0.146442382871904 
-0.126460056162983 -0.221876942561423 -0.0203071937381974 -0.0509002938316978 -0.0146444109410457 -0.0249333749498804 -0.0687106350656731 -0.0345034117520784 -0.103627208911518 0.0456674995577387 0.217563923264112 0.113588753766725 -0.107083688374584 -0.0164771472426568 -0.168376296245153 -0.152030803184961 0.0388126513038234 -0.157818012037702 -0.0811478474793831 0.0718203622322511 0.0945780717218293 -0.0762021048268093 0.0640287203502049 0.0552254189383925 0.0582232798106867 0.168872543107359 0.209492222477034 0.149433072492272 0.106974131706964 0.0902469539184578 0.0151941021907496 -0.0816800908693639 0.0030779503722876 0.0990782959887961 0.00523671904090261 0.0857412318810136 -0.164884574605322 -0.0655272363432342 -0.150396376820104 0.00655835029891263 -0.0712109478540589 -0.0611468880137474 -0.0816658606302016 -0.173016623949892 -0.255633990010376 -0.156842342130956 -0.238681723389797 0.0603622156527165 -0.103123541676991 -0.07189056200259 0.067477747847837 0.0407978308068247 0.041532559425647 -0.0268760100649365 -0.0912288680717969 0.0181739858772328 -0.0335300328051705 -0.316685888817849 -0.193744151281796 -0.205950161909461 -0.183294194140389 -0.32952940451557 -0.179057537092243 -0.1053787057624 -0.16677842851514 -0.255202269296349 -0.0973566964139725 0.00133627113571588 -0.0434386601627852 0.0255626914295933 0.0663417570733996 -0.00141762507061312 -0.0187294267296822 -0.257087809241695 -0.00955810301947579 -0.105763326211187 -0.250177933222041 -0.0164768239787755 -0.371993153342548 -0.123306670526512 -0.27863612679921 -0.243330751354715 -0.192774932658929 -0.25130891955749 0.0618583037154439 -0.197950211197747 -0.349623256623923 -0.0086935459398195 -0.347887316856536 -0.350864150651814 -0.172474921173628 -0.250780494685952 -0.174541353127378 -0.100242107954206 -0.121620672120442 -0.255667120593942 -0.26254485963406 -0.134370686112497 -0.219625821534857 -0.263850294263722 -0.00539085769873286 -0.0580114997527414 
0.126037194363435 0.208504670216364 0.162247210368347 0.0237263216796045 0.0634959570009856 0.102375596137354 0.106384257598404 -0.0571935280594919 -0.00181063581123659 -0.0886185062374644 0.0391634041195616 -0.192297106578739 -0.100267149901478 0.010654288539798 -0.0583175865575043 0.240881857009595 0.0173058289570294 0.203992814996571 0.0939446725237923 -0.11937742152744 0.0811697226083979 -0.139472606643606 0.19876537584028 0.183624800569591 -0.0556422754709194 -0.032470992375571 0.0395656835492448 -0.00333716477853435 0.0842058283550338 0.0993834949561737 -0.0624899472191071 -0.0991034283235565 0.0535964723008637 0.137765837785512 0.108506107394814 0.196746173162762 0.187488979319282 0.0808697539980751 -0.00358388386912621 -0.018791463028766 0.159897746758504 0.202584913698028 0.124679891638199 -0.0168669818489055 0.123787256359996 0.180163473617912 0.126860565146034 0.136850291620288 0.158215119743533 -0.162092741864841 0.0590600625031224 0.0222001862330079 0.017124647673865 0.155633128084085 0.183844109430534 -0.0126499997376948 0.0925312130265868 0.0866427771734234 0.137666095175252 0.29855552330392 0.327067744009637 0.209166104570532 0.00333401267701971 0.128643904132326 0.0305733288136022 0.122593182563746 0.080271504283755 0.0184677794483122 0.0593437494568772 -0.0738231903747899 0.159796563578717 0.111901366951098 0.103117359417844 0.0795674694903016 0.256547110515728 0.0595448502941003 -0.0804707338899423 0.120672673171331 0.252192893214419 0.233125181925543 0.285539718042545 0.335036653873473 0.165511796789224 0.152135415568871 0.244417011283136 0.237873799085365 0.173625933215665 0.0774441880602901 0.3159564386023 0.346430817936434 0.14378954144628 0.0282914204316871 0.220820037793942 0.186165707573567 0.0929027058184955 0.143167478522839 0.14513510270221 0.335993459093878 0.196418230418693 0.0596145348248336 -0.0356927149980841 0.0897837046617606 
-0.475307128521825 -0.442854546679939 -0.0815860661639705 0.0517375367017703 0.197729724163122 -0.0563017639584216 -0.0364073120377283 0.111108778542628 0.108572968160561 0.174506423933139 0.295501195982159 0.0632283892938839 0.217432152981161 0.0187716727795254 0.0295714620654711 -0.059226188740726 0.127512047147607 -0.0654637548838692 0.0625928900203742 0.100073138137218 0.111391064389028 0.0639444147126559 0.100851833144946 0.10611084414089 0.108864453821395 0.274198188669028 0.225058321436775 0.0346211675035682 -0.0591738668366999 -0.12591565697194 0.0546597129990693 -0.0445103155595736 0.0664703779931622 0.150357867193489 -0.161447575398641 -0.0468354901762605 -0.207544175928087 -0.19547672125235 0.0930796631962013 -0.0995616232242639 -0.0134944516240583 -0.168183039194457 -0.0246637308737737 -0.183472846725548 -0.173129038711597 -0.0978866562778736 -0.0854024906770441 -0.138330670443617 -0.177195304075817 0.110731131029998 0.164687873227643 -0.135839885805051 0.0725246616096346 -0.0761668395782322 -0.0874514373033744 -0.207957950494425 -0.221247743229599 -0.173456781313943 -0.178394995890303 -0.390879648677863 -0.167063282313194 -0.0821159367525983 -0.125367380542473 -0.153226477251606 -0.130073173483939 0.0341303601819508 0.210496485611286 0.373768448804823 0.0485614412410538 0.163764849703305 -0.179184222340764 -0.0858278151835783 -0.326147231483726 -0.104821734707617 -0.217787426871357 -0.223348487505448 -0.343780429726243 -0.101746870150869 -0.109242000430187 -0.0867426787260337 -0.194520199545941 -0.15096819409871 0.01834735384007 -0.0778001254989484 -0.248208804639238 -0.229681700987602 -0.166028268123826 -0.18952843838632 -0.153414930094248 -0.243460418330414 -0.214584264355385 -0.296658530274795 -0.103926523015316 -0.135664206002661 0.0426371944537155 -0.0559069512937887 -0.18599273562389 -0.140371331294001 -0.285204643260552 -0.298806620230971 -0.106855103484422 -0.124234274199983 
-0.0931562960544749 -0.292822957484356 -0.115968532468797 -0.0764999609190911 -0.0426633232457225 -0.0120265657204776 -0.0436617878026898 0.133962225355144 0.177781895323591 -0.0385803605552927 0.129071674023681 0.0528132286454058 0.170444385652914 -0.099347617689391 -0.144756178635658 -0.131658899273662 0.00192629034938706 0.00577153003049354 0.0780042590041788 -0.0561600071029344 -0.0793960007915173 0.00702625088423105 -0.0737022406370741 -0.05864563111359 0.0372977653992484 -0.00184977959190975 0.0573188109115691 0.0384513894501035 0.00589436971418149 -0.156460564971552 0.208806384736972 -0.148962497222706 0.104248268700347 -0.052667885964928 -0.253196191932046 -0.191424276179238 -0.16511640405687 -0.133400334921685 -0.0294931469421223 -0.0234050967857915 -0.187785445069411 -0.13886200897321 -0.169532585896099 -0.178632548369045 -0.0466722379668872 -0.0836336266410178 -0.2673893144724 -0.036886866239237 -0.184100744375563 0.097587805597415 0.131964730368076 0.0115311125719393 0.102348441848997 -0.0732867605385683 -0.135228957343608 -0.179810521942135 -0.187969297279629 -0.231678325802096 -0.372359163272351 -0.248714910218503 -0.291004853970543 -0.246026724448042 -0.139754859052121 -0.087050233420863 -0.150004276985812 -0.198830975621767 0.00361213338600546 0.20134080548846 0.0602953555673428 0.154479441347858 0.03413843329347 0.0632274638918204 -0.227421109962957 -0.106764721477638 -0.2670239128267 -0.202698203719299 0.00777927755394618 -0.115392320542469 -0.0967088218223216 -0.253043774153995 -0.32221796406265 -0.155932837365162 -0.238013982048514 -0.320055559861789 -0.317209526997832 -0.0556282569023561 -0.130146317520331 -0.0704390510103021 -0.334949198181081 -0.284925328589461 -0.32411146519917 -0.199453464165679 -0.175085839608294 0.0513353565022677 -0.129392340503476 -0.182570595638633 -0.107137572452016 -0.0917034638929056 -0.270987242600812 -0.209213008420499 -0.116465100251504 -0.0981152034009483 
-0.23043646743996 -0.282173937734479 -0.0843919183221497 -0.188116339376554 0.0101172442945149 -0.014083986940769 -0.26015084518225 0.0154079378902677 0.133871211939112 0.0025784994019327 0.236712204348887 0.295544271310451 -0.154061342828803 0.107203603686817 0.144572252966275 -0.14072109627051 0.104673843627734 0.0717005320789821 0.138998991258199 0.179723058416382 0.116119034616004 0.152241239425444 0.138126965958267 0.0653569331187782 0.0153040660512371 0.0856122625793971 -0.00922451576695593 0.00779209848793953 0.0554111802866321 -0.0725489624045446 0.208170449396888 0.0102547247147988 -0.0382229527270896 0.0792415281580516 -0.037677425206694 0.130935358751428 0.036314080441927 -0.116659318849271 -0.190079164078213 -0.11498599438079 -0.0477929198967897 0.0642731858685973 0.0365460245798818 -0.204412372614084 -0.192608470506146 -0.227764165883777 -0.0391219855845258 0.0671098529599978 -0.147703541431647 -0.066516708279096 0.152309075451158 -0.0426957781604033 -0.100753567180737 0.0967075678319804 -0.15367481369427 -0.176043706212074 -0.0529922227609114 -0.389349001817083 -0.415111185538281 -0.394897986770862 -0.214426454199735 -0.171509739708982 -0.162871480444546 -0.169877603661604 0.0293930605092625 0.00281942725335072 -0.0414020655322187 0.216571710462258 0.124085366631623 -0.0491893898143239 0.013029229872743 0.0211757302011143 -0.129888126819701 -0.0467904127685475 -0.133134811880585 -0.0186046901365482 0.0565606304282767 -0.198161990728191 -0.0929626648946377 -0.266020185944546 -0.266650805433255 -0.233300200572619 -0.11085079975215 -0.0271971954650391 -0.0810451665092813 -0.249016055460236 -0.0671280573969822 -0.0488311833069193 -0.253509454116809 -0.390311435861206 -0.301469552152124 -0.293781827450792 -0.08388494464008 -0.126718263863958 -0.0426467437687788 -0.0709606328089287 -0.294398945416844 -0.120339815101656 -0.153611965324557 -0.196195763607376 -0.0826388137780772 0.00796460060329419 
-0.118240295987688 0.0206870679601229 0.0900277362342981 -0.160298156386818 -0.0730476481950298 0.14265068609982 0.180974505819188 -0.084669547437654 0.204455949351141 0.0122060709082528 0.0516192899547056 0.112988455117829 0.116923189608885 0.160848867983373 0.0632576962169568 -0.12317597840469 0.00907303923525052 0.0580208514359869 0.0639535280572884 -0.113448649184445 -0.0229136714370195 0.0926978843602422 -0.0295233416107374 0.000372506177165632 0.0778108232371037 -0.136557552510255 0.105235084339499 0.0301303354601894 0.19286545887181 0.161015240926689 0.00333554674255401 -0.137803245882689 0.0193079240790494 0.0577642631855769 0.0765333682257974 0.0803627534529485 -0.101912087796148 0.0733350020511448 -0.0249794174906102 -0.0188102250223315 -0.202115474125647 -0.0742747530977404 -0.118733707554257 0.0359276992223683 -0.0287789080457979 0.0620197081195728 0.121484527875307 -0.0623273264914059 -0.110156306736279 -0.206701394485513 0.047254993251297 -0.0206464449956831 -0.0491381144105393 0.138740654666958 -0.0989148544790041 -0.0319150462115399 0.169378136255596 0.0302313334584539 0.125901899554126 -0.0478986251435403 0.07014277443323 0.229380942762069 0.0976147217099208 0.132310745911998 0.0137428313800527 0.153315913937711 -0.0846814670649033 -0.179148399838122 -0.11399383418381 -0.124524899768105 -0.292395353528854 0.00153978970578721 0.088880662846007 0.170523296801876 0.0596025906331838 -0.00666989860815804 0.253101910409363 0.0955827422797198 -0.0549481181150275 -0.0256986074409547 0.0180004124604937 0.186716594825086 0.070233820607157 0.125477977550482 -0.132394780997146 0.2262693874307 0.072948585801694 0.106037191203706 0.10273980453191 0.101264478904446 0.237139148810528 -0.130940246244689 0.18751874077459 -0.215352916462418 0.0590423527632855 0.072316464527175 -0.0138230909869222 0.0781382959361498 0.00163817723203272 -0.015093806181443 0.0251948233856611 -0.0907906942137047 
0.405780609483091 0.0340701854643199 0.224291120943747 0.0881920299974758 0.183205820804214 -0.0556678957675543 0.162644243099592 -0.014140263524005 -0.19238949160652 -0.18021305086294 0.155151239904589 -0.187349427821581 0.0251524561189976 -0.113787529096363 -0.192076051792397 -0.0914870737690197 -0.147047490837436 -0.0974701820670717 -0.123815572175027 -0.107601667964741 -0.0495678692764166 0.150932999664316 0.0189563010918353 0.0280792075608597 -0.0990514470797834 -0.263020039338144 -0.179743800901925 0.0806581704575688 -0.226139002970642 -0.333801849192054 -0.142261703360444 -0.131414552559191 -0.0243434727083558 -0.00419621027494189 -0.0791982333089572 0.0926530894422956 0.131176759664951 -0.119812984771269 -0.132289444998035 -0.214701067233586 0.0157506254168577 -0.052164829609938 -0.149055709739567 -0.206030575098119 -0.114133120882291 -0.0401668877940827 -0.0865085278935438 -0.135283612328909 -0.171951748097122 -0.249804204396539 0.0362573867616042 0.00703229675968408 0.120438469648531 -0.174905200210848 0.0427655426514912 0.0466474268390029 -0.0356237654426275 0.0462353927902119 -0.0991587086419149 0.117132121654487 -0.0239567973932657 -0.0120362324699151 -0.0760966882300294 0.107029992172317 -0.148946021455994 -0.133812759628525 -0.260897150434974 -0.230400728830283 -0.515695085200898 -0.223041318831681 -0.0319074597110319 0.352314260442199 0.0302744145977452 0.180235439900375 0.2048234059912 0.230094341244198 0.0662024154778939 -0.098958030526039 0.0659173168249463 -0.0408974277463132 0.174633820550507 -0.219930137281961 0.109283129729548 0.0623662088083647 0.150427567402414 0.157792518783742 -0.0810289144727825 0.289615749029975 0.0148552930202948 0.0340907633203637 -0.10433813581817 -0.01749528239431 -0.251982097883222 -0.341593960435103 -0.0252381666559358 -0.0854668474774857 0.244729121359007 -0.148786675346404 0.180479042256401 0.1189536436364 0.190403592566371 0.0654812658235438 
-0.177870399006311 -0.233497676510906 0.0405934009176062 -0.09637247408873 -0.0732690065455776 -0.175468428488972 -0.0736930790219137 -0.0775769531012568 0.0783219930420087 0.000395853225578412 0.0637076240574601 0.0668489297785942 -0.0215578792353383 0.114535658405277 0.126625135832451 0.0718798508189913 -0.0532070044233849 0.111222076630778 0.262905245190572 0.139850540420873 -0.0932118240176594 -0.152190055797933 0.0279828605340567 -0.0744676987378192 -0.0511098412975312 0.168909365146901 -0.0341219226395672 0.229339789753689 0.0877511217682192 0.298343532703342 0.0212346841716014 0.109236788626348 0.0175003893150107 0.199633902486448 0.10534073346222 0.187561084301202 0.0722394065939807 0.0431259871204318 0.271176077996283 -0.105550696869798 0.238404294351572 0.136143731990028 0.0972483955849208 0.0717906209714982 0.0691986155744049 0.130668253931136 0.173788256391413 -0.0231303602301148 0.277717829721909 0.00796862634758511 -0.0689983248583478 -0.299931806945558 0.164011806498508 -0.035894304305998 -0.0739999842762011 0.0625208663116136 0.218072086013313 0.139521035668908 0.132195393104061 0.0611625392512071 0.223022852438132 -0.012363205035511 -0.0155510575717027 0.0568765432584598 0.13001919012717 -0.00762039264416571 0.232025944831766 0.122956544212781 0.00629040080444894 0.218715756834958 -0.223948366598069 0.0910790186203352 -0.047240186585812 -0.0930087184657198 -0.0957254173848671 -0.0303888925595032 -0.291771089715837 -0.074397748993124 0.121858106414115 0.0437509072550575 0.0106560929283615 0.266123689229764 0.179176515258771 0.332377445316436 -0.126919073947288 0.230307130233747 -0.0120520532975279 -0.158120937327257 -0.121567818932735 0.0882355789762921 0.161731084961717 -0.0995949485100645 0.0925197422707849 0.195908993884655 0.313016923097058 -0.119675472237939 0.0206674490872561 0.204090303585457 -0.0209523245207858 -0.067647943983266 -0.0274405683134686 -0.113301392996463 
0.0837694603517198 -0.150108247266618 -0.0220499978979559 -0.00241541373363556 -0.0781765575530716 0.0376965012885254 0.0109522660015685 -0.144340895039774 -0.0774624421189045 -0.110949661087891 -0.0210763788240791 0.052798261809803 0.129254417079727 0.0387804587331059 0.159896262644302 0.196295985632666 -0.0375109324781444 0.0498530596933241 0.0601455248406837 -0.0715385336442104 -0.0104279317803843 0.0139408369545531 0.0303319849837546 0.0484325764116183 -0.0799350210399912 0.0884839935601912 -0.0849271961497756 -0.0525887921906132 0.174236190055239 0.162522237798772 0.0525955727454863 0.17519545776574 0.0842389770143388 -0.121827653855104 0.152563274424939 0.238299724722398 0.115713452919883 0.261596991543647 0.0332338232271354 0.0737249387473081 0.203768544954066 0.186513754119194 0.0875576307804985 -0.0216930810648327 -0.0297407749547147 -0.0405511711038968 0.173896216455236 0.231605514693962 -0.0283691685881462 -0.0789433671261865 -0.13418848769135 0.0852227595529277 0.179748371353475 0.254442700930444 0.118818123453831 -0.0465849902927062 0.182577319226188 0.0713571698739064 0.240800797556629 0.128361600746398 0.259392543542013 0.107523422964259 0.210325658924062 0.192444826881542 0.275095533947196 0.159100816044209 0.0641725054003521 -0.08167529504265 0.12059003377464 0.0592519593952862 0.162730569969463 -0.122246806821311 -0.126023926752968 0.147638516695007 0.184108348049371 0.0284303607854244 -0.0696711001290102 -0.0401218290221703 0.241147001849775 0.202949141592364 -0.0628349565891627 0.234548596668151 0.0469862766124298 0.129761445905835 -0.101534988380682 0.0985010575258551 0.229864626571807 -0.0147499446360878 0.165542930847633 0.266981986568583 0.19007271227308 0.0654219056314172 0.072320610957781 0.0715754641217453 -0.0515032666329384 -0.0109314320966637 0.136983973937891 0.181173130753119 0.153767261024598 0.066747243733072 -0.130792131234562 -0.0496928162385285 
-0.348856955220478 -0.614276517703222 -0.110741820833053 -0.103843561069782 -0.0962022578022428 0.0192269350937779 -0.0160607302991606 0.21009121416522 0.0453321441500239 0.200973031091075 0.1449076642499 0.276620388350445 0.143740747843935 -0.00376973253081443 0.0656047597659479 0.170824202896914 0.102155019405133 0.0903918270429802 0.171534957049878 0.389753107872468 0.458437056606904 0.390824146947263 -0.0555948919696456 0.0607927645187318 0.094962206500942 0.247019283911419 0.0232642517674073 0.158268332886037 0.128923714875106 -0.0351962113088131 0.194181178353283 0.215831290637403 -0.171726785185108 0.199557226007663 0.121411773983894 -0.130580145127251 0.0249858731390885 -0.272179746423198 -0.0142765822467993 -0.165795740673869 -0.059989632548461 0.138933658314541 0.124235774988989 -0.00124158885226247 0.149414808638809 0.096687046923523 0.0378087657295044 -0.0243051111815874 -0.183230692481743 -0.00342316983694478 0.402920726997458 -0.115962330441425 -0.121767323448032 -0.00544773730678342 -0.205458507336301 -0.121496665183893 0.020720460842037 -0.0530324543168124 -0.108293990077749 -0.095984967233935 0.0229602962459757 -0.019734259134546 0.0274491359664199 -0.258632608463292 0.032791565417133 0.118914195690217 0.223175571807616 0.324317679498803 0.301302253259884 0.588033436947266 0.289219145493981 -0.186091181179866 -0.212042094047409 -0.27149894285593 -0.277767263638468 -0.24160389010213 -0.411566520188692 -0.363433729159642 -0.163346948575156 -0.10050055238835 -0.368739262187178 -0.108619064866531 -0.0728206386663607 -0.105309705648772 -0.0337680588447452 -0.219514292253521 -0.0484752107347027 -0.186943827394933 -0.0254973272284252 -0.275947090011341 -0.0109190627760692 -0.175232718557293 -0.0751583540711653 0.257170981633634 0.0468985496664224 -0.0455196779760912 -0.302835487484657 -0.154605793628567 -0.0410580160156151 -0.278759907952257 0.120752416924164 -0.057688695634574 
0.0939954815028425 0.143997662956117 0.015283365287159 0.0146281191121601 0.163124337373197 0.0754226744679479 -0.112165124788158 0.144785357027816 -0.182711767864604 -0.07111914718322 -0.0355373473299655 0.00672284850207001 0.0488821363924539 0.0109105484123714 0.0675097480570257 -0.0889109389724903 -0.126644829797104 -0.083081272606188 -0.168096947444003 0.0299422396621158 -0.0870334877634521 0.0178378653246051 -0.0282753999457807 -0.0161944014842015 -0.143845804118722 -0.0530940474476495 -0.107734701094233 -0.0517126203390674 -0.306846245225115 -0.242158326380488 -0.207130103573903 -0.300251001037428 -0.200215540820718 -0.214629852201225 -0.281591809827445 0.0142796979736609 -0.108703571783507 -0.15743296921843 -0.0788110584599822 -0.0194378168222294 -0.0336976252207693 -0.149690214366141 -0.13646045250883 -0.176741239560851 -0.266067016696897 -0.11645102589677 -0.250156316268717 -0.0271225483278065 -0.357091997646668 -0.119057848305642 0.0059327321658803 0.15323720938866 -0.0758751838439176 -0.0776206673310416 -0.173472344128914 -0.18631381278514 -0.0970327799470911 -0.0537327131005689 -0.198917682847916 -0.00900189168494438 -0.137380790473402 -0.185443430277226 -0.157588929443753 -0.168203721547784 -0.243202702221834 -0.259226193440429 -0.206051977146966 -0.13950296878726 -0.244290521919927 0.0414360790709201 0.0539939918541498 0.233465710500792 0.228548686456035 0.0561646683238297 0.174509210051648 0.0616487687844906 0.10184322625955 0.11944507238092 -0.0868645635486583 -0.0942857551068468 0.0936856335562331 -0.242334822303732 -0.205373551591948 -0.219201488344293 0.134622862138348 -0.0877027679131988 -0.0932251083804525 -0.199228729142502 -0.0130334777727973 -0.190009103939561 0.0666366676995561 0.0316858008019369 -0.0724053172598429 -0.203600740487557 -0.332892231334311 -0.0625441817685698 -0.0321833021757731 -0.0972010208878158 0.050912964205738 -0.0366380182979252 0.13069285996926 0.172211084835864 
0.0244983655909132 0.162656861627955 0.030368193539186 0.0566602547553039 -0.0862264907059405 0.0569868111091446 0.142641702111808 0.150555185578817 -0.030053137223437 0.0937425308672033 -0.0953902461554552 0.0886611686787599 0.00567879782953278 -0.0824877576583646 0.140194604041678 -0.0367649034752048 -0.0525406355752797 -0.0176174780024602 0.078209337071891 0.0606599194190766 0.124363146674436 0.0895742777278127 0.0998403705824754 -0.0280486270166641 -0.184038222423255 -0.110032453161521 -0.0593080988189489 0.0568882459009953 0.0893150021282203 -0.0704833310678931 -0.117845427999828 0.0593102512954458 -0.209334630498189 0.0375430116864482 -0.0856814776940312 -0.134973664974491 0.0962935738620187 0.153940251388016 -0.256426215463423 0.0264864830159478 0.0122125540391461 0.0420757489861268 -0.103914475529236 -0.149770175322321 -0.0843957930433871 0.101627330602997 -0.0982391771507931 -0.021704589466337 -0.154481031698572 -0.102860284055112 -0.0136218619818671 0.284068838595431 0.0762701736162162 -0.027305714932026 -0.172153258241281 -0.0352364409533089 0.0334891009294907 0.156285204423552 -0.0770432732527561 0.020873736930693 0.0856830448147321 -0.104250118529575 0.181022479697363 0.124686871412902 -0.141734358991005 -0.0646877356596694 -0.0693453601061134 -0.260461905167438 -0.318553115373648 0.0364414784769421 0.216336935791471 -0.0459857662749426 0.276651612499926 -0.0342530484595535 -0.000152080635137445 0.180623208073219 -0.0789230668715492 0.0794837551496323 -0.0255388220310708 0.124911913203295 -0.0778627109599509 -0.0590624412594973 0.198496307542027 -0.182037736572754 0.147875521062062 -0.116369179525784 0.109032730423119 0.145015419361019 0.0619739207325829 0.0695086713202955 0.146266583775776 0.112818297893978 -0.329365964783304 0.051016259410503 -0.220762813977416 0.0602641462771399 0.010831007095122 0.152082809411301 0.166339341842707 0.0378356376361186 -0.0179855856723497 -0.00933779741137682 
-0.250639734801037 -0.331109481869278 -0.201052977485791 -0.167964494188333 -0.115346853138908 0.030298861494706 0.122863679096903 -0.171309499750844 0.173660804527477 0.27520686957446 0.0599134572503925 0.177666117392327 0.0358559604948828 0.0414351180876236 0.198425736667981 0.107250438529888 0.236385797449348 0.350615573902717 0.241632946529966 0.280941850103832 0.358026102116584 0.328075128994287 0.109783866802461 0.224133666803198 0.0402142766792403 0.193195799928351 0.169950662120364 0.231732169297273 0.0760860657038603 0.243841528258728 0.141676740686046 0.0303729945043213 -0.118643309142523 0.0990045451438649 0.0844674261528685 0.0454507058667776 0.0252801799177828 -0.145796044906326 0.0940524932423757 -0.0016581791911327 0.154117968612637 0.239877088983615 -0.0102091586671128 -0.317179975295491 -0.0175678308301912 -0.152177391679065 0.0626587674718304 -0.0190955653483457 -0.286029487016282 -0.301092804202432 0.18728693173851 0.27108699876507 0.0583810960988563 0.15792907220436 -0.0910712401077569 -0.305471781215698 -0.00990401796936809 -0.292787719663767 -0.217342540419412 -0.0717892252214809 -0.150902174849985 0.0807333003525001 -0.159891744413588 -0.0897834447203671 0.0927459623787639 0.257423893635615 0.113361257746177 0.307674818386029 0.26918442692985 0.521319684306052 0.132328342812925 0.333378703964525 -0.0975644076380327 -0.0894338358033678 -0.0515616002295731 -0.129875577047447 -0.0589571015220278 -0.0194086560154274 -0.111977354292098 -0.12542196233721 0.0459589934153588 0.207510918092157 0.120553204564082 -0.115245579913134 -0.00366235811764793 0.0787698086444204 -0.135201730025358 0.0289765770024862 -0.140275291156903 -0.244380404904036 -0.105322629676658 -0.248037722412524 0.0431480334399341 -0.10264216496103 -0.0642618335775351 -0.0108978017369094 -0.205231143536341 0.0764419617925637 -0.0746505875232429 -0.27234002287363 0.00886568347117037 0.00106864615788498 
0.0321535634517808 -0.0325670573729996 0.0469577104757977 0.0981831794903645 0.183306827492389 -0.0862672287054907 -0.100751849409414 0.0812743067180358 -0.0488323066251781 0.102513567179388 0.228431077358404 0.0797756619055525 0.0111138788784461 -0.130340646672366 -0.0103771381099086 0.0512933857218716 0.041836071599156 -0.159129640367896 0.0817643770295326 0.0542789753647047 0.0874949710893449 -0.0388439524881942 -0.139514277098763 -0.123761570919408 -0.0817262853259352 0.0299501285161744 -0.163046660791087 -0.0607003953230535 -0.0332842563816641 -0.0722806609760103 -0.122252998401087 0.0388130011041451 -0.162572171417651 0.0958862155223751 -0.214681475936088 -0.0631841282136247 -0.140266714640094 -0.102455690389114 -0.242529786270596 0.0394488071366319 -0.143038331740009 -0.116247605105721 -0.080962643550108 -0.0911388245917379 -0.212282626217446 -0.159537094727626 -0.193800575134432 -0.178309355183654 -0.0158498258934617 0.0849877882753606 0.146794496867954 -0.0152354683354494 0.0883393207388748 0.0276755779380024 -0.0348963968820462 -0.0957669436698628 -0.0412806943218336 -0.269445119840851 -0.293649316527759 -0.124697825070487 -0.220319450362075 -0.0720169761518417 -0.275105300232947 -0.167338265881553 -0.185394443560663 -0.25426264879316 -0.172889623310153 -0.0939599560132629 0.119641363744772 -0.147108616864294 0.0306888955906305 -0.0575353350855345 -0.176662670717957 0.0251336608264078 -0.278821584551009 0.0546696210533532 0.0588333592372588 -0.00618549849509381 -0.101181834119005 -0.217725216606766 -0.100029494357633 -0.036054070316249 -0.0242758429490129 -0.050446022432208 0.0788528606362014 -0.215879018262871 -0.265545392169995 -0.0606240318007428 -0.120260499130141 -0.350715827180945 -0.17558621985465 -0.121661860722013 -0.314549565830736 -0.145894942116502 -0.0249567070714326 -0.275896897844254 -0.125699482941783 -0.21495200414905 -0.20371387297655 -0.0671918500306361 -0.106325847452905 -0.0399767842817467 
0.133309193677253 -0.041087688626942 0.170894593917532 0.0361744685405589 0.0466594345539158 0.0409002686114362 0.175704034385148 -0.0212580616474429 0.0463965873261353 0.0222569867061635 -0.218178132588622 -0.239842262548933 0.137102866379078 -0.0510429656246431 -0.0132541459058953 0.155246249748279 -0.0996369516804049 -0.116836553591179 -0.046498851755398 -0.078712872512983 -0.0310220053981366 0.014705250228205 -0.00127178313127256 -0.0663715753174436 -0.0786277305361443 0.0421234177791584 -0.00555715654338325 0.0664008805893831 0.189006813310681 0.230381391342567 0.0912674565819585 0.159767505656777 0.179755991799974 -0.155340070923698 0.0268911390030812 0.0068852565535752 0.0200782178459612 0.293626581165506 0.10740393758133 0.268986926713979 -0.117358051830703 0.0185642455677816 0.205886846110883 0.164814055895952 0.292430871242372 0.0209320372993747 0.00524313442065118 -0.00175295057158798 0.267912680503959 0.102644091277032 -0.0792641206143448 -0.124686665921128 -0.0191441872055227 -0.0612610935843141 0.0479937798386361 0.0372728268069864 0.0718373049702597 0.175387570336851 0.142420953893477 0.231762848655606 0.182105801717173 0.062856121429328 -0.0221217097483838 0.299432825834096 0.232408739803194 0.20485433610448 -0.0168149971429666 0.183669094112277 -0.000674362654620172 -0.177278611429139 -0.036595141107506 -0.105997580818358 0.190197772991423 0.0403784287271439 0.231967001199256 -0.0731655185886166 0.0865975036999491 0.223414989478667 0.178425177883127 0.00545340584809771 0.0116551863964154 0.134468910363761 -0.0284073528320108 0.0843781150955257 0.0316187977343615 0.14959846472951 0.0530237547145077 0.0967100043684459 0.138398471490196 0.155083659549117 0.218789155439988 0.200010279502096 0.0679436537093439 0.0487032560363462 -0.0816208301070543 -0.0154086983263626 -0.0087157244359413 0.0341932918489808 0.144824451696364 0.257556992286257 0.0561231071457797 0.0782765726042402 
0.0943932221617141 0.0534775917249117 0.055552034368964 0.0384492366454749 0.0101370320297444 0.1100583061085 -0.0615476433493279 0.0225117847472134 0.115975070709144 -0.139730365254357 0.046333211514291 -0.0127076376620266 -0.172293572224135 -0.0823776461372052 0.0333527481851847 -0.0320558337289913 0.0301049104986917 -0.0272194815084339 0.0207738102093619 0.0457409392210096 0.0203699768805719 -0.0228779298536348 -0.147741698241796 -0.230886241205763 -0.072919524183079 0.0676496969338182 -0.0544157946279135 -0.109151454811334 -0.165707657122509 0.00285701163767435 -0.159681247080185 -0.0144861959971892 0.0254295925156986 -0.184716963577702 -0.234288813076984 0.0018226689895893 -0.238811158658967 -0.0964921293134981 -0.175402491350347 -0.101801566997987 0.0363648199911106 -0.110092381601178 -0.0418408319519445 -0.237001904266712 -0.192888308160908 -0.257896400129946 -0.0233053404780289 -0.0906965528313758 -0.052472059845289 -0.130250593300748 -0.0882101925981932 -0.0820261811720428 -0.0242984532156021 -0.0553063518545301 -0.159217296472727 0.0215670707044293 -0.00321788838691377 -0.18393410580847 -0.10741220326924 -0.288120332048304 -0.358134741266522 -0.198739900094126 -0.143959497513441 -0.21236318245282 -0.292621985857695 -0.263646406106519 -0.0319306166252364 -0.010918698416644 -0.0549418722922702 -0.0633343552538245 0.0613144153433879 0.218316468253194 -0.089330109025657 -0.0956888349383144 -0.21653929551971 0.0208964984743147 0.0509434485971038 -0.00287993831804756 -0.29876248474623 -0.253468959437414 -0.114167690280638 -0.320278066116407 -0.167370071823137 -0.0320878011853081 -0.313848590590375 -0.0523011387867962 -0.266751332846076 -0.152647150019451 -0.0977586274585062 -0.147560859378049 -0.378046777347855 -0.05840661906702 0.00948078814229933 -0.297849118513933 -0.0620415512973216 -0.253470470770188 -0.00268778615498644 -0.116905054429753 -0.148767990503098 -0.059932829240105 0.0440072058456374 0.0608222967814453 
-0.374720833121279 -0.317058666996829 -0.293179540415609 -0.0806216338558117 -0.146125176090166 -0.0817457113267526 -0.153596652443321 0.0685492493180452 0.246330781726207 0.0582298433764194 0.17541812286563 0.296094652156359 0.110377402955845 0.0527146049812644 0.112268785829076 0.20141583602112 0.144388078952845 0.0735128448715028 0.290076678865329 -0.0697703888718706 0.0986184343203166 0.231844193946893 0.220516675052437 0.236899219135898 0.00915081382207668 0.138496447730807 0.214609598310827 0.152364282216958 0.105584063488187 0.136721158926068 0.188799058199195 0.0925156065119529 -0.0341029186481317 0.122034069452436 0.297160907165734 0.0751264813182336 0.14779102803167 0.130171724361206 0.283083809821115 0.0116043258653935 0.0952698011184304 0.260281608052875 0.31851428103532 -0.0365670588846115 0.00199949600385621 -0.0678225658990787 0.244123664611187 0.18890693206146 0.171119799648548 -0.156220576083698 -0.0274741250830756 0.00536943457406271 0.0822437782997757 0.159912655534575 -0.0827249273078171 -0.0317811521232794 0.0554185277230157 0.0272810988292601 0.25843733079583 -0.0156533863263355 0.215575610624483 0.1566847703244 0.189900674347574 0.164652033315832 0.313091333561394 0.273515932768887 0.389298693704671 0.23332559995756 0.23411599759845 0.259567427416963 0.0099099982792817 0.160967366728919 -0.199427642345875 -0.301051728529868 -0.115858738811232 -0.289485117146078 -0.191802729248936 -0.289659291962693 -0.132183614611857 0.0692905121232177 -0.142439896304224 0.245825889497742 0.014254187690307 0.017902939601001 -0.0379882015515409 0.0992612396793528 -0.0191848734574747 0.0707569388695733 -0.130251240497041 0.145873439710327 0.040118908794784 -0.135486197466208 0.121156033551435 0.148646430572678 -0.0173692874847507 0.132572675858625 0.0585992537586302 -0.083411163060699 -0.0257893583992932 0.0542905222443434 0.0208651708721949 -0.147642226916425 
0.135768381066603 0.0605993242249002 0.102229656599295 -0.160121460831389 0.0830051969861205 0.133504387265492 0.234393782579256 0.0021091256889631 0.168159700641556 -0.0950447172608141 -0.0467304118295334 -0.0331502243862023 -0.0478642514582096 0.236320505591083 -0.00567860199370527 0.135780283453587 0.0789871951780373 0.26924994943775 0.128109407179016 0.0269872999944263 0.226391212050264 0.0711481618469816 0.28761871002838 0.159583580355071 -0.00621518806886852 -0.0152363079604776 -0.0159975867295983 0.00103761136891318 0.14057500548063 0.17086285140982 -0.0608529247330356 0.159465560790897 0.0395500139727275 0.0773806471903686 0.22928004749043 0.0654039040797512 -0.0636298805751606 0.208537415595596 0.179560819222979 0.117045198730728 0.163741966055658 -0.0210160651293303 0.229900187423914 0.0142884388124202 0.261759950856388 0.194619471045073 0.237386973661423 -0.0278148591565864 0.0703432212450896 -0.131691141192489 -0.137636515183586 -0.101812434562804 -0.0742656546693251 0.0109373996263859 0.0864849891012887 -0.0541127709817885 0.0242923735156637 0.061960227018326 0.336965100116197 0.30102811683161 0.397720559303632 0.0927724533663456 0.262132707620637 0.225792838473104 0.0974527193909905 0.227591448686735 -0.0501034718661767 -0.11466969327242 -0.116742557079178 -0.0295079771495519 -0.0133785779073394 0.124689513289416 0.179164454547944 0.0864417714253853 0.0597519546302119 -0.160435689623433 -0.11190867294678 0.0091534661314085 -0.0117043494546197 0.238532774752305 0.00207816877865081 0.247839542312539 0.0550273041328197 0.241535506354998 0.0396262529607511 0.0889878283432402 0.0958827971357144 0.126870636536548 0.294097627319197 0.104604121044421 0.281979683285031 0.0272072367730164 0.0465142695477868 0.27536082546231 0.0649632173455797 0.158631234407858 0.131747205324392 0.291222519232214 0.0925233793391839 0.0549957731467327 -0.102074639682943 -0.0495297801058082 
0.140917880960175 -0.152729792546627 -0.0523032956881357 -0.110234120372459 -0.0700576315960227 0.149256837817027 0.019923412009833 -0.0727777126599008 -0.0521379390968238 0.0869323747508059 0.14504308001424 0.104597020012766 -0.0397751924371895 -0.121276674657088 -0.0371780054117708 -0.0482227863959021 0.0457891556898619 -0.0894336696184666 0.0598154483628194 0.136861486313548 0.171271859588956 0.106101875283081 0.0102402659004738 -0.0134594150125345 -0.0495107182054492 -0.187148063970168 -0.0272000228509565 -0.138329754104937 0.083460288249418 0.0122773740279693 -0.0761881358057758 -0.00650257100087428 0.0873461822267429 0.107751100984472 0.141062346743051 0.0441415843782871 0.187311186959426 -0.00894291186052257 -0.101689906689897 0.153134131126018 -0.0380473278437131 0.0911380729312537 -0.175088879541236 -0.0469588609125051 0.129020404128187 0.0177710278158895 0.105405242305805 0.0148584738188535 0.0729178894498489 0.055710190917872 0.0441466011847438 0.0630239960250364 0.096491704523566 0.0173707476188488 0.0999430463954991 -0.115281443040982 0.0997535203660501 0.17286452143561 0.0935715843793167 -0.00609214815497065 0.0952955168826847 -0.0719241484186743 -0.129875318347745 -0.0839602612913846 0.100891316117488 0.0474653198075912 -0.179996732813546 -0.182133172377835 0.0960191387676927 -0.174139769748705 0.102631186134694 -0.104251228383036 -0.0730232105780569 -0.257477458203119 -0.173078936172167 0.10339323482191 -0.0226723148256797 -0.119373011304058 -0.1364549216816 0.127742258938 -0.124895935565286 0.0233418804347326 0.147360652914874 -0.0207102147603771 -0.0382774902928502 -0.0149684575627679 -0.126532212961629 -0.0565252991950654 0.0495637690340514 0.0685288066848624 -0.00529700561062588 -0.0526528945907969 -0.105228963161525 0.0509139991192206 -0.0548900625481922 -0.0298807743919612 0.0294729858248428 -0.20896791461978 -0.148008175072295 -0.0971630793942182 0.0853690768546963 -0.111312654338543 
0.0439977926747475 0.115733666508099 0.0765173810575705 -0.00344485160264024 -0.00156788103606239 0.0725236920610585 -0.0784515951448647 -0.0744821824688145 -0.1905996779829 -0.0538358784647146 -0.0300478575039362 0.0648341396766486 0.046671975465889 0.127031969698442 -0.121225120231691 0.00597531430866149 -0.0809858860798288 0.0359720709219851 0.0582659089101984 -0.108657160374771 0.106905548732839 0.0603450168013983 -0.182314162447705 -0.0930457402230258 0.0481885696049966 0.0646211841487138 0.00287400053027441 -0.0383610406453606 -0.191319383921706 0.0421266917093771 -0.0125938948775339 -0.141897197608364 -0.1580619850447 0.0166300614470642 -0.209849370388457 -0.00635193592663607 0.112929680765078 -0.192885703139191 -0.108084352767237 -0.0716250491618676 0.138369738244356 -0.0350155240511153 -0.00404161383913973 -0.117156273328931 0.0466283221927749 -0.124205943235707 -0.0596682477672597 0.0215934619105738 -0.162236433133926 -0.115813417351605 0.131442910762483 0.00207571077619892 -0.172215993517577 -0.148148270669773 -0.0520005950904467 -0.0346476319747678 0.0447427396819389 -0.0201154805765973 -0.192132974281134 -0.0691237397397363 -0.126584251239215 -0.256122128214901 -0.148136204678909 -0.226593655178808 -0.0316149299432084 -0.104335187841906 0.0375606719810348 -2.1618917128206e-05 -0.0309514440624979 0.0288332245088968 0.131611337427535 -0.198773303102759 0.00837354211089655 -0.0760821545391877 0.0997633905904463 0.13650940125967 0.00844390460997993 -0.0125414062095849 0.101607931027298 0.182516905987496 -0.138319611328187 -0.0924266037078904 -0.00383842330597427 -0.0918404813889998 0.122352439285317 -0.0754985727183578 0.00246659793560751 -0.129932268574532 -0.121343419182496 -0.116751838621865 -0.106791816499464 -0.0490441652223442 -0.0206150443165516 0.0497554650853012 -0.0653735973581364 0.172027990126704 0.00515162198143296 -0.146958662467068 0.0453756986820733 -0.0933449651848316 -0.0178288523881138 0.0946639354175858 
0.0540237789385002 -0.0366390688073317 0.00787638239911939 -0.000245909718020288 0.0343501684960286 -0.166414696584033 -0.059693300272637 -0.0419039333582512 -0.0501923688839956 0.0911595190992417 0.110028233256508 -0.0291532839576139 -0.0780655616605799 -0.0495831261697854 -0.0519024704271928 0.155255082255644 0.0574309441660737 0.0437136328616088 0.113848341043174 0.171973749856218 0.172433640499287 0.0603033038613159 0.0916825109643635 0.0984457974075155 0.0262050587020461 -0.0918900553137179 -0.0274572574315163 0.1031692499 0.247318394973214 0.168113724887445 0.14719444726589 0.190677387751651 0.0139782539511872 0.138625601293368 0.0645581983617763 -0.0343161660468553 0.170170566131448 0.0661280227251211 0.203958564049699 -0.10080367352996 0.139156371669156 0.256036398522361 0.330695556655573 0.147213961397675 0.0368076566883448 0.113101590979984 0.235743537100467 0.225788699377564 0.254102429131146 -0.0362149092719831 0.0297596429488066 -0.0346292933803962 0.121628274027994 0.122566239925285 -0.0273320559324132 0.142871377823841 0.177519372550819 0.279561572621791 0.0739695054846162 0.111086555851853 0.180276130251202 0.130591648866916 0.222148275453866 0.0945843991836101 0.29332649084462 0.238413703228514 0.186613902929231 0.0105156880923786 0.00338454311582741 -0.0165793841135073 -0.194101692417912 0.0989793967691085 -0.0526483121699004 -0.000811591412513178 0.047950110023391 -0.0529473898458219 0.00680547093807015 -0.0822711595276924 0.16252807473707 0.216661894823293 0.000203306003804902 0.195054152494387 -0.00385551243518493 0.196181547323581 0.0169322425078504 0.184469782002118 0.0811620481854349 0.103319188479581 0.0882720432572947 0.228283785475544 0.233371093300773 0.214312268994508 0.132229200917724 0.205855153917238 0.156191868851228 0.130434710579134 0.0825721772713955 0.0342131065366822 0.143190239210805 0.0575383951099237 0.0355844334435706 -0.197593080356455 
-0.0602620242985219 0.0584560551401487 0.0392274858203915 0.0977827314110934 0.24123253288734 -0.049230769874392 0.151306412742507 0.181991946117372 0.0988197507796312 0.0362467704471343 0.00804821141426069 0.0689524479806766 -0.0688358119651864 -0.045338795059029 -0.176119860489236 -0.150195147991344 -0.0714045619458695 0.0283047231656532 -0.156510782975198 0.125462856972641 -0.199677071795133 0.0439072780676341 0.0625162511338957 -0.0978514701051879 0.0339429599607741 0.163209238816674 0.158802314782965 0.114776299393773 -0.186635742962411 0.0675247499288718 0.0976741378333037 -0.211518108028902 0.00369906995057719 -0.0661949500216216 -0.288355456635577 0.0263022969780035 -0.0225620445056168 -0.18497448854053 -0.14151775332431 0.012891693691791 -0.0633365950285265 -0.096113842418338 -0.184505316717254 0.0273821420671653 -0.225515766053553 -0.131647941604185 -0.107813369918759 0.0429431629505947 -0.0309449847335605 0.168746654198305 -0.0650469276997361 0.0357768019848678 -0.163700848981161 -0.080068387044436 -0.0985538721917678 0.0332039310146081 -0.131586217323042 -0.138608468112874 -0.142209879949307 -0.0734605555368475 -0.377413435712763 -0.163422950060112 -0.106357704236759 -0.0519025252016415 -0.20384770799197 -0.132374447702646 -0.164346729182641 -0.0593265630384997 -0.234742880842075 -0.0257422747356673 -0.196121190907907 0.0260738736461173 -0.0146641188525718 -0.0679856792630519 0.073093290255262 -0.124837324240113 0.0638809616810201 -0.00960586994720316 -0.217890038345679 -0.210549857083826 -0.158734362222838 -0.163406701033618 0.0383055616668583 -0.166465997023637 0.1280774588496 -0.227742184229547 -0.184186337384969 0.0512684700853181 -0.235445838375098 -0.345232741974057 -0.0313625086431728 -0.261797226667412 -0.0599449576158681 -0.298974366985084 -0.0708037061369006 -0.139990549730811 -0.201709152519988 -0.0744273573101011 -0.14931140900122 -0.115247092246041 0.130355383786922 0.00482693416057858 
-0.0243113304805748 0.0148069732644773 0.0731711294325779 -0.112284496929683 -0.220164922072075 -0.0477009602698579 -0.0316008439246898 0.0632768123497103 0.127029109222486 -0.0687229458351832 -0.162522408194464 -0.124409144091231 0.0596517353234487 -0.093508582197686 0.256639496600719 0.100358472495199 0.250214153431333 -0.0241757348667464 0.218576964241849 0.141976146269296 -0.0900707355405719 -0.17577413754726 -0.0400820753193131 0.0206374008264445 0.139251970334578 0.106591235487967 0.119611658706852 5.03680955412991e-05 -0.0151533911499671 0.338212000649528 0.207956539119059 -0.00703650882711434 0.174992134517814 0.0282278445598748 0.203496639710003 -0.0749290392594706 -0.0698449152117091 0.00652223160457814 0.411773130379935 0.333825560646979 0.0556074184144869 -0.0389631435965567 0.0957591750489439 0.283821774167515 0.414886194784858 0.25470286392785 0.0927386826191891 0.0310199626429868 0.324996833357182 0.273430214339939 0.0708004424111632 -0.341292898611273 -0.0543666113984148 0.0487252355858909 -0.00977122964362015 0.110989803011768 0.320788634285716 0.233411796129918 0.322687792068424 0.0495490427275974 0.225498725492935 0.114925777094536 0.171979486861878 0.133170402359307 0.0777016196554645 0.124525823813682 0.0372591264030136 0.121533294653365 0.144328272252504 0.0385914942077045 0.0214978309869744 -0.325186493833735 -0.0208677275388935 -0.266757207167928 -0.0591148992699982 -0.124221160630205 -0.226576437859406 0.0632587340876303 0.187602310172698 0.0727676139037897 -0.0324398382655672 0.29405526860977 0.236512269643864 0.307870156767263 -0.100331604108272 0.140570225808437 0.0967793868368645 0.0250882926400452 -0.0731802565027034 0.245693214613737 0.20083768839203 0.0733797221823772 0.410189373825101 0.349153173212068 0.371261169466556 0.208520926719075 -0.048323858151596 0.142211573259299 -0.103292430322626 0.0446234531265896 0.00546140105819073 -0.194400525239511 
-0.324613281786723 -0.0924430527940497 -0.251541618794264 -0.148076492760125 0.00100198667240073 -0.0568005224890278 0.123321234229901 0.0402863845271149 -0.0511787406293211 0.192201016888125 -0.13994410082635 0.225219818771579 -0.0191175171512615 0.13594411635655 0.055385854690731 0.304705303321659 0.204878744784996 0.187236656495555 0.227175508929821 0.174227681719983 0.311829556764635 -0.0140587533158162 0.106064823118787 0.0274712894420355 0.097125100681378 -0.0145092460965514 0.121074726911835 -0.0643546455156793 0.134517603208088 0.300867124327166 0.192517902645309 0.0901546960298568 -0.068744902726656 0.132972510230089 0.226225985762837 0.183642526583377 0.208586644016812 0.210913070977285 0.187158286392256 -0.00749774207435641 0.0988271849115325 0.0463373465328034 -0.0306765521262627 -0.0503494246554263 0.173387331199224 0.013400066151387 0.167447256129804 -0.0480986025715619 0.105164055451806 0.114075844914935 -0.0237544294207961 -0.14221616478683 -0.128057652626032 -0.0105864506037624 0.0455003442674992 0.0261280387624502 0.0446078105409959 0.141135191780696 0.153062316634746 0.120051749478161 0.190317399024014 0.208975472811543 0.0898134420655313 0.0138383627712258 0.113130113620453 0.114980559754762 0.309620176205194 0.140495488461992 0.239946605446128 0.237335649002716 0.0280440038486883 -0.0143970100324731 -0.13182846720892 -0.113278364058682 0.182879287232934 -0.168701182297632 -0.131728187509712 -0.184416785647991 0.104610063029659 -0.0421416990703775 0.165651527061206 0.117365791480877 0.0334482977155437 0.244957767273497 0.0450340712747151 0.243005968952744 -0.0455634703202338 -0.079392042279452 0.168659557055837 -0.0158851886053913 0.139625846758832 0.167596835900342 0.0966370263550728 0.0564702371136673 0.221561565619394 0.164207056771042 -0.0131070719829701 0.097179477771874 0.159849359184708 0.116147235471197 -0.0658985447788368 -0.204719765940401 
0.209830414860153 0.0835369146951451 0.0280299619769772 -0.0278239052080697 0.165501298112451 0.0219475088168739 0.0338505340335597 0.079274798490411 -0.215333264471181 -0.194283910932599 0.111555759690906 0.0734170220136746 -0.151086440417029 -0.0217645483125195 -0.0512528291569212 -0.157409362627625 0.0550904789961511 -0.146488824991922 0.0533961808651601 0.0865539865359553 0.0374583715486051 0.13170914961457 0.0183192949995264 -0.151136126984918 0.091498257115115 0.0565413399861429 -0.0184678313363841 -0.034515488522227 -0.192326900008562 -0.219588133023846 -0.193002194032527 -0.158860717205038 -0.134548908069845 -0.204019744073374 -0.247195238505342 -0.152779639616539 0.00782557920445488 0.0135534424213713 -0.0571484501608502 -0.238434414966753 0.0320367431981381 0.00573689233575243 0.0868673115596231 0.0834593923913233 -0.0802500153549782 -0.239900957095462 -0.0354889353607238 -0.0123086632514461 -0.0957240783044972 -0.0851540237516017 0.0299958867531456 -0.071642666967284 0.013779009759159 -0.000885192765901972 0.165553665964374 0.107420822042854 -0.0209178805163055 -0.0694932029826641 -0.177124367438854 -0.246467058537785 -0.102951218221766 -0.0652746580664861 -0.0538439710301373 -0.018923988948018 -0.160627532384542 -0.0572200101878861 0.024117449785758 0.0603503580952936 -0.109872554766805 -0.103572837506665 0.138162875736801 0.0543886384421785 0.0335084353954698 -0.0425587595639124 -0.08110548298791 0.0786862048390404 -0.0640104127408035 -0.135574473512903 -0.167393441749981 -0.180292560035916 0.0759235044824926 -0.298740842096344 -0.142047530886712 -0.0918292408541096 -0.0971192505847288 0.018330319783426 -0.00884276834368587 -0.251651810832506 -0.106277997652826 -0.284141500152047 -0.300215029952602 0.073170064204575 -0.0293159696058463 -0.167642499121103 -0.0696701518709383 -0.200130787987861 0.0488751397996003 -0.0235401708028539 0.107491844887701 -0.0566101299061408 0.0945783373987388 0.0727940710316634 
0.232068192090784 0.2530430041082 0.230919258256682 0.199941388210107 0.190461670252241 0.0467347232695482 0.0287253486296236 0.0478520841491712 -0.00664029388241402 0.115490688563433 0.0496348491740602 -0.212851726976418 0.0966548888845921 0.0969388405289868 -0.21058873154717 -0.121279188463874 -0.139845611221744 -0.0388497465616103 -0.017144060267558 -0.139730015639111 -0.190971431769157 0.0235845007316046 -0.0421246836222135 -0.0598235961049609 0.02806182430245 0.151200193389768 -0.0822409496941213 -0.111045563989184 -0.0149636510498675 -0.165338876730899 -0.0874892425524371 0.038316571490997 0.00692398224590287 0.00851407064655739 -0.194464864354653 -0.041504534601619 -0.193523463731148 -0.250704137778321 -0.28194348586738 -0.0347988873470486 -0.0435096615379409 -0.143911253637737 -0.161871104647729 0.0494105917042335 -0.0452248231833004 -0.0999304821329426 -0.119169105311902 0.0663805484859536 0.0132948607580795 0.0765110604985001 -0.0896324787145747 -0.018167829315277 -0.166460106907517 -0.0059198479218041 -0.127265351178563 0.0160531885729398 0.00878318210152476 -0.137418284408504 -0.0204640294423226 0.0470221577287089 -0.291518430681429 -0.158410449315166 -0.144187707910491 -0.121393854785681 -0.0631804132796044 -0.186898738028334 -0.246633941599448 -0.0124708303208012 -0.111761413023507 -0.208124543465214 0.123128245639851 -0.0736941830074257 0.180224456396414 0.184000687888383 -0.0558320310459211 0.183740520491399 -0.0394790991589637 0.216502970918764 -0.0906231182581179 0.0985995991362363 -0.117481953461246 -0.0994493452535408 0.113289342192278 0.0524609681254828 0.0479265587607061 0.0666250352356921 -0.0227594240414809 0.160846272539801 0.0983424160772676 -0.139405545390874 0.135827039398365 -0.00728613655019211 -0.161920988241231 -0.0306952475244969 -0.0901356691185696 -0.0426951049070999 0.0632167251367705 0.0836508979077699 0.00188160201971541 0.02451413114569 -0.0582041710255708 0.0374746364114416 
0.331194034529004 0.270875972067007 0.0716679920917574 0.0519484547613745 0.0797220833969499 -0.0250886274054826 0.133399008718544 -0.0459539138031443 -0.0791738058623162 0.0493524062619636 -0.115375369654512 -0.0915360171375669 -0.0341792103454115 -0.0308108209459891 0.0620028456153017 -0.0497026190963955 -0.104088528783038 0.0126682905898101 -0.18645158408023 -0.140708349911059 -0.244633415679136 -0.200687361811116 -0.00268342759974445 0.137496915449408 -0.0880169126211258 -0.0904774192041614 -0.101331159910385 -0.0456254044478236 0.070984074300176 -0.130527157628934 -0.120497876524393 -0.180457769613526 -0.138293107995555 0.0559766556178313 0.150680099446706 -0.0793784335746821 -0.00158741391770903 0.355564239058077 -0.0529995670794778 0.0700207387382703 0.161416139638698 0.123801697363057 -0.0265495033374848 0.0617191741892844 -0.0667919704421184 0.0409216220850389 0.0579509528461234 0.126378460882424 0.0104264486544824 0.0603861058302364 -0.0716374101210212 0.132477570260694 0.0654415982449777 0.033343131575793 -0.0658519484584724 0.124873549646697 0.179152753937928 0.0890166006783636 0.221907297686068 0.127107044376069 0.179831747105417 0.213327204149163 0.166680495509853 0.125769299841265 0.140149522728255 -0.0418138376823531 -0.00159556982789257 -0.155971726297455 0.000447997731638676 -0.188996150790502 0.261382433330649 -0.14837232285336 0.28441847773661 0.131909008751176 0.055033943784838 0.0329382538967143 0.11872580950331 0.10526155867075 0.226972304678691 0.219656160653385 0.120738242514452 0.010844070293136 0.0986285231560969 0.0718066101263603 0.141641927061508 0.00299732577637933 0.267408575278337 0.310306754617641 0.38819324260453 0.196160010284057 0.336850326241333 0.254288583737108 0.0533883127648302 0.209731752399749 0.102641272706384 0.112774643549212 0.00196632046828614 0.281399485398041 0.168696613617802 0.0971024763482124 -0.0877358974332552 0.146541738427002 
